var nnJudit = {"layers":[{"out_depth":6,"out_sx":1,"out_sy":1,"layer_type":"input"},{"out_depth":32,"out_sx":1,"out_sy":1,"layer_type":"fc","num_inputs":6,"l1_decay_mul":0,"l2_decay_mul":1,"filters":[{"sx":1,"sy":1,"depth":6,"w":{"0":-0.20700435010042842,"1":-0.19333471810263197,"2":-0.18373118629991458,"3":-0.13051543435855492,"4":0.12501532543295404,"5":0.38656443773553695}},{"sx":1,"sy":1,"depth":6,"w":{"0":-0.6431305380243381,"1":-0.17200589509401656,"2":-0.15548101834188366,"3":0.27480053881737415,"4":0.15363314992536922,"5":0.01607455866678573}},{"sx":1,"sy":1,"depth":6,"w":{"0":-0.18810925937091505,"1":0.1364698496171162,"2":2.0565879950876838,"3":1.559494569883295,"4":0.1023821418027771,"5":-0.12292120740430565}},{"sx":1,"sy":1,"depth":6,"w":{"0":0.0322362229044456,"1":0.09827149336867873,"2":0.4206470728648943,"3":1.9214269197329872,"4":0.005660250337825987,"5":0.2280613922105377}},{"sx":1,"sy":1,"depth":6,"w":{"0":-0.05698851572909802,"1":-0.3522996917052228,"2":-0.13316297937231242,"3":0.13758381597684774,"4":0.010265383028315745,"5":0.04793657816612275}},{"sx":1,"sy":1,"depth":6,"w":{"0":0.3941618974173644,"1":-0.20113655108209844,"2":-1.081670261271889,"3":0.831018053508706,"4":-0.30956576914446715,"5":-0.33225326134099}},{"sx":1,"sy":1,"depth":6,"w":{"0":0.2798795959187252,"1":-0.15399146833718852,"2":1.0329065096682724,"3":-0.7894755879562019,"4":-0.33775923556714715,"5":-0.2640700271258624}},{"sx":1,"sy":1,"depth":6,"w":{"0":-0.43101054804298655,"1":0.023804519095599115,"2":0.46440257645074673,"3":-0.2268484704233488,"4":0.5278297587586979,"5":-0.31334412475807066}},{"sx":1,"sy":1,"depth":6,"w":{"0":-0.10122797829461763,"1":-0.295035392813861,"2":0.2434119330346724,"3":0.09677817960174818,"4":-0.2816580851415078,"5":-0.5629891234005671}},{"sx":1,"sy":1,"depth":6,"w":{"0":-0.028385283858178473,"1":-0.06703371119537566,"2":0.18629566342741447,"3":0.19535841126691497,"4":-0.10000256452487769,"5":-0.1521286406628383}},{"sx":1,"sy":1,"depth":6,"w":{"0":0.22495039207068554,"1":-0.15571941765718803,"2":0.044234569484628075,"3":-0.45228375987281244,"4":0.1099457904383711,"5":-0.01775323516805557}},{"sx":1,"sy":1,"depth":6,"w":{"0":0.03060541828026514,"1":0.2139803331839116,"2":0.22054448055597634,"3":1.3778183567417512,"4":-0.08327632199881436,"5":0.1134285066296724}},{"sx":1,"sy":1,"depth":6,"w":{"0":-0.26335489837877496,"1":0.04467948397690702,"2":-0.1142619278962254,"3":-0.13909975793718657,"4":0.09933366152535558,"5":-0.6370977035060602}},{"sx":1,"sy":1,"depth":6,"w":{"0":0.179778980711989,"1":-0.2775811008148109,"2":0.15966771279031536,"3":2.741860165748746,"4":0.12671455510282287,"5":-0.049035160695950986}},{"sx":1,"sy":1,"depth":6,"w":{"0":-0.22131892437801343,"1":-0.45602663756301887,"2":-0.2405293628492464,"3":0.16956416321613535,"4":0.513335991149637,"5":0.3983638382145418}},{"sx":1,"sy":1,"depth":6,"w":{"0":0.11802955104999144,"1":-0.5057803679978866,"2":0.5877751104848639,"3":-0.5514054182317534,"4":0.17503016400897461,"5":0.27007039894647344}},{"sx":1,"sy":1,"depth":6,"w":{"0":-0.5197287757186843,"1":-0.2785865083194974,"2":-0.021071666994760912,"3":0.07397330054674392,"4":0.29448556791316843,"5":0.046822298755848264}},{"sx":1,"sy":1,"depth":6,"w":{"0":-0.0930376752309463,"1":-0.06879619857041652,"2":-0.14289863619910764,"3":0.14289458035461935,"4":-0.0808872408847694,"5":-0.2822344704055303}},{"sx":1,"sy":1,"depth":6,"w":{"0":0.15102901083029147,"1":0.12687422322426462,"2":0.961088703296546,"3":-0.8854858305129709,"4":-0.20064135625383936,"5":0.0530176301534663}},{"sx":1,"sy":1,"depth":6,"w":{"0":-0.09275566071432967,"1":-0.09315807030372349,"2":-0.06610625195475325,"3":-0.3085109365386262,"4":-0.3968543543282556,"5":-0.010509605137097672}},{"sx":1,"sy":1,"depth":6,"w":{"0":0.2632368178404454,"1":0.11670230751653504,"2":-0.6806308593702765,"3":0.34681990965274606,"4":-0.5830961954881014,"5":-0.06159087318220078}},{"sx":1,"sy":1,"depth":6,"w":{"0":-0.0891760656308382,"1":0.0908165147129533,"2":0.39436175971605497,"3":0.18767293656070128,"4":-0.13364918021802502,"5":-0.08321081861416971}},{"sx":1,"sy":1,"depth":6,"w":{"0":0.20964479331009137,"1":-0.39975105740279887,"2":-0.15178709016870084,"3":0.7359861897584418,"4":-0.079548185048874,"5":0.3710992993286948}},{"sx":1,"sy":1,"depth":6,"w":{"0":-0.42041547151093306,"1":0.6257476457565753,"2":-0.34082703352176946,"3":-0.016786714789980523,"4":-0.13965951772429408,"5":0.07688558541019064}},{"sx":1,"sy":1,"depth":6,"w":{"0":-0.21269189850210274,"1":-0.20352949801609185,"2":-0.320878819720059,"3":0.1720590875183705,"4":-0.0600185988004567,"5":-0.17406429301306575}},{"sx":1,"sy":1,"depth":6,"w":{"0":0.10360314664042058,"1":-0.12820060296380373,"2":0.28983890057094874,"3":-1.90484593850672,"4":0.039956072870236004,"5":0.04846752760436742}},{"sx":1,"sy":1,"depth":6,"w":{"0":0.10721796242861836,"1":-0.24935585172096966,"2":-0.1063029317553322,"3":0.24273098809042143,"4":-0.35852659086383765,"5":-0.05243367555381233}},{"sx":1,"sy":1,"depth":6,"w":{"0":-0.025577775810659502,"1":0.21039688942718698,"2":-0.6177820209787005,"3":-2.4093701095033295,"4":0.004991307355612382,"5":0.17971054221067048}},{"sx":1,"sy":1,"depth":6,"w":{"0":0.013463359265533385,"1":-0.019645160702673185,"2":0.07505436856477772,"3":0.4017583009062622,"4":-0.38540313909516316,"5":-0.33971810996697993}},{"sx":1,"sy":1,"depth":6,"w":{"0":-0.3906376434175196,"1":-0.2429611595270938,"2":0.34914292699739696,"3":0.12923601144980312,"4":-0.12501880954129813,"5":-0.05017180265872491}},{"sx":1,"sy":1,"depth":6,"w":{"0":0.27137117612848893,"1":-0.40017802967472116,"2":0.43894501364528804,"3":-0.15180509648248922,"4":-0.05426201279332799,"5":-0.5652077584677434}},{"sx":1,"sy":1,"depth":6,"w":{"0":0.1370551908811048,"1":0.39868078978828825,"2":-0.2011200862321038,"3":-0.3689745320532709,"4":-0.5705122716032587,"5":0.34703520592446935}}],"biases":{"sx":1,"sy":1,"depth":32,"w":{"0":0.1021865368691904,"1":0.09707638589784194,"2":-0.0025807431517258783,"3":0.03528443491955961,"4":0.0996474814895021,"5":0.12709396030969372,"6":0.07874954377747961,"7":0.09475461413423741,"8":0.1,"9":0.1,"10":0.08207749869160663,"11":0.043187804033851314,"12":0.10431653802740162,"13":0.04604371010221497,"14":0.12401142282181099,"15":0.1034925951630934,"16":0.10355042723246084,"17":0.1,"18":0.09545283644226724,"19":0.1,"20":0.10191678160795296,"21":0.10004564352863014,"22":0.09907925371514413,"23":0.10600222224418865,"24":0.1,"25":0.15453057918094246,"26":0.09821794239248308,"27":0.14745748989028618,"28":0.1,"29":0.1,"30":0.09571920632701751,"31":0.09874509840461732}}},{"out_depth":32,"out_sx":1,"out_sy":1,"layer_type":"relu"},{"out_depth":32,"out_sx":1,"out_sy":1,"layer_type":"fc","num_inputs":32,"l1_decay_mul":0,"l2_decay_mul":1,"filters":[{"sx":1,"sy":1,"depth":32,"w":{"0":-0.08917393630630038,"1":0.008043594857597024,"2":0.03446323061234676,"3":-0.09056960094712051,"4":-0.042469214240728206,"5":0.07774854301099637,"6":-0.014488185861718366,"7":0.13991127723066835,"8":0.1031810747862151,"9":0.12684415617668263,"10":-0.007767970162148241,"11":-0.10220703475228833,"12":-0.05604548142123507,"13":-0.06540338178774631,"14":0.162995052000302,"15":-0.26282276402608984,"16":-0.11204269763269446,"17":0.09752023302488817,"18":0.12108058310521361,"19":0.06343525753853757,"20":-0.05143169877462838,"21":-0.17377708789580593,"22":-0.02987116992646008,"23":0.0031337423128810775,"24":-0.13006225964596274,"25":-0.07895132321301991,"26":0.18818173650080883,"27":-0.11921358534525177,"28":-0.03216439994581346,"29":0.07587206322822623,"30":-0.05834318356311121,"31":-0.03462401197443222}},{"sx":1,"sy":1,"depth":32,"w":{"0":0.13123553192618062,"1":-0.12968303732476394,"2":-0.09323890282134523,"3":-0.07848947451496459,"4":0.07476953307785233,"5":0.12312762432970253,"6":-0.015030727405308825,"7":0.04303297302455818,"8":-0.07114628664090193,"9":-0.05416236290649473,"10":-0.03897779044542243,"11":-0.0013458483146376351,"12":0.09139442244779492,"13":-0.04948501751159869,"14":-0.09560883424011174,"15":-0.040087124092560975,"16":-0.04241649700536022,"17":0.16053077737328664,"18":-0.08922612058613111,"19":0.009208484258193992,"20":0.00821491916775596,"21":0.09370051074058022,"22":-0.024706764287343454,"23":-0.16573813742153481,"24":-0.14197890103028823,"25":-0.016028281430760863,"26":-0.06751208327238366,"27":-0.19113355608048763,"28":0.09215831441150751,"29":0.1388629921000054,"30":-0.059629616734938315,"31":-0.07767019296085177}},{"sx":1,"sy":1,"depth":32,"w":{"0":-0.008453267788210652,"1":0.04790459015424602,"2":-0.1560181541244368,"3":-0.10049260386799563,"4":0.08965467082431783,"5":0.10046708716813299,"6":-0.11180228852855294,"7":-0.23070073610871716,"8":-0.07045096563910912,"9":-0.08093368087132229,"10":-0.03167569018585656,"11":-0.06725045634484743,"12":-0.12922325354116201,"13":0.118937142306278,"14":-0.0682682073271629,"15":0.19207104844775125,"16":0.08148889858762798,"17":0.08429766967575486,"18":0.07995767131562165,"19":0.000870585911190592,"20":-0.11641184872758059,"21":-0.020603312443809026,"22":0.13204763801311017,"23":-0.039158370593455574,"24":0.036191420675416065,"25":0.02147731285637471,"26":0.04920589849777532,"27":-0.1959894720248175,"28":-0.02122466216559379,"29":-0.17757884009066852,"30":0.10726166641798324,"31":-0.34235515696575824}},{"sx":1,"sy":1,"depth":32,"w":{"0":0.12723556734283206,"1":-0.11166042117540792,"2":0.3801474556185141,"3":0.12870693806532027,"4":0.032588459617173327,"5":0.39671106997632116,"6":-0.34245697547576937,"7":-0.0177444734125423,"8":-0.062349144085498166,"9":-0.02569918360789993,"10":0.19546028082853747,"11":0.14882774150677602,"12":0.12037705286000532,"13":0.3273812146931648,"14":0.07887713618711277,"15":-0.29720810542632914,"16":0.06872286170901847,"17":-0.039859297318836535,"18":-0.28150640695313095,"19":0.04275801198863489,"20":0.0776550471352339,"21":-0.07667385086832995,"22":-0.21500611978173673,"23":-0.1837264851974269,"24":-0.13535313048979766,"25":-0.18048296085701912,"26":-0.17173215706061262,"27":-0.11552345349183146,"28":-0.02697155764749485,"29":-0.07738800194534119,"30":-0.19897539987369695,"31":0.023530400680974957}},{"sx":1,"sy":1,"depth":32,"w":{"0":-0.19819570905692488,"1":0.029895191506906244,"2":-0.1514809598777295,"3":-0.04883695468884506,"4":0.15011302096548224,"5":-0.19939133220615635,"6":0.03014069466752069,"7":-0.08085535512123657,"8":-0.09299931309405031,"9":-0.20674990932005813,"10":-0.08035762877092262,"11":-0.26330538298045797,"12":-0.02857479716045092,"13":-0.10968846904583388,"14":-0.07437338719252522,"15":0.27930004700845695,"16":-0.0698764902935969,"17":-0.17883770742109092,"18":0.08691483575964834,"19":-0.008099124326387442,"20":0.1193726839655526,"21":-0.08914378450215013,"22":-0.0901247383294265,"23":-0.19825681973672582,"24":0.09167992536822223,"25":-0.12398011686959053,"26":0.08303755427460578,"27":-0.054191606876227344,"28":0.003741009476543705,"29":0.11766985524454797,"30":0.10878310977396076,"31":-0.02930394131432771}},{"sx":1,"sy":1,"depth":32,"w":{"0":0.0033581115524022247,"1":-0.035199594886642635,"2":-0.16703045886768556,"3":-0.351866232269279,"4":-0.10457292626833482,"5":-0.15385767234426445,"6":0.31841292066435906,"7":0.07570798774689125,"8":0.04882802714540383,"9":0.009176283593389352,"10":0.12238601112600732,"11":-0.1301841165100293,"12":-0.12989250554387793,"13":-0.4302380794673586,"14":0.12460394018686215,"15":0.10140353639880223,"16":0.04869703607364094,"17":0.11036165088276201,"18":0.2539573126085632,"19":-0.14578384916793571,"20":0.16114323707914163,"21":-0.007130137058927741,"22":-0.12566806263990016,"23":0.07889274658085535,"24":-0.13620383540247474,"25":0.2967326818166408,"26":0.23539899432476372,"27":0.4370866047160672,"28":0.1800791015841211,"29":0.09636621628975592,"30":0.10891648904039607,"31":0.2780409780443942}},{"sx":1,"sy":1,"depth":32,"w":{"0":-0.24722566909079072,"1":-0.08722095840271837,"2":-0.16276058609789149,"3":-0.22980830669522476,"4":-0.015021269565566193,"5":-0.09465906531579438,"6":-0.14434126269121017,"7":0.208005211161722,"8":-0.07280189440124955,"9":0.23520458605419323,"10":-0.2166152682369075,"11":-0.0020873027288091425,"12":0.018353373741407084,"13":0.14862247503804343,"14":0.220243185829054,"15":0.1008166002570908,"16":-0.07118600226770995,"17":0.10533009048863076,"18":0.08908372548251842,"19":-0.06981972477034938,"20":0.048554031171438784,"21":-0.0923009247466132,"22":-0.21694783531612208,"23":-0.09142522192645942,"24":0.15758272649644534,"25":-0.0019867496713571907,"26":-0.15405918791993178,"27":-0.039576936354645785,"28":0.002770759478949321,"29":-0.059229474603031976,"30":0.03493247923634917,"31":0.03992581153352198}},{"sx":1,"sy":1,"depth":32,"w":{"0":0.27865271598669344,"1":-0.11116525273359251,"2":0.025437028735515007,"3":0.06680965421150366,"4":-0.09466716031035034,"5":-0.09697218578168695,"6":-0.07035567038382624,"7":0.08391540732098902,"8":0.02142364434328832,"9":-0.002926868953379875,"10":-0.06005071223441779,"11":-0.1405665649280961,"12":0.0739253377752196,"13":-0.12237936218412843,"14":0.024963888354433427,"15":-0.1470152840470228,"16":-0.14711511630252846,"17":0.06867841829278513,"18":0.02012629691657646,"19":0.02609722276835318,"20":-0.15023036355864935,"21":-0.06993239729179486,"22":0.06902125506213266,"23":0.02624454626001298,"24":-0.051014831654328054,"25":-0.2511840421295193,"26":-0.17025920810377548,"27":-0.11044603886706202,"28":-0.09625578742596703,"29":0.039412832945121025,"30":0.047321197281635106,"31":0.005950370263813708}},{"sx":1,"sy":1,"depth":32,"w":{"0":0.09208329442013724,"1":-0.10162987132119179,"2":0.012035965738906886,"3":0.13010026863991564,"4":0.021006661935106093,"5":-0.13525360316839619,"6":0.23280276593862942,"7":0.3256228623190544,"8":0.1156369218106985,"9":0.07027274438904306,"10":0.10039637945619466,"11":0.08050491500606587,"12":-0.009862927155088557,"13":0.007785065598740126,"14":-0.09824583850379227,"15":-0.0027883953906940257,"16":0.19610853061097744,"17":0.023503833412561875,"18":0.013453214212724376,"19":0.09612839618599725,"20":-0.0802314897329207,"21":0.060601157642134085,"22":-0.19219979766774786,"23":0.06791067792047445,"24":-0.00956214063758057,"25":0.09652709004057074,"26":0.2177959805792248,"27":0.02469203578591667,"28":-0.053119098028815745,"29":0.011315768308140062,"30":0.03340678251888054,"31":-0.2000460993672702}},{"sx":1,"sy":1,"depth":32,"w":{"0":0.2879375838639284,"1":0.030874629404283566,"2":-0.017331961263734676,"3":-0.1447920628122833,"4":-0.1593341382503111,"5":-0.09210908993200917,"6":-0.017915087416890255,"7":0.013069948981827057,"8":-0.004932778225301774,"9":-0.0659269177461472,"10":-0.0870560175199985,"11":-0.025075653932976647,"12":0.18969102327632975,"13":-0.06903859765541573,"14":0.024831879416520236,"15":-0.06684924374652788,"16":0.03402614342668362,"17":0.11225045529534096,"18":0.009142692263833244,"19":0.08002611063277,"20":-0.016813184615530122,"21":0.04341482324762674,"22":-0.014756999794960689,"23":0.13820542869647762,"24":0.007347788807033834,"25":-0.15464298845712945,"26":0.14442129838540127,"27":-0.07847652638297416,"28":0.1163377132124421,"29":-0.045844000800190306,"30":0.16003197451744144,"31":0.050870865765334825}},{"sx":1,"sy":1,"depth":32,"w":{"0":-0.08981975230541397,"1":-0.13404865520456777,"2":-0.0004461016546884624,"3":0.0007544040713553509,"4":-0.11202105642928607,"5":0.07621845850742556,"6":0.05381720502908751,"7":-0.07361908065173414,"8":0.10461400439455645,"9":-0.030892673509147747,"10":-0.2041287800110575,"11":-0.08513342709416163,"12":0.05901632430207683,"13":-0.043522349736339554,"14":-0.1018216889751606,"15":-0.09287968734507204,"16":0.01753000441585261,"17":0.06059701756186741,"18":0.16367111177091517,"19":-0.16911331078597935,"20":-0.007337434586071482,"21":0.10628262142977284,"22":-0.024886649257577886,"23":-0.008091203479541495,"24":-0.17286571989926058,"25":-0.04294830280193906,"26":0.02042057059050015,"27":0.019889882441042728,"28":-0.13449918857294935,"29":0.07908526115172446,"30":-0.19625847359817405,"31":0.051524447491947005}},{"sx":1,"sy":1,"depth":32,"w":{"0":-0.05265038868899397,"1":-0.0002720045002293944,"2":0.30134843842559583,"3":0.09578596223138007,"4":0.012866827985078853,"5":0.08556250374200755,"6":-0.08794382808646758,"7":-0.017077275536654783,"8":-0.015988916682920313,"9":0.1902008015273859,"10":-0.13290744778770758,"11":0.025640488101637396,"12":0.04813887706980652,"13":0.22331462598891827,"14":0.20897827604267005,"15":0.006837877253992034,"16":-0.280378924680004,"17":0.061224387376739096,"18":-0.04497244175566135,"19":0.07620193039115125,"20":-0.07204903851509113,"21":0.017369780758508837,"22":0.2714579488237141,"23":0.024612652400104847,"24":0.08471181587613343,"25":-0.30229109698918516,"26":-0.019876589159215596,"27":-0.3979546000381894,"28":0.020705498375063393,"29":-0.10304591969470438,"30":-0.18269788297854733,"31":-0.04814868378314889}},{"sx":1,"sy":1,"depth":32,"w":{"0":0.04929155331219663,"1":-0.08586003544408531,"2":-0.02530983845712029,"3":0.02826388423246878,"4":-0.09142554426672164,"5":0.10752328501327091,"6":-0.061872806305658355,"7":-0.02992287432729025,"8":-0.012712086125909171,"9":0.1429625379600256,"10":-0.15216527249130846,"11":-0.09648895520312108,"12":0.08543250944954266,"13":-0.05876066034694728,"14":-0.22697885522499978,"15":-0.06690197318668469,"16":-0.051673052687119095,"17":0.06963958490172863,"18":0.11972240669816203,"19":0.12292379088462886,"20":0.0751348028555823,"21":0.2676862821615135,"22":-0.15180629835350992,"23":-0.10163559667246927,"24":-0.013489049299089291,"25":-0.1345540642172153,"26":-0.10391385583887366,"27":-0.11340900004751192,"28":-0.0062123158591824035,"29":0.02797715686561937,"30":0.05137311832719626,"31":-0.08256956975369156}},{"sx":1,"sy":1,"depth":32,"w":{"0":-0.03629285548165592,"1":0.06531281061398632,"2":-0.07498957414948838,"3":0.09350162796838764,"4":0.0013755971743811466,"5":-0.01188898169623227,"6":-0.08425199209390818,"7":-0.09597008980076811,"8":0.1784555522888716,"9":-0.04592224299454206,"10":-0.2994032502708493,"11":-0.18404760879498758,"12":-0.15694726195208927,"13":0.0712976636304476,"14":-0.04952282215017554,"15":-0.039672187771475985,"16":-0.04180545495221973,"17":-0.04589330315995598,"18":-0.01361456060034976,"19":-0.08780690342563265,"20":0.22776328601520074,"21":0.14816752621240403,"22":-0.02484231047633646,"23":0.29170943263713195,"24":0.13519424589873416,"25":-0.030836528835731607,"26":0.18729167290124193,"27":-0.014171535416521717,"28":-0.20118343393961113,"29":0.09557562846996982,"30":0.11800837099632329,"31":-0.07156293928956821}},{"sx":1,"sy":1,"depth":32,"w":{"0":0.2661489611843381,"1":-0.15275074127174862,"2":0.034386012928176134,"3":0.01630600756285302,"4":0.022329411293751655,"5":0.08954290378851382,"6":0.031068917732246196,"7":0.02325140206014619,"8":-0.04062681554181787,"9":-0.15145646235507376,"10":-0.02389937234572664,"11":-0.06250108211901215,"12":-0.023645037776752958,"13":-0.0385289522942932,"14":-0.06242192288035645,"15":-0.08207864296726207,"16":-0.0038142760902305987,"17":0.05412036610674113,"18":0.011111617124744986,"19":0.05909783073304512,"20":-0.21006709156102396,"21":-0.006491014045778785,"22":-0.0416165906520571,"23":0.07734029782883801,"24":0.1861526414343067,"25":-0.05163932637563934,"26":-0.03431028247754796,"27":-0.13531455274458476,"28":0.002660045640784109,"29":0.15619779280571824,"30":-0.09659753389434265,"31":-0.0683299027310951}},{"sx":1,"sy":1,"depth":32,"w":{"0":-0.13140162866126673,"1":-0.026783126774118014,"2":-0.018555544795320244,"3":0.15092966013764106,"4":-0.05575449995130734,"5":-0.021286041213850936,"6":0.028458072970290918,"7":-0.1442406215340807,"8":0.12468963312166434,"9":0.07104865433293539,"10":-0.2201956768471473,"11":-0.3031133021996805,"12":0.0454789083815574,"13":0.10564500208065737,"14":-0.0027829403193982017,"15":-0.022136869454133755,"16":0.07008368488276553,"17":-0.1407610164447139,"18":0.060089716758064494,"19":0.031400095524355055,"20":0.22545771927219949,"21":0.00725073634295203,"22":-0.029711238812223123,"23":0.07330272460863779,"24":-0.12530430691758032,"25":0.06786410988288163,"26":0.14502622396032996,"27":-0.18291202127880182,"28":0.10748487327335138,"29":0.03195719122801941,"30":0.16668863002252962,"31":0.014015270401187137}},{"sx":1,"sy":1,"depth":32,"w":{"0":0.1607309321093536,"1":-0.02662762834155165,"2":0.020633030289931614,"3":-0.11855134806842943,"4":0.08623069903897806,"5":0.15279992675881318,"6":-0.09768188890500035,"7":0.27057381292068305,"8":-0.07514717505905928,"9":0.11843239082853306,"10":-0.41354015998758925,"11":-0.14852432552053765,"12":0.06662228062351219,"13":0.19480478468780604,"14":0.18976652852811338,"15":-0.16204784083565005,"16":0.13498958594337926,"17":-0.2110316100226411,"18":0.011761722636821946,"19":0.005909025892611989,"20":0.04283759871903657,"21":-0.01255600695546113,"22":-0.040833657466078324,"23":0.34929588759154656,"24":0.02627004201547957,"25":0.007005608126131646,"26":-0.1451439737316224,"27":-0.10323535529033138,"28":-0.024667389682249994,"29":-0.06766754043726457,"30":-0.14316494074756528,"31":0.10632418577841442}},{"sx":1,"sy":1,"depth":32,"w":{"0":-0.02167537581269613,"1":-0.06632807880831254,"2":-0.07029653762077055,"3":-0.02055118057200395,"4":0.07331740077350213,"5":-0.06634789699079795,"6":0.20445883702458748,"7":-0.3318023376708854,"8":0.06985745546619863,"9":-0.0900646949396079,"10":0.09435962690368295,"11":-0.06650971474495092,"12":-0.17382366106469482,"13":0.09769851605810466,"14":-0.012876543132418958,"15":0.20730147245777647,"16":-0.1532288708796761,"17":0.06526126938462379,"18":0.20159406249557746,"19":0.13219038024036678,"20":-0.32565946733027273,"21":-0.015871529681052297,"22":-0.04438410578385665,"23":0.09434310092505509,"24":0.11456000537485049,"25":0.10958542322755702,"26":-0.05950185202071129,"27":-0.27940252257979276,"28":-0.03525562574145437,"29":0.09775447808454797,"30":0.1751312908221081,"31":-0.0992525820670762}},{"sx":1,"sy":1,"depth":32,"w":{"0":-0.021602782767608616,"1":0.003437363117377735,"2":-0.1168375217744414,"3":-0.08609659089563831,"4":-0.0072847967413909856,"5":-0.3101299168406805,"6":0.07408801882602611,"7":0.09273740085909675,"8":-0.053391439753267406,"9":-0.0717657977835164,"10":0.16905521273702784,"11":-0.15973906987524672,"12":-0.20926189703677173,"13":-0.006148565486412495,"14":0.3134055094988588,"15":0.019723155410819825,"16":-0.017980096790390462,"17":0.09017197497189869,"18":0.03860370721028908,"19":-0.06228086671045977,"20":-0.010612899267450696,"21":0.02202753987183134,"22":0.03406919700265753,"23":-0.22755125756549408,"24":0.014644692234224526,"25":0.19464804720589005,"26":0.10421751385796717,"27":-0.010529103093095533,"28":0.17924591867205678,"29":-0.10816247169288316,"30":-0.040262221960952846,"31":-0.057370660306673905}},{"sx":1,"sy":1,"depth":32,"w":{"0":0.08872189822359497,"1":0.11296266050282727,"2":-0.0026690277863874548,"3":-0.18129267442472258,"4":-0.02531913589692913,"5":-0.0905114406935819,"6":-0.016666168974000837,"7":-0.22430617515872311,"8":0.0034394047517502897,"9":-0.025890904282942332,"10":-0.030485548334369054,"11":0.16563527372705442,"12":0.03379950699432552,"13":0.05228072561676725,"14":0.05577162632162571,"15":-0.12501930004344103,"16":0.04270520703150974,"17":0.06648988404511728,"18":-0.11668670680090411,"19":0.10972287483525467,"20":-0.1125217778594106,"21":-0.23723308347040015,"22":0.05145478257534054,"23":-0.09610566587140025,"24":0.18098957483472106,"25":-0.04304113595082544,"26":0.14309408112631655,"27":-0.09585609280928922,"28":-0.20346265072909922,"29":0.01402231392795759,"30":-0.1982336669283266,"31":0.11900152472298307}},{"sx":1,"sy":1,"depth":32,"w":{"0":-0.1372036982386346,"1":-0.014253384390845168,"2":-0.030944663886826495,"3":-0.04182064177192213,"4":0.022273487882377565,"5":0.07987616596470296,"6":-0.01487515748186572,"7":-0.08601234337492418,"8":0.04300756632438025,"9":0.08656772806505388,"10":-0.08332232407541336,"11":-0.260163205411293,"12":0.03388051145565797,"13":-0.39611280118737324,"14":-0.03257310997029576,"15":0.03249514666142466,"16":-0.15768724119623714,"17":-0.11249560303792054,"18":-0.1392220921708671,"19":-0.07707984595106904,"20":-0.12052222862190459,"21":-0.031988679582942346,"22":0.06441169556024674,"23":-0.05994916650888587,"24":-0.13587776269455717,"25":0.053373491343465994,"26":-0.17297424041315443,"27":0.13632788150141725,"28":0.1508223645271398,"29":-0.065229421033768,"30":0.05877964978129149,"31":0.07562870361144745}},{"sx":1,"sy":1,"depth":32,"w":{"0":0.012887589656585595,"1":-0.014806769838472263,"2":-0.12555765829189844,"3":-0.1936864122468536,"4":-0.025579262511132798,"5":-0.05226909515907612,"6":-0.10811138569570863,"7":0.10762992305331566,"8":0.06849768477419507,"9":-0.0754607133018516,"10":-0.18559170431108252,"11":-0.05808492106028446,"12":0.013967501351489015,"13":-0.10358103675142655,"14":0.14600902035204352,"15":0.08301901957791386,"16":0.011253864201152135,"17":-0.045073884710944416,"18":-0.0473491971104972,"19":-0.07284731563282203,"20":0.0813693916527283,"21":0.028880524292460272,"22":-0.051732653575767756,"23":0.1077839440947073,"24":-0.006296917172218786,"25":-0.06277074674270398,"26":-0.15626912663492062,"27":-0.03038534549928127,"28":0.12081812109383634,"29":-0.015836184062018633,"30":-0.06493734765751248,"31":0.14412154246395498}},{"sx":1,"sy":1,"depth":32,"w":{"0":-0.04415089774479213,"1":-0.13080307820811746,"2":0.020587732592664817,"3":-0.07641581498363112,"4":0.04107596312228885,"5":0.42720778484235455,"6":-0.29021060536160465,"7":0.177754716162867,"8":-0.11909673269473799,"9":0.21123401265035185,"10":-0.022995547007105346,"11":-0.19988124798322496,"12":-0.0415961691013773,"13":-0.08051519527690149,"14":0.2868958530496091,"15":-0.04957005747711497,"16":0.07676186646563908,"17":-0.02851638561408558,"18":-0.2475115347060595,"19":0.03294457100425048,"20":-0.01608679827126289,"21":-0.1378435593337019,"22":0.14247925960240296,"23":0.11033971909264045,"24":0.11392317781353685,"25":-0.02264125556790169,"26":0.02263348778161824,"27":0.09574486690026625,"28":-0.048135347536317034,"29":0.19187864636159546,"30":0.032925147364088074,"31":-0.22828919928794422}},{"sx":1,"sy":1,"depth":32,"w":{"0":0.13645435421833213,"1":0.034308554947779395,"2":0.4136987445507992,"3":0.34548788165127453,"4":-0.07480063483881308,"5":-0.01123065881471629,"6":-0.1671846599567239,"7":0.05634883685586598,"8":0.04067910357631167,"9":-0.08055554880665448,"10":-0.20922658106578973,"11":0.3156461698551451,"12":-0.18902879358579155,"13":0.37023178389299466,"14":-0.021196920907741744,"15":-0.15415637777374902,"16":-0.04196611431173304,"17":0.011370532191819672,"18":0.15260957142627227,"19":0.07527203711835226,"20":0.24378973822951627,"21":-0.049647436738153944,"22":0.23708020090538287,"23":-0.11076108039177589,"24":0.07499551396850934,"25":-0.3007384961779695,"26":-0.11539343703036843,"27":-0.363538412791436,"28":0.02619981769810108,"29":0.2308000831370559,"30":-0.127323615467718,"31":0.08859874187559036}},{"sx":1,"sy":1,"depth":32,"w":{"0":-0.01985944632290031,"1":-0.04101907444741212,"2":-0.03948186956159959,"3":-0.006505137408604179,"4":-0.017688721794285503,"5":-0.010583196906867858,"6":0.048957824549300734,"7":-0.034418092123850684,"8":0.04872421245723047,"9":0.09587880045049531,"10":-0.10273187439048136,"11":-0.030194934336962565,"12":-0.07483173219425827,"13":-0.2907932313582518,"14":0.04165777241239296,"15":0.16871449728023502,"16":0.044485332838090946,"17":-0.0165674658897595,"18":-0.06876203445313242,"19":-0.07405803281110873,"20":0.004196209931606583,"21":-0.10853272854218524,"22":-0.027676674832372492,"23":0.03618144376959677,"24":0.04977941194867078,"25":-0.17672320146829215,"26":0.0320434602627345,"27":0.018062598359736653,"28":0.02753234816564995,"29":0.03987299865618585,"30":0.19150427022291427,"31":-0.10332438607134357}},{"sx":1,"sy":1,"depth":32,"w":{"0":-0.03677384912566586,"1":0.08311987707689737,"2":-0.22489148558467478,"3":0.08663380773536077,"4":-0.07522313797062838,"5":-0.06109050695837468,"6":-0.03144171808722428,"7":0.20511235952666065,"8":-0.2265488287956617,"9":0.10482136688103709,"10":-0.15889189130704517,"11":-0.272012779421694,"12":-0.056237207763565694,"13":0.07240223849454006,"14":0.14957083585460754,"15":0.0015160203650767584,"16":0.08220872082532679,"17":0.16617854222398254,"18":-0.19574161292926454,"19":-0.1016248945226632,"20":-0.005089652946126293,"21":0.2452781765336234,"22":-0.024473578749847593,"23":0.06144432663386796,"24":0.013245394036245578,"25":-0.03412064709099259,"26":0.01899013537599932,"27":-0.16074040685546948,"28":-0.02778618778801617,"29":0.1878216304705906,"30":-0.03744956208441993,"31":-0.07385798062942975}},{"sx":1,"sy":1,"depth":32,"w":{"0":0.03438302699008442,"1":0.023674724508519412,"2":-0.12793129235487954,"3":-0.012425265478464457,"4":0.05897388109946417,"5":0.037674719735598765,"6":0.016122142610789758,"7":0.042238914997023515,"8":0.060642975615376495,"9":0.03555647248029751,"10":-0.20329768225402528,"11":0.09123582172780102,"12":-0.04849120176218204,"13":-0.02004049014752753,"14":-0.1182963727914951,"15":-0.10048026538369523,"16":0.08957145327693114,"17":0.039566727759530164,"18":-0.06675871416161254,"19":-0.028489564476034537,"20":0.05879185189464786,"21":-0.11723642365862695,"22":0.14193694381002542,"23":0.15247981224533372,"24":0.046764740138089116,"25":-0.11653941007814445,"26":0.13583416966740733,"27":-0.17757846179303904,"28":-0.14979681166636824,"29":0.026797549869609062,"30":-0.0826982439532145,"31":0.08426251451513746}},{"sx":1,"sy":1,"depth":32,"w":{"0":0.08981779933370651,"1":0.022611655161072476,"2":-0.5005277661029932,"3":0.13079362089211688,"4":-0.033695142391938715,"5":-0.20797836796634736,"6":-0.201567002695155,"7":-0.07796171583665301,"8":0.02386932187911312,"9":-0.06086540296212954,"10":-0.07853827142353362,"11":0.15595657603045732,"12":-0.02493412094617159,"13":0.04780620311037444,"14":0.12187382946561867,"15":0.12835863953064414,"16":-0.053219442156902594,"17":-0.23062445497813766,"18":-0.38675647966834115,"19":-0.12942704544236372,"20":0.0603638664118439,"21":0.08261150175738902,"22":-0.07939731529179332,"23":0.1916572727318631,"24":0.11288100650395864,"25":-0.07260670020904121,"26":-0.11793947281034488,"27":0.14150171358181937,"28":0.03192009061018758,"29":0.1531096687798388,"30":0.025800536321122926,"31":0.11655373346091222}},{"sx":1,"sy":1,"depth":32,"w":{"0":-0.25966217740449077,"1":-0.053473240578345356,"2":0.13558907131030998,"3":-0.022415401070975654,"4":-0.059380144744756,"5":-0.01845982122770367,"6":-0.0516076007989386,"7":-0.16488972457790294,"8":-0.035660048475977466,"9":0.045456560405728,"10":-0.21746329679580345,"11":0.010281843766941195,"12":-0.021841642387730124,"13":0.21260703038999562,"14":0.0075589012567319775,"15":-0.013861712261745218,"16":0.027191591697140208,"17":-0.010096514955626641,"18":-0.013456857975896597,"19":-0.06495131858545028,"20":0.30015698689677606,"21":-0.008981235898593351,"22":-0.17694627144516453,"23":0.05465912541834371,"24":0.008628839733986374,"25":-0.02591865961406229,"26":-0.027666104703118113,"27":-0.16402291443409264,"28":-0.03871954209345909,"29":-0.012475080241315505,"30":-0.03130671024205506,"31":0.05196591031568096}},{"sx":1,"sy":1,"depth":32,"w":{"0":0.0029868188897403825,"1":0.04051239036485766,"2":-0.10023314289008303,"3":-0.3947743112342841,"4":-0.19402288517955366,"5":0.24806563635586526,"6":-0.08590690812140757,"7":0.03837723024269732,"8":0.1706821555436954,"9":0.013524326620685185,"10":0.027266130287413044,"11":-0.21689563100712542,"12":0.015101499683249388,"13":-0.03480591498600072,"14":0.008325925006301176,"15":-0.01935168027902583,"16":0.057947723425097956,"17":-0.05903886359763494,"18":-0.24518434767383426,"19":-0.02481157167506758,"20":0.07882829037550801,"21":0.21869953905356992,"22":0.10654142151209313,"23":0.08036250517236135,"24":0.18496488652642096,"25":0.11117385032090665,"26":-0.15192340519232378,"27":-0.1195761822702922,"28":0.00028697005379106725,"29":-0.0017471587369657423,"30":0.043141789314912596,"31":0.03886256961907506}},{"sx":1,"sy":1,"depth":32,"w":{"0":0.0990122320115645,"1":0.09369902516036348,"2":0.15078899870954962,"3":0.07387577550421255,"4":0.12117741275463118,"5":-0.006286573214318253,"6":0.0387728234581318,"7":0.01412567803629715,"8":-0.017129171661384043,"9":-0.08849143857245055,"10":-0.18445255183395481,"11":0.021921249501733287,"12":0.02761676458073691,"13":-0.0757950926140125,"14":-0.0862462274520604,"15":-0.1661037461404062,"16":0.06355049567865868,"17":0.05349404454351685,"18":0.06623022956853099,"19":0.052005012908820446,"20":-0.10835763828404753,"21":-0.11119702113428573,"22":0.025240488383891254,"23":0.24066150376901768,"24":-0.18436607876894012,"25":0.06045380081401094,"26":-0.2045783164820733,"27":0.05588199609797258,"28":0.1374183390982579,"29":0.14040529073778588,"30":0.007931855762280844,"31":-0.10868281958098926}},{"sx":1,"sy":1,"depth":32,"w":{"0":0.11271037320962018,"1":0.10608121715446577,"2":-0.0728659909571828,"3":-0.021586626075367026,"4":-0.16880132817043753,"5":-0.14694773893077248,"6":-0.05494177541128542,"7":-0.14827324338053413,"8":0.007163498343004716,"9":-0.15023955263752303,"10":-0.06504343985224939,"11":-0.07887555091073943,"12":0.030063173520877534,"13":-0.027898724758920704,"14":-0.07243940873554536,"15":0.01538579354954583,"16":0.22353143081093127,"17":0.021370039870247735,"18":0.16383453581967605,"19":0.1359838954098342,"20":-0.25733024937404797,"21":-0.04083783265330801,"22":-0.03983161434021839,"23":0.016063750552898316,"24":-0.15962430671130712,"25":0.0032193164840323115,"26":0.14770157429523173,"27":-0.010629220460834532,"28":0.12397273849945514,"29":-0.07301130921347863,"30":0.06313564226653019,"31":0.048120644745740015}}],"biases":{"sx":1,"sy":1,"depth":32,"w":{"0":0.10024861476820594,"1":0.09642327999361573,"2":0.11505167726089888,"3":0.060422701921329695,"4":0.0991912846593942,"5":0.15869842623935526,"6":0.09317737297181174,"7":0.09761850775900954,"8":0.04166859385355001,"9":0.10158992654911923,"10":0.10364895588265093,"11":0.08126376955855247,"12":0.09316611243140344,"13":0.10002219533307123,"14":0.10010787622897208,"15":0.09111204235287644,"16":0.09967960972997021,"17":0.07965216688022281,"18":0.13678473635885818,"19":0.09939059647028135,"20":0.09907197680894177,"21":0.09547542072326,"22":0.1374036121351022,"23":0.052765816702333115,"24":0.09998121036740315,"25":0.08761394588539688,"26":0.09643136917593688,"27":0.14838085164504503,"28":0.09454471649554913,"29":0.1046659254386857,"30":0.07158649692903961,"31":0.09893952727746072}}},{"out_depth":32,"out_sx":1,"out_sy":1,"layer_type":"relu"},{"out_depth":32,"out_sx":1,"out_sy":1,"layer_type":"fc","num_inputs":32,"l1_decay_mul":0,"l2_decay_mul":1,"filters":[{"sx":1,"sy":1,"depth":32,"w":{"0":0.1219116046336173,"1":-0.11645173425313841,"2":-0.16192256418816514,"3":-0.19575698805152408,"4":0.065791548563468,"5":0.025872689556653273,"6":0.020083664823443575,"7":0.03895805430821465,"8":-0.11278268299619715,"9":0.11193253319874749,"10":-0.11956674355643016,"11":0.11993862117023349,"12":0.2103475101966411,"13":0.09770713217784985,"14":-0.1716384937071958,"15":0.08746041173230924,"16":-0.07110570077415175,"17":0.18369401560809154,"18":0.05315622461613746,"19":0.019935725961930155,"20":-0.01640859026200821,"21":0.0449613321546896,"22":-0.17614936701460168,"23":-0.3107986496336649,"24":-0.012133859520606145,"25":0.07149517664126286,"26":0.010448603569413854,"27":-0.04306518274443322,"28":-0.017210320029604233,"29":0.0770201661385325,"30":-0.1391425047578385,"31":-0.1036148317323445}},{"sx":1,"sy":1,"depth":32,"w":{"0":-0.15468669607114147,"1":0.03461888824378372,"2":0.014926398733781952,"3":0.19234188065106203,"4":-0.1072812514543049,"5":-0.0723216233573492,"6":0.16087644667819548,"7":0.04899208930036684,"8":-0.02812804384903889,"9":0.23360185841859726,"10":0.07908310460267057,"11":-0.12242938996564398,"12":-0.06576880237273734,"13":0.00837015804848666,"14":0.13462930892702896,"15":-0.03294104534155821,"16":-0.15465526719274933,"17":-0.20009636069581285,"18":0.005858157170875426,"19":-0.04257161893170432,"20":-0.2151308393268044,"21":-0.12981026263315332,"22":-0.1378459641283717,"23":0.11620128339408094,"24":-0.014398329931480148,"25":-0.062051114117844024,"26":0.03442723875205284,"27":0.03305531382835889,"28":0.1431096386252282,"29":0.10215203496312998,"30":-0.2499939836463718,"31":0.018630934012935533}},{"sx":1,"sy":1,"depth":32,"w":{"0":0.15238933747513816,"1":0.04554993264514708,"2":-0.10546812821078426,"3":-0.03823080532616252,"4":-0.00884413442480257,"5":-0.15624807788893938,"6":-0.052132518237451735,"7":-0.21107784790557918,"8":0.07728094482552914,"9":-0.07098763089499244,"10":0.00129878639925739,"11":0.1016487475153029,"12":-0.01833158330290542,"13":0.041617074741801166,"14":0.12413776869292595,"15":0.30592532841230263,"16":0.2024105127522687,"17":-0.07614630099685281,"18":-0.020015698379459188,"19":0.0726621965664888,"20":-0.0736149821008529,"21":-0.09655509636020694,"22":0.24908338591443355,"23":0.018227109560389393,"24":0.10459114267234376,"25":0.1804002763520488,"26":-0.12715444609866397,"27":0.13904179129817096,"28":0.003349649699347997,"29":-0.16547012438263253,"30":0.09371634589278866,"31":0.03595790229312016}},{"sx":1,"sy":1,"depth":32,"w":{"0":-0.09166473524840817,"1":0.12130281834019481,"2":-0.004868757263101198,"3":0.09708070616775603,"4":-0.07574063422467034,"5":0.10266542511094659,"6":-0.14531931643811694,"7":-0.14156781316765837,"8":0.1304393155695131,"9":-0.21029101188973315,"10":-0.11126748294438768,"11":-0.08424002072870876,"12":0.021433718580850875,"13":-0.0013921417366565573,"14":-0.2188950303783223,"15":-0.0032516642365285568,"16":-0.17615886845488665,"17":0.04999107541312235,"18":-0.052264317622050194,"19":0.08327828303921335,"20":-0.0207012390319028,"21":-0.02811539040815557,"22":-0.017500979744092447,"23":-0.08245450873865168,"24":-0.12322916048079396,"25":-0.025306043431335638,"26":-0.01704826263677803,"27":0.06450697810810851,"28":-0.023835609162454103,"29":-0.22525599962812587,"30":0.16703409336329922,"31":-0.03308506827553729}},{"sx":1,"sy":1,"depth":32,"w":{"0":-0.10191788666950391,"1":-0.2897137640036774,"2":-0.07224983961579799,"3":0.21811960105347553,"4":0.051789432417264115,"5":-0.2659611725395984,"6":0.0647709907991987,"7":0.01331340127934655,"8":0.06953903833325532,"9":-0.04865091072544492,"10":-0.11367326991495126,"11":0.0342800376481378,"12":-0.03159653901488256,"13":0.25019088944103085,"14":-0.08858974895851073,"15":-0.016568451865201873,"16":-0.14689289622893623,"17":-0.1962721103762442,"18":-0.026739722957985206,"19":-0.01005331012328484,"20":-0.0026807886935416056,"21":0.15765797867198988,"22":-0.05495943182416977,"23":0.02057077398766719,"24":-0.020782344317738833,"25":-0.08206901241571271,"26":-0.16000785675251433,"27":-0.04845402055488725,"28":-0.031374693392061816,"29":0.021438247322251594,"30":-0.04379181470054008,"31":0.26821625033204705}},{"sx":1,"sy":1,"depth":32,"w":{"0":0.10409043591845642,"1":-0.03979252118584026,"2":-0.013805877789374681,"3":0.10868947323665563,"4":0.10422583841223533,"5":-0.05556785727039797,"6":-0.09412566297573713,"7":-0.02544631152157032,"8":-0.07075581534261939,"9":0.08349943603160338,"10":0.0045684860534536565,"11":-0.06560328504657047,"12":-0.10219456782323069,"13":0.10266604718352454,"14":-0.07305291166143466,"15":-0.030179160057210268,"16":0.04811060298086057,"17":0.051015314903762335,"18":0.047911646526903794,"19":0.029351131178748352,"20":-0.08044744726895779,"21":-0.06231130720159498,"22":-0.046215845600133594,"23":-0.15310188536516214,"24":0.01861963906789638,"25":0.07126842078928379,"26":0.10508839784343534,"27":-0.19812771841432708,"28":-0.05396988532700276,"29":0.07279465921833897,"30":0.18076919469910796,"31":-0.15000559973256747}},{"sx":1,"sy":1,"depth":32,"w":{"0":-0.11746799518372662,"1":0.04864129779514706,"2":0.16744651752730508,"3":-0.07608316852498113,"4":-0.1748676623731893,"5":-0.11598803894101321,"6":0.20713770419018118,"7":-0.17437617975023906,"8":-0.05826215858209819,"9":0.0670939460058389,"10":-0.02171214306319327,"11":0.22106989796973184,"12":0.0011076700392938894,"13":0.13393869721379473,"14":0.13012332339116878,"15":0.06207383455501831,"16":0.025692728247859023,"17":0.10196041103770159,"18":-0.04368577735118589,"19":0.08587057161433193,"20":-0.09355788534272509,"21":-0.13306265203837428,"22":0.06895095154288902,"23":-0.00729440816146365,"24":-0.05082819588655263,"25":0.1236830758152589,"26":-0.056062984431319574,"27":-0.21053630324765857,"28":0.023156502781969557,"29":-0.12928522760085506,"30":-0.01885566012344176,"31":-0.08690999737903156}},{"sx":1,"sy":1,"depth":32,"w":{"0":0.08840334147382795,"1":-0.07841547503503431,"2":0.04578395736565251,"3":0.021950606072473695,"4":-0.09147571497588768,"5":-0.030752856922111473,"6":-0.01509539722168902,"7":-0.014594713813068297,"8":-0.17192938536358363,"9":0.10257812896520403,"10":-0.007217107541677749,"11":0.2516320073065255,"12":-0.011125719927002845,"13":0.013021572753639734,"14":0.19877833956075117,"15":0.14997645924522315,"16":0.06416682901549417,"17":0.011988217643072542,"18":-0.11533375872257674,"19":0.2747293478874881,"20":-0.1568593725494011,"21":0.0762875204635948,"22":0.11325189071873498,"23":0.10670731310381708,"24":0.1763644987276685,"25":0.07430089535960072,"26":-0.10150223849798617,"27":-0.07483425864188549,"28":-0.10488998486439813,"29":-0.16540570388643794,"30":-0.012321533493886342,"31":-0.024019122280595384}},{"sx":1,"sy":1,"depth":32,"w":{"0":0.12717594217623976,"1":-0.03680931069258453,"2":-0.0215412422059724,"3":-0.12431813363779726,"4":0.09737540126430153,"5":-0.18266049950165056,"6":0.21852478997963856,"7":-0.04105760375628326,"8":-0.10657299273906479,"9":0.11475113092858655,"10":0.07752308791870743,"11":-0.1430586030272887,"12":-0.1313431144016075,"13":0.06780645602334881,"14":0.0010520194648848784,"15":-0.06824708285470067,"16":0.15703692924519233,"17":-0.16288153737813688,"18":0.24155301173908214,"19":-0.06960852879640565,"20":0.05909066742399502,"21":0.13277976098410996,"22":0.09687646546833907,"23":0.09050982053624218,"24":0.036875565113135236,"25":-0.04963422878503044,"26":-0.06848829137114772,"27":-0.017492298332817215,"28":0.11025042377765865,"29":0.09004497194903976,"30":-0.22744633155955415,"31":-0.16646948045913335}},{"sx":1,"sy":1,"depth":32,"w":{"0":-0.14001065766126336,"1":-0.10444922869992233,"2":0.27417143614238476,"3":-0.014382694042205841,"4":0.022304748694239054,"5":0.062389025882177464,"6":-0.11702355703010389,"7":0.10947178266321103,"8":0.1817754178510223,"9":-0.18022718614535574,"10":-0.05831101503560686,"11":-0.053344798163016835,"12":0.0764019355792201,"13":-0.09598430564959412,"14":0.03215180908640037,"15":-0.11578962268428283,"16":0.02667932706940483,"17":0.17990497344749404,"18":-0.05958932499716735,"19":0.030744949781072697,"20":-0.06874336294042806,"21":-0.10286207282310332,"22":-0.028346457149798845,"23":-0.1694636961502079,"24":-0.16114903147568788,"25":0.01833127643716613,"26":0.0018309317500656648,"27":-0.15769152843410558,"28":0.024312375104763372,"29":-0.06223367008924117,"30":-0.013472461554054724,"31":-0.06037013476992412}},{"sx":1,"sy":1,"depth":32,"w":{"0":0.14856112668594534,"1":-0.13256691004068644,"2":-0.06887878769960218,"3":0.007861445580126617,"4":0.00494336080234471,"5":-0.10327641291109117,"6":0.013433163231051677,"7":-0.14812478928964226,"8":-0.029331125035860415,"9":-0.1768601050338108,"10":-0.11732263153271899,"11":0.00043955134127030503,"12":0.0813467519110821,"13":0.03590199810970815,"14":-0.07387974339739518,"15":-0.06889355107043016,"16":0.05869040798568591,"17":0.09557883306328145,"18":0.16339034331728738,"19":0.027746699281811765,"20":-0.0062981595669416085,"21":-0.10440548045547028,"22":-0.027684216914404137,"23":-0.13659573348819534,"24":-0.07879751499267411,"25":-0.07640408320111561,"26":0.12255463946660136,"27":-0.08058817096029162,"28":-0.05838117514985729,"29":-0.04352432818621085,"30":0.024242212461172658,"31":-0.10591487892529726}},{"sx":1,"sy":1,"depth":32,"w":{"0":-0.13058407334160116,"1":-0.09249131195460643,"2":0.012980885060339264,"3":-0.09757326578600131,"4":0.059100147594017355,"5":0.0840255584589206,"6":0.011774992737176786,"7":-0.23238298739044008,"8":-0.07400418303791068,"9":0.07055658340675154,"10":0.258275889451871,"11":-0.11544772870354493,"12":-0.19928464611030175,"13":0.015551459421961386,"14":-0.03426287047073103,"15":0.006042190544499861,"16":0.04998080492373921,"17":-0.027118335464346933,"18":0.03628192449124016,"19":-0.18014324701138748,"20":-0.1637863741437458,"21":-0.010445084117075738,"22":0.015457879252967223,"23":0.20769145224166627,"24":0.0018957087847153108,"25":-0.058335838239009494,"26":-0.06452256618942699,"27":-0.08624627451272131,"28":0.006776646284686618,"29":-0.08974603989584849,"30":0.07592539861765854,"31":0.04535332760583858}},{"sx":1,"sy":1,"depth":32,"w":{"0":-0.07998293606474516,"1":-0.04612054244069722,"2":0.11246341143353347,"3":-0.10250048197257847,"4":-0.017936302352948245,"5":-0.023035547087181085,"6":-0.01632374633832456,"7":0.15981407649353,"8":-0.04856157974095337,"9":0.15764846409219843,"10":-0.10499243449349778,"11":0.02764849500522811,"12":0.13667870975981355,"13":0.07644017076113731,"14":-0.06006974060770527,"15":0.003243397469097095,"16":-0.02036081089968752,"17":0.12729163954092285,"18":0.034538170750760336,"19":-0.07594518325523185,"20":0.04205824032639112,"21":-0.03724851801054181,"22":0.12432453835890699,"23":-0.23901171640878346,"24":-0.09439165231027473,"25":0.012988553714311643,"26":-0.022362525236957028,"27":-0.07540470443692565,"28":-0.08377088304601678,"29":-0.10631658103776441,"30":0.07375368108046178,"31":0.03859498578870896}},{"sx":1,"sy":1,"depth":32,"w":{"0":-0.12358769748440772,"1":0.16677842170402607,"2":0.035826500070102206,"3":-0.04693349920773775,"4":0.17035596766065855,"5":-0.02627031469473229,"6":-0.06427714286031612,"7":0.12304745396126082,"8":-0.0729978373788333,"9":-0.08963164171910844,"10":-0.09271456674311322,"11":-0.20603693213805235,"12":0.21407157614988734,"13":-0.016720671389002854,"14":0.014640436394946572,"15":0.2518304145740242,"16":-0.10923756636071633,"17":0.12054395785184317,"18":-0.0708008902567099,"19":0.12327642869794102,"20":0.12042285721630192,"21":0.0680681151120599,"22":-0.054963931748007414,"23":-0.04267997871134468,"24":0.0793163432670948,"25":0.08619987793364821,"26":-0.0866126194542271,"27":-0.12870777414074927,"28":0.10434419816123211,"29":-0.005282875763488505,"30":-0.003504404352231778,"31":-0.03861196205249847}},{"sx":1,"sy":1,"depth":32,"w":{"0":0.0278653995447772,"1":0.04770508786575693,"2":-0.0021709338893817678,"3":-0.04591398960586237,"4":-0.012613193321962647,"5":0.0032867937931009275,"6":0.0722076433017957,"7":0.23438532833047976,"8":-0.13709167013612372,"9":-0.026558979789480217,"10":0.24843432151404218,"11":-0.04152061827411861,"12":0.12411440950359912,"13":-0.0003204074778909883,"14":-0.0347621167032094,"15":0.09749103899708425,"16":-0.056059717334284616,"17":-0.027939961649029788,"18":-0.08578601505812568,"19":-0.051677215366453,"20":0.029685012839441936,"21":-0.06080938585351681,"22":-0.12162115548388412,"23":-0.12173290881407604,"24":-0.08987932594279185,"25":-0.004569105668685699,"26":-0.1793101694077403,"27":-0.04048675824280669,"28":-0.1731386077368641,"29":-0.1789230765424551,"30":0.055587342026530984,"31":0.1749645838917386}},{"sx":1,"sy":1,"depth":32,"w":{"0":-0.10593350978373808,"1":0.013909195694715167,"2":0.08923347753183969,"3":0.08414794138038535,"4":-0.003938094572500509,"5":-0.16676243770663607,"6":0.08791376650913806,"7":-0.10725373437922006,"8":0.13358218745612827,"9":0.09237667524359863,"10":-0.027107520762535333,"11":-0.1499902810863344,"12":0.1038292301843019,"13":-0.05745065959196284,"14":0.0055091369684807205,"15":0.060451091907608216,"16":0.1371913965469542,"17":-0.16633670674201814,"18":-0.07599351458670953,"19":0.1957529814792539,"20":-0.12891319369662346,"21":-0.037964536276997,"22":-0.004393263250761315,"23":0.0807417723609909,"24":-0.08451174002219643,"25":-0.12226952256135863,"26":-0.09904851651781489,"27":-0.06317426763210228,"28":0.21284636524287256,"29":0.07526596722478027,"30":-0.1369826603925469,"31":0.07364565852953787}},{"sx":1,"sy":1,"depth":32,"w":{"0":-0.21538820911713155,"1":0.02552275721969563,"2":-0.16761620894353366,"3":0.05919023920954609,"4":0.022451202615318907,"5":0.000029369834136582858,"6":0.03907543501883106,"7":-0.061102143201560655,"8":-0.06066145933268752,"9":-0.0448874443827425,"10":-0.04358576254354576,"11":-0.04075699978748909,"12":-0.16452523241254433,"13":-0.01610546887176615,"14":0.03513609858108027,"15":-0.0804462259006051,"16":-0.08786593820514806,"17":0.12390335111536308,"18":-0.17166162845812463,"19":0.08104796086573536,"20":0.02227604407631266,"21":-0.020257254487334144,"22":0.23021453136452535,"23":-0.1938864359242271,"24":0.08902744748434423,"25":-0.19910477986972797,"26":-0.1673691158529259,"27":-0.06644230445921599,"28":-0.00821017878164414,"29":0.1729114360572919,"30":0.1528652788356942,"31":0.006292164704500239}},{"sx":1,"sy":1,"depth":32,"w":{"0":0.03200585208246446,"1":0.04980740077016301,"2":-0.09758607488284887,"3":-0.01671236747159927,"4":-0.054604261003307675,"5":-0.040070117062142495,"6":-0.10927566565434814,"7":0.1747252134519046,"8":-0.07933601204129362,"9":-0.06170582327817468,"10":-0.019666474444476244,"11":0.28297137060042316,"12":-0.13125142640216067,"13":0.12560593982692905,"14":0.11441903439744737,"15":-0.045566509714588574,"16":-0.15477358578783926,"17":-0.15852506709366557,"18":-0.10902877689505995,"19":0.06212792588521485,"20":-0.0816473192363356,"21":0.25762190957615166,"22":-0.26597926221287327,"23":0.1823467326916095,"24":0.04719203711357806,"25":0.1421704011711872,"26":0.06077782994265231,"27":0.013806490820537129,"28":0.14798621226826633,"29":-0.01455520082816006,"30":-0.04645078967890519,"31":-0.0018890165455638626}},{"sx":1,"sy":1,"depth":32,"w":{"0":-0.07674210517356496,"1":-0.06605122287225605,"2":0.0543177574268882,"3":0.16593466052760272,"4":0.13629054604472116,"5":-0.24550795961262484,"6":0.003943504841328714,"7":-0.08815884055699957,"8":0.16747055401475458,"9":0.13620537365615246,"10":-0.09849320155458946,"11":-0.06911061042443464,"12":-0.0748055659084975,"13":0.05293959114873705,"14":0.15843078475858358,"15":-0.23419400282820757,"16":0.008840940729389967,"17":0.00870172086204062,"18":0.11500386183186181,"19":0.14834121760493552,"20":-0.01386640176568303,"21":0.18982827476231315,"22":0.05131383481005606,"23":0.028944806373644417,"24":0.06369878428788786,"25":-0.1387045252020735,"26":-0.08254178634812595,"27":0.17054955877612138,"28":0.18981872113073042,"29":0.07230707466748035,"30":-0.11489650938652494,"31":0.006678240313968686}},{"sx":1,"sy":1,"depth":32,"w":{"0":-0.053413020852098175,"1":-0.16237030778216574,"2":0.07603173331705193,"3":-0.018571413757947065,"4":0.0062992474451552425,"5":-0.1930550153792764,"6":-0.05457328473464343,"7":0.14026452497265754,"8":0.08129710253732145,"9":0.03252145453420886,"10":0.0750614094688075,"11":-0.11418644054117028,"12":0.19343036786690432,"13":0.05369207795038149,"14":-0.07483598337986355,"15":0.037397647708480655,"16":0.10170480564166749,"17":0.08456303852767684,"18":-0.07846017574428701,"19":0.12167386052686269,"20":0.16067205260338893,"21":0.03881902415077089,"22":-0.07524303496132492,"23":-0.08268452657385025,"24":0.06135185261160224,"25":-0.08374330303753377,"26":0.1672479795296085,"27":0.10473464321638111,"28":0.04934072236428608,"29":0.09679417262965706,"30":0.011324666760680627,"31":-0.03740448499997823}},{"sx":1,"sy":1,"depth":32,"w":{"0":-0.130275081625598,"1":-0.15216939009364105,"2":0.10309378308962047,"3":-0.047393969348736735,"4":-0.12229411070902985,"5":-0.14420008952937943,"6":-0.08867915868271296,"7":0.10153573062570312,"8":0.013862065876068827,"9":0.10081887498262317,"10":0.06622556315044256,"11":-0.08156645769373216,"12":0.16276427078667016,"13":-0.08159690104024696,"14":-0.07570739915385431,"15":-0.06340567728172894,"16":0.1253440543976186,"17":0.13191067370240664,"18":0.0789583370873128,"19":0.012073388929680767,"20":-0.1371584167956403,"21":0.013672496899990649,"22":-0.1492510263327107,"23":-0.08811806522719978,"24":-0.15549217347521394,"25":-0.07670816118313029,"26":-0.16403086118954213,"27":-0.02350386829820606,"28":-0.018698871168015264,"29":-0.050307240109397494,"30":0.006577188587705026,"31":0.0789799191757738}},{"sx":1,"sy":1,"depth":32,"w":{"0":0.07535318347843693,"1":0.1266348854178457,"2":-0.09943598998707633,"3":-0.07010071756523176,"4":0.023574848523866623,"5":-0.0455337854031406,"6":0.26931861958323405,"7":-0.1165974237501203,"8":-0.07650448678473926,"9":0.060099886207492736,"10":-0.03812701541904194,"11":0.04708320247978804,"12":-0.0044929306744652285,"13":0.22826445274646145,"14":-0.13591352299884715,"15":-0.0003589669510946467,"16":-0.11549166993736933,"17":-0.17143902367626296,"18":0.2110078981891028,"19":-0.01454892181594727,"20":0.05597757001588789,"21":-0.005523908364866486,"22":0.09567083305171967,"23":-0.10913360974474413,"24":0.06701707684017737,"25":0.26282253135746114,"26":-0.05094405666227416,"27":-0.017622017086219296,"28":-0.14223067286785762,"29":-0.027693467157628823,"30":0.09338735281101944,"31":0.22442868731080695}},{"sx":1,"sy":1,"depth":32,"w":{"0":0.020911075890774202,"1":0.10972359775808484,"2":-0.09645112783796293,"3":0.2364182172132661,"4":0.22488170927882983,"5":0.07131319948412888,"6":-0.04835748449451406,"7":-0.0967692466868014,"8":0.053026233842690895,"9":-0.0207884996764521,"10":-0.030692588211469293,"11":-0.04247931134694683,"12":0.12057134191318795,"13":0.03450486085896249,"14":-0.09980267412467869,"15":-0.11627292009570199,"16":-0.1982775806191137,"17":-0.03181944982004124,"18":-0.023368365932394476,"19":0.1720426442107656,"20":-0.11789055642930027,"21":-0.10356335959761774,"22":-0.09058651889121143,"23":0.025006012971710945,"24":0.11827059512614496,"25":-0.12386613150414834,"26":0.12460705068183492,"27":0.16164220765097734,"28":-0.11601167884464163,"29":-0.10645003196157404,"30":-0.1155693840407628,"31":-0.10187771866075591}},{"sx":1,"sy":1,"depth":32,"w":{"0":-0.15369382900351997,"1":-0.02487860605258214,"2":0.01431001577197343,"3":0.13832164559000923,"4":0.0006567140265994598,"5":0.09024608702894131,"6":-0.033885758733964585,"7":-0.016027779246087892,"8":-0.08620496225150004,"9":-0.14917183938255393,"10":-0.07746365519784056,"11":-0.12474617672776045,"12":0.0968849506967321,"13":0.052992591141737336,"14":-0.11942694251863183,"15":-0.11130464128532658,"16":0.07539433820707689,"17":-0.04736800444889768,"18":-0.05644397028066134,"19":0.017572376837955206,"20":0.010530758219312951,"21":0.027572487717838,"22":0.06075226657030932,"23":0.20433634878048967,"24":-0.03838412433394146,"25":0.019904860260330334,"26":-0.14769187174521559,"27":-0.24582416567901277,"28":0.18261002679350272,"29":-0.014443617683986427,"30":0.06287992836189273,"31":0.09426676139306925}},{"sx":1,"sy":1,"depth":32,"w":{"0":0.0031500994249543932,"1":0.1056622264894746,"2":0.13892749495992637,"3":0.003281009682707718,"4":-0.14696379383822794,"5":0.0466508669103581,"6":-0.17845835719874203,"7":0.06861048625054215,"8":-0.16654695213640966,"9":0.2198504498070888,"10":0.05385206575194907,"11":-0.000488872990539406,"12":0.03687450640884415,"13":0.15352882292711115,"14":0.006176045215855515,"15":0.08033397817564937,"16":0.18765655368994008,"17":-0.1458533230442601,"18":0.0014111106790662448,"19":-0.005294990669844921,"20":0.04982655069332575,"21":0.08768845292560123,"22":0.07198946225695255,"23":-0.11165261457405988,"24":-0.07061954520212903,"25":0.16510012695344592,"26":0.10851021876391205,"27":0.1544743562674552,"28":0.0028148011634632542,"29":-0.21087167622589095,"30":0.14303486528433665,"31":0.16339876437085918}},{"sx":1,"sy":1,"depth":32,"w":{"0":-0.06698428323924636,"1":0.06194771851198695,"2":-0.14334373696145614,"3":-0.1853590961225043,"4":0.13061559984433294,"5":0.41101149308608514,"6":-0.027182867250402653,"7":0.05296693694759157,"8":0.1415835138361075,"9":-0.041040900192553444,"10":0.3027496947033479,"11":-0.042430737339706995,"12":0.026080122048276175,"13":-0.1055218288385055,"14":-0.015025209435858604,"15":-0.043526836060795646,"16":-0.2646089899351191,"17":-0.18599834764046594,"18":0.21968887000048906,"19":0.1067117443325192,"20":-0.13341282412115618,"21":-0.2616102892219896,"22":-0.027288847567037273,"23":-0.16506344516120525,"24":0.056568539646157885,"25":-0.13221612642410296,"26":-0.037194139598105906,"27":0.15226790497516116,"28":0.10988598263639814,"29":-0.03682821262399609,"30":0.0535262279043849,"31":0.07686213539375002}},{"sx":1,"sy":1,"depth":32,"w":{"0":-0.10895066104340777,"1":-0.2064474872857202,"2":0.0320372166710191,"3":0.08295691984779734,"4":0.04671889937888686,"5":0.07000425178444233,"6":0.002111274694495302,"7":-0.04821303444471331,"8":0.30812615739628746,"9":0.025330456376414283,"10":-0.11819106864079183,"11":-0.05296231276748997,"12":0.09808775234967798,"13":-0.0893481031480523,"14":0.05926766553013709,"15":0.005458435761037142,"16":0.0893653474855847,"17":0.0552892905097446,"18":-0.1556456497449493,"19":-0.03794787593459191,"20":0.04456334074487205,"21":0.003282567905426406,"22":-0.11304077519926972,"23":-0.15477194204626699,"24":-0.05745119452155242,"25":-0.17511685476263222,"26":-0.12502295681091283,"27":0.050311579348557296,"28":0.03253857676524293,"29":-0.09955868803076778,"30":0.09131999262885028,"31":0.0779614632519432}},{"sx":1,"sy":1,"depth":32,"w":{"0":-0.025237637961491644,"1":-0.028457174359517244,"2":0.03367038158131374,"3":-0.09780266098062587,"4":-0.14640083159177988,"5":-0.06991931770674485,"6":0.10467716650090515,"7":0.06650810565626752,"8":0.08827334128673614,"9":-0.05490579305305744,"10":-0.15360995957953,"11":-0.2188718508738379,"12":-0.09589742627721001,"13":0.08385201131195473,"14":0.0906004140923526,"15":0.03949642427270442,"16":-0.14016493103532,"17":0.30120505122111235,"18":0.04712299022732743,"19":-0.10489444009922115,"20":-0.09411392233565338,"21":0.017966043776012776,"22":-0.21409826583368055,"23":0.08515010224945425,"24":0.032427973309062295,"25":-0.04732705853960886,"26":-0.05102361898903388,"27":0.12037903775995251,"28":-0.1581181365278877,"29":-0.2207418979228338,"30":0.09380447780689585,"31":-0.035046595774527414}},{"sx":1,"sy":1,"depth":32,"w":{"0":0.10349074238354153,"1":0.15840829383861701,"2":0.06270609219369774,"3":-0.08404299559513496,"4":0.04052105296150173,"5":-0.015420486357570934,"6":0.034955902031747185,"7":0.02592014240157451,"8":0.2181708993600467,"9":-0.25842971453441266,"10":-0.2535357617556796,"11":-0.12078230653944684,"12":-0.026513181158125156,"13":-0.007599513968776971,"14":0.02576633396437586,"15":-0.02133422400622133,"16":0.08163301707910313,"17":0.04466641174326768,"18":-0.329062279953526,"19":-0.2712435415566818,"20":-0.04063136499587054,"21":0.05807439871547204,"22":-0.14156175155918538,"23":0.20178298256933233,"24":0.1373521421087113,"25":0.08637601102160383,"26":-0.03573203173831203,"27":-0.20421228523474905,"28":0.0020393210964296787,"29":-0.05536342583415274,"30":0.2713790362538846,"31":-0.021973500438943017}},{"sx":1,"sy":1,"depth":32,"w":{"0":-0.022819705831831807,"1":-0.06455676325319079,"2":0.08003285225410078,"3":0.010720364169352457,"4":0.24112415242039945,"5":0.017993949975299434,"6":0.1204995132535163,"7":0.10366011720497012,"8":-0.07579367316937145,"9":0.05056655152977266,"10":-0.015633949995383426,"11":-0.009157043604778519,"12":-0.03273240620750537,"13":0.08925188232133449,"14":0.16372382868021743,"15":-0.055243486519473355,"16":0.19016198236293216,"17":-0.0030483204381163585,"18":-0.24751041756280495,"19":0.017919511264780964,"20":0.09478800121830426,"21":0.1755196176748356,"22":0.16985452246513602,"23":-0.09707505240335117,"24":-0.03192985725857608,"25":-0.022871597800893772,"26":-0.08510819473513843,"27":0.08706450295295487,"28":0.26286357203432414,"29":0.0339146231252144,"30":0.05644802267287871,"31":-0.0051960451439878865}},{"sx":1,"sy":1,"depth":32,"w":{"0":0.11691382486893348,"1":-0.07997591439417977,"2":0.20072433695286046,"3":-0.10528520806691391,"4":-0.08915231819991248,"5":-0.052890787748360625,"6":-0.0011217335469506447,"7":0.02566929146705885,"8":0.0032956764351877023,"9":-0.06553763097783914,"10":0.06531696541839258,"11":0.24592835882905073,"12":-0.04470302474997239,"13":0.20637534018858153,"14":-0.09157120063344948,"15":0.02722055151843153,"16":0.020434197705369292,"17":0.045476034550418036,"18":0.14499450674065162,"19":0.02581778695205695,"20":0.030925904824023975,"21":0.005351479162731227,"22":0.06791347545714693,"23":-0.130173327113269,"24":0.07127525536584199,"25":-0.10661418804780608,"26":0.08611361784059436,"27":0.2200139878305865,"28":-0.0726805515042609,"29":-0.12503271626038384,"30":0.08957301180213129,"31":0.05803640086537143}},{"sx":1,"sy":1,"depth":32,"w":{"0":0.33673040337538024,"1":0.06648390182482496,"2":-0.05889599545646316,"3":0.19060101506349864,"4":-0.007836675342406832,"5":0.047393247207032134,"6":0.11706929654416638,"7":0.05502150303135961,"8":0.10589859823264876,"9":-0.06300786272360388,"10":-0.054451907602978064,"11":0.06739477413732044,"12":-0.09837326105948226,"13":0.06318428197195244,"14":-0.23370081264167467,"15":-0.10721468317136341,"16":-0.044403477720348236,"17":-0.022746718633765386,"18":-0.028459911062724844,"19":0.06880126491718876,"20":0.035128879187561156,"21":0.0780697871638013,"22":-0.07917736689643645,"23":0.027134231215057193,"24":0.05422393008684749,"25":0.23550132318421216,"26":-0.030250448238598772,"27":-0.3003357720114217,"28":0.07337926723725632,"29":-0.26868723120988713,"30":0.1256084533663889,"31":-0.0005208163300038784}}],"biases":{"sx":1,"sy":1,"depth":32,"w":{"0":0.1042957803832869,"1":0.12192092449402306,"2":0.10236694914376114,"3":0.07886956104333762,"4":0.06624440167140928,"5":0.10167327818819161,"6":0.10577837394290768,"7":0.09138671249672742,"8":0.09886879796704735,"9":0.10850102257584907,"10":0.10405714803678281,"11":0.08461579059319276,"12":0.09409629470577084,"13":0.07851179103878628,"14":0.10071118769634103,"15":0.1246786571716344,"16":0.1266895452910548,"17":0.07961750382877662,"18":0.13791211111260307,"19":0.09168915944401823,"20":0.10656527868328092,"21":0.07843562068381,"22":0.07627866883147322,"23":0.07491954959959614,"24":0.106902074960046,"25":0.2147057121869306,"26":0.0478387381256747,"27":0.06964714806169128,"28":-0.020615907100167162,"29":0.0863502891321061,"30":0.12387301993567941,"31":0.06594247480377571}}},{"out_depth":32,"out_sx":1,"out_sy":1,"layer_type":"relu"},{"out_depth":32,"out_sx":1,"out_sy":1,"layer_type":"fc","num_inputs":32,"l1_decay_mul":0,"l2_decay_mul":1,"filters":[{"sx":1,"sy":1,"depth":32,"w":{"0":0.039706081894171665,"1":-0.1120798572779493,"2":0.2122914294976144,"3":0.0054981400236110214,"4":-0.17338977793064503,"5":0.11583423073115949,"6":-0.07629785443150341,"7":-0.17527465580386226,"8":0.04787490881289202,"9":-0.17340371213905081,"10":-0.09807023855874045,"11":-0.09753668523925749,"12":-0.07208568764534969,"13":0.05418371510461711,"14":-0.03815633719529546,"15":-0.005565452160899812,"16":0.16214216991973013,"17":-0.12260822713149494,"18":0.08671448939560979,"19":0.0240555708375084,"20":0.07010737450488083,"21":-0.17090763170058387,"22":-0.05536908889105758,"23":-0.13716217357976548,"24":0.10677672517629484,"25":-0.138713588217337,"26":-0.13318986509427447,"27":0.046951671706698686,"28":-0.11315389009340002,"29":-0.12728597462736993,"30":-0.03754960371098193,"31":0.04894223293297196}},{"sx":1,"sy":1,"depth":32,"w":{"0":0.025148616686081402,"1":-0.07394846723988915,"2":-0.022552686022618656,"3":0.22777265562852353,"4":0.1641392519110403,"5":0.04163306991024381,"6":0.011905606382988812,"7":-0.1506134429160073,"8":-0.09110297016814412,"9":-0.01875570251604112,"10":-0.05216559383606764,"11":0.026368690611024474,"12":0.014303018862375744,"13":0.16320033797698832,"14":-0.048595978837988524,"15":-0.21394874017398155,"16":0.09021038996442614,"17":-0.12688332227377266,"18":0.14364855860770723,"19":-0.03006834763272928,"20":0.08775942817018623,"21":0.07459891697905416,"22":0.1706441675401492,"23":0.11710444643910073,"24":-0.15577549448359632,"25":-0.10715003607481022,"26":0.0927804541831391,"27":0.26833729507101295,"28":0.1645669422353526,"29":-0.11280199946808689,"30":-0.05255170137115863,"31":-0.07483644993392725}},{"sx":1,"sy":1,"depth":32,"w":{"0":0.008238732066378235,"1":0.04247742190198544,"2":-0.17811109476897807,"3":0.1716995282990215,"4":0.11945179294200331,"5":0.07040125610600277,"6":-0.05926530360175836,"7":0.026409976795721823,"8":0.0030286435890971987,"9":0.06849486457926102,"10":0.03454044318142815,"11":-0.055176396347368546,"12":-0.12953608948411005,"13":-0.016411700191294256,"14":0.005391429675067547,"15":-0.0825579665809367,"16":-0.03525269924145771,"17":-0.1733628073813751,"18":-0.06899724782715766,"19":0.16422057366373494,"20":0.08808655111134688,"21":-0.09628596409985471,"22":0.21927126415390413,"23":0.045568264435494304,"24":-0.15157173640422444,"25":0.05025757126112102,"26":0.05486372415798671,"27":-0.02627114604774258,"28":-0.01184174230219418,"29":-0.09855059602873742,"30":-0.1433594934549289,"31":0.2713975799744985}},{"sx":1,"sy":1,"depth":32,"w":{"0":0.010296963761358477,"1":0.011659030573925483,"2":0.14418812813321896,"3":0.06781251616396414,"4":-0.15734668290620066,"5":0.054165840307076225,"6":-0.01040445284720388,"7":0.025506735698721014,"8":0.0300361854103345,"9":-0.17864127855249118,"10":-0.07944971918296471,"11":0.09500166802550762,"12":0.05399353550150158,"13":0.15888352772756478,"14":-0.08425318319919166,"15":-0.05910710648328382,"16":-0.1683360449186349,"17":-0.06747939092526889,"18":0.010007491172951067,"19":0.0067789301626034,"20":0.14701455385613035,"21":0.016680430176981082,"22":-0.048651563274798505,"23":-0.10696390219362653,"24":0.10349703377432393,"25":0.006948234239346805,"26":-0.06194295014964168,"27":-0.1623891593988816,"28":-0.15731214765532436,"29":-0.15333659076852532,"30":-0.19174561903463289,"31":-0.07666713183289896}},{"sx":1,"sy":1,"depth":32,"w":{"0":0.059842842026615675,"1":-0.07975016241046802,"2":-0.08495089726187881,"3":0.04114578149224366,"4":-0.02841828614225229,"5":-0.08489195115604864,"6":-0.18710703994020045,"7":-0.07333581487254572,"8":-0.2437607740477378,"9":-0.130537956485541,"10":-0.08944267649538686,"11":0.03997859776238695,"12":-0.019472014603070548,"13":0.1723685161419681,"14":0.03397859842413814,"15":0.09566554885927095,"16":0.026719146154193105,"17":-0.04222925959209769,"18":0.3576627692695935,"19":-0.18218046487448789,"20":-0.130332556098791,"21":-0.09021211876388217,"22":0.04488365429130804,"23":-0.06694769127311229,"24":-0.06848147587563615,"25":0.30635848174043245,"26":-0.1047100227023942,"27":-0.00233948282421291,"28":-0.23095050302693998,"29":-0.13315542337099073,"30":0.03203272726479254,"31":-0.07940941910785197}},{"sx":1,"sy":1,"depth":32,"w":{"0":0.014738451558718127,"1":0.13629025863511962,"2":-0.18372359507792924,"3":0.10586210615688992,"4":-0.008958384428242976,"5":-0.2612250647853854,"6":0.028807349638297362,"7":0.10235562172334184,"8":0.04738688736771774,"9":0.026401168602620113,"10":-0.07964147240909106,"11":0.007288146226679418,"12":0.05227647295349642,"13":-0.030139801840597683,"14":0.04479115607917496,"15":0.07689336199142556,"16":-0.14141800208872962,"17":-0.0009301617322613676,"18":-0.08705121434828288,"19":0.0763018197012405,"20":0.06263215087928041,"21":-0.148721149132864,"22":0.0030664104949242295,"23":0.1052380500842065,"24":-0.09204200780476125,"25":-0.032072495193879905,"26":-0.11437534664229136,"27":0.08099910260607276,"28":-0.03488535305237061,"29":-0.11665303205560693,"30":-0.18366243538621624,"31":0.0028075579653693977}},{"sx":1,"sy":1,"depth":32,"w":{"0":0.18728057325241027,"1":0.08678217191834912,"2":-0.04133333379529431,"3":-0.05332897733933222,"4":0.18540367416585826,"5":-0.009435258542811067,"6":0.0629893151943166,"7":-0.025191718980908072,"8":0.13840713435015947,"9":0.020038879683486936,"10":0.00012630291674185076,"11":0.04954874030437874,"12":0.024961427808379365,"13":-0.08216553451275062,"14":-0.01162499403703437,"15":0.01759739085682224,"16":0.11824246042493537,"17":-0.08074724946948003,"18":0.1037964288582664,"19":-0.328839133038098,"20":0.05580302394754818,"21":0.33759583513778274,"22":0.07412268628100599,"23":-0.02665663656522139,"24":0.0011360293781134511,"25":-0.1590643575430332,"26":0.10878412721500187,"27":-0.1425971894232596,"28":-0.1375757863843689,"29":-0.160428111871187,"30":0.21692820708128657,"31":0.0013187046703223505}},{"sx":1,"sy":1,"depth":32,"w":{"0":0.04153115454641374,"1":0.013633278661379852,"2":-0.09648018487665574,"3":-0.0003031407457558242,"4":-0.03648092072074347,"5":0.09365337168850912,"6":0.17166992512308218,"7":0.04824100416242881,"8":0.023613167827019353,"9":0.1605016397923275,"10":0.14712984623729064,"11":-0.1540426759061755,"12":0.049561996851901165,"13":0.08878918628095264,"14":-0.018519270882422684,"15":-0.02579663104963195,"16":-0.06754118353786824,"17":-0.022380692981222645,"18":0.09039810741503108,"19":-0.025593280884296465,"20":-0.10031184586230986,"21":0.10040582423795413,"22":-0.16810996024955818,"23":-0.10171277871868972,"24":-0.12509583493197107,"25":0.06912337415876005,"26":0.0782776264521895,"27":0.07627951138037199,"28":0.04746724022117156,"29":-0.31834676890427427,"30":0.06224300302883437,"31":0.0034583667415846162}},{"sx":1,"sy":1,"depth":32,"w":{"0":-0.02810273210472072,"1":0.07934836604215843,"2":0.02552593437372209,"3":-0.0005730940610316667,"4":-0.052553465898142984,"5":-0.04225494071963079,"6":0.20874847100097121,"7":-0.14352702071377815,"8":-0.0033613107930940025,"9":0.06679186777156733,"10":0.16701351388431107,"11":0.18571862040991927,"12":-0.16240885411214562,"13":-0.022193357850818156,"14":-0.08549917070975628,"15":0.06799344526320769,"16":0.027913590761613514,"17":-0.012352429673007327,"18":-0.00769383907009487,"19":-0.05088134014031871,"20":-0.18052706595693166,"21":0.07992310032512417,"22":0.16247778232705495,"23":-0.06349088273825766,"24":0.3001204019429248,"25":0.12632467650455803,"26":-0.027680695829891747,"27":0.02824757673486051,"28":0.016136219178997845,"29":0.13371972285512035,"30":-0.14340313012013123,"31":-0.061885871923037794}},{"sx":1,"sy":1,"depth":32,"w":{"0":0.08942857315664512,"1":-0.1372495496347799,"2":0.06658398182621027,"3":-0.04435491271430481,"4":-0.07054441301174881,"5":0.011482043223676519,"6":0.06099405808369885,"7":0.010727061267514576,"8":-0.07738480053954688,"9":0.06034311918784702,"10":0.133634446884753,"11":-0.21106494467835726,"12":-0.1521992784782381,"13":-0.1374659237877103,"14":0.07021971875477315,"15":-0.10082508177633726,"16":0.014367047037065924,"17":-0.05880833757389913,"18":0.12162731096382773,"19":-0.19452597142683997,"20":0.020264517475157947,"21":0.013821507841810467,"22":-0.1489807160066949,"23":0.05780480277922797,"24":-0.15198464681437354,"25":0.0027347164398459703,"26":-0.10957821446772324,"27":0.04244816173384791,"28":0.11259198812549458,"29":-0.1434650615631287,"30":-0.0910093141368696,"31":-0.15212378820328482}},{"sx":1,"sy":1,"depth":32,"w":{"0":0.05341878660771953,"1":0.07089186501117035,"2":0.013024063829205287,"3":-0.1011051190423091,"4":0.04983298926588693,"5":-0.04530740125462093,"6":0.11951168425862045,"7":-0.035510540703621626,"8":-0.02481950412594991,"9":-0.1149014429631484,"10":0.15196534468730755,"11":-0.027641808464694797,"12":0.1011155067321448,"13":-0.04876793248627105,"14":-0.06405367004431557,"15":0.08636819406287359,"16":-0.0671820120072428,"17":0.029228543233647188,"18":0.08850896477959605,"19":0.00033344868447081463,"20":-0.027176800317518793,"21":-0.09129205221084712,"22":-0.12286735615988272,"23":0.0046504490855421715,"24":-0.11250996288211776,"25":-0.12540492025973188,"26":-0.02098940264248272,"27":-0.05908092903181012,"28":0.0007285004165995899,"29":-0.027008341285852545,"30":0.1663747292406837,"31":-0.15393562751978357}},{"sx":1,"sy":1,"depth":32,"w":{"0":0.0819141442762604,"1":0.11064361264340795,"2":-0.02734614024371875,"3":0.15833029223651002,"4":0.15856637798149764,"5":-0.007535003575404319,"6":-0.1121260594421037,"7":-0.08321459273181374,"8":-0.03336584164727275,"9":-0.020594399964541984,"10":-0.14274847761221124,"11":-0.13991335345486394,"12":0.012942728230801118,"13":0.12271462636742995,"14":0.20051752941874096,"15":0.09698002727419767,"16":-0.016197507523027902,"17":-0.029210770334987403,"18":0.037285087510150444,"19":-0.040237021805741936,"20":-0.07135061336673278,"21":-0.006463716014436696,"22":0.08024504839430184,"23":0.13168988992539557,"24":0.07290231653142142,"25":-0.11833975667421362,"26":-0.16520854476577834,"27":-0.06821949171263614,"28":0.09202391799797006,"29":-0.056087763175173194,"30":-0.08035348690304708,"31":0.05731634816208703}},{"sx":1,"sy":1,"depth":32,"w":{"0":-0.26875697489901557,"1":0.0875899283457407,"2":0.049060929648002134,"3":0.08290839383001404,"4":0.046789021222874594,"5":-0.20621408443369232,"6":-0.00005516660177843748,"7":0.14148157932584166,"8":-0.03706322553924497,"9":-0.00791727337554677,"10":0.023420640523190175,"11":-0.030171680985759806,"12":-0.00873561632615386,"13":0.11115415241964863,"14":0.06877865256298134,"15":-0.06346420652669642,"16":0.03586210961899976,"17":0.09968758709272642,"18":-0.05791087048594732,"19":-0.015559703422156283,"20":-0.024839676094559095,"21":0.16699247984297624,"22":-0.1265159781173822,"23":-0.056671562544538825,"24":-0.016648620171994175,"25":-0.052376421156254294,"26":-0.09358835936793893,"27":-0.1046228035507301,"28":-0.16887224287434158,"29":0.11182807638750604,"30":0.05103769744328268,"31":-0.07852613550622521}},{"sx":1,"sy":1,"depth":32,"w":{"0":-0.009265973511958252,"1":0.1677303274707541,"2":-0.09785495344646179,"3":-0.07410884716572512,"4":0.03347414073878701,"5":0.048401341365089987,"6":0.16367736318039944,"7":-0.015348748978173283,"8":-0.11413838258025907,"9":-0.09187516988719957,"10":-0.04766696064146503,"11":-0.08773052329063569,"12":-0.00947827318395322,"13":-0.04735987806282156,"14":0.02785877312827992,"15":0.20835860798944822,"16":0.034300021105667405,"17":0.1408568229828229,"18":0.12554509550033718,"19":-0.03010347086226414,"20":0.014638341824546292,"21":-0.15124703637162085,"22":0.12388473314431704,"23":-0.025942038435104266,"24":0.12356125856190385,"25":-0.10268543322450092,"26":-0.24072111620562586,"27":-0.11653436350141891,"28":0.050449301058597656,"29":-0.03637752078361361,"30":0.1047213633609481,"31":-0.03873701469584115}},{"sx":1,"sy":1,"depth":32,"w":{"0":-0.09528069700152265,"1":-0.07876121603522117,"2":-0.11298873151140224,"3":-0.02263885662581985,"4":0.3433807592432907,"5":-0.04375831917482223,"6":-0.15476796844042356,"7":0.027859844480107337,"8":-0.06575091675374604,"9":0.027032299928868474,"10":-0.18494044361161402,"11":-0.14818537556849923,"12":0.0329529066946105,"13":0.058257794253004654,"14":0.1329306185470241,"15":0.006691830401412918,"16":-0.03128996172828511,"17":0.014592177216278831,"18":0.06581214020776276,"19":0.034534781987160396,"20":-0.08500968430340136,"21":-0.16128076559788698,"22":-0.003047626653131423,"23":-0.007378261300570615,"24":-0.07495959541627466,"25":0.042155822709244666,"26":-0.17182390730968666,"27":-0.07594659454184281,"28":-0.06365894071181372,"29":-0.11117599271894792,"30":-0.12306297143316981,"31":0.023689157405480735}},{"sx":1,"sy":1,"depth":32,"w":{"0":0.018686038099208834,"1":-0.06200570329806032,"2":-0.11529717030199847,"3":0.04237155978611501,"4":0.056094957656803175,"5":-0.042017162467875534,"6":0.243393098288557,"7":0.10045030702707687,"8":-0.05789606926444104,"9":0.2160151800663053,"10":0.0528706008405576,"11":-0.06272401926561741,"12":0.014924605690190907,"13":-0.07202383421029912,"14":-0.11616177196234291,"15":-0.14208172510290218,"16":0.04289839542587789,"17":-0.0358294280815482,"18":-0.032292994397403456,"19":0.013787952961076797,"20":0.06334415471792398,"21":0.07201384470526155,"22":-0.041008412106163634,"23":-0.10984767585508236,"24":0.0012257902199041004,"25":0.2452835570386835,"26":0.09338057556599766,"27":0.08996900757935908,"28":0.029651283360266262,"29":-0.08830580130737677,"30":0.19215236471108801,"31":-0.01150608976042734}},{"sx":1,"sy":1,"depth":32,"w":{"0":-0.09572697389954538,"1":-0.19759113193382544,"2":-0.22481613273638157,"3":-0.08499384395125836,"4":-0.2151160270981869,"5":-0.01899049034675677,"6":-0.00933038784174653,"7":-0.1799555426201379,"8":-0.03450087206585944,"9":0.027681316302244283,"10":0.04942063246469436,"11":-0.045672291838936833,"12":0.09063215264312564,"13":-0.1513538285584848,"14":0.012582047280148959,"15":0.010271916493529381,"16":-0.08607362107163782,"17":0.06075560936875705,"18":-0.0914226205256492,"19":0.008018857927145486,"20":0.04580191622909211,"21":0.02422556483971725,"22":0.07527672906450439,"23":-0.033755614087094495,"24":0.03971890692257591,"25":0.050530640013771035,"26":-0.11180267360078838,"27":-0.1608099229781965,"28":0.015567236921390787,"29":0.17946989584880835,"30":0.05798761218004328,"31":-0.1136651941309328}},{"sx":1,"sy":1,"depth":32,"w":{"0":-0.11969425643058113,"1":0.1522363424158106,"2":0.049282407291833356,"3":0.04815143367150294,"4":-0.10413796929837409,"5":-0.05775805053457587,"6":0.10218370796688768,"7":-0.08997723194648366,"8":-0.031430298693057725,"9":0.07193652044910233,"10":-0.057298826903818635,"11":0.12434318570295097,"12":-0.15743214113131956,"13":-0.00032612706328060857,"14":0.10086398584004813,"15":-0.04483585177599123,"16":-0.0065226522307782935,"17":-0.15748019697295287,"18":-0.3489473261369099,"19":-0.03883426940471698,"20":0.09382252353956791,"21":-0.08020527566082275,"22":-0.05311449535054512,"23":0.18781313543887018,"24":-0.12232223335584627,"25":0.023035216902641906,"26":-0.14863396130348822,"27":0.06649005814809421,"28":0.20515877687892176,"29":-0.046624793297151475,"30":-0.2138577426032175,"31":0.037861787654961586}},{"sx":1,"sy":1,"depth":32,"w":{"0":-0.04511789354993575,"1":0.0923069590211887,"2":-0.017589868046987648,"3":0.09298081934152734,"4":0.06882266327169084,"5":0.09282802381864552,"6":0.10639239722344787,"7":-0.007508831303289709,"8":-0.008849585558675935,"9":-0.040982541804954614,"10":0.11271617236398598,"11":0.17702412564847325,"12":0.09396210336727903,"13":0.11790857669124766,"14":0.12429009661768879,"15":0.05380151127960403,"16":-0.09324418114882098,"17":-0.04995959201351551,"18":-0.19994811689288458,"19":-0.05216384963778047,"20":-0.0547377174989772,"21":-0.07618994016378414,"22":-0.08181143857409952,"23":-0.10959754002678644,"24":0.10982713285587632,"25":-0.028197141415745284,"26":-0.16497700940171886,"27":0.028407394480779516,"28":0.16340567995737446,"29":-0.1866500980439071,"30":-0.040009441316213985,"31":-0.14620743995888372}},{"sx":1,"sy":1,"depth":32,"w":{"0":0.022396313576749947,"1":-0.074184903685169,"2":-0.05613850017300587,"3":-0.08651256092592438,"4":0.011061717327252732,"5":0.002309913942146331,"6":0.16595841416502435,"7":0.0520793971841459,"8":-0.04358718628877162,"9":-0.08627917048678996,"10":0.08596652197435674,"11":-0.06426258608621001,"12":0.14873750119926868,"13":-0.0918122647615467,"14":0.0880405982271098,"15":-0.052089883827736626,"16":-0.17087135278058702,"17":-0.22173274284114283,"18":0.13690681596744694,"19":-0.09784641880534083,"20":0.19518872496920356,"21":0.04293931773711044,"22":0.01236803266246985,"23":-0.1844206527517439,"24":-0.03822132450052705,"25":-0.00816046278800351,"26":-0.05976730665333029,"27":-0.0893347878910804,"28":-0.11979093289362172,"29":-0.05961894450575725,"30":-0.1285470244116505,"31":-0.08726412273718807}},{"sx":1,"sy":1,"depth":32,"w":{"0":0.04311188727598653,"1":0.25879173506073894,"2":0.13289417057064185,"3":-0.07918878507128473,"4":0.16831393520321503,"5":0.014638706725664204,"6":0.08756396891716764,"7":-0.08967159265238671,"8":0.027207702437629804,"9":-0.311769373954551,"10":-0.06015344848784007,"11":0.05537530501506505,"12":0.07394706047716064,"13":0.028274779399623768,"14":0.10252016585334144,"15":0.21375920213771257,"16":0.09780108474224085,"17":0.006229941060001193,"18":-0.0029117690711934216,"19":0.10399987148227417,"20":-0.02282863186357075,"21":0.12868775579892613,"22":0.07853218883598598,"23":-0.03344163182645522,"24":0.0946814351539714,"25":-0.1684975144055741,"26":0.1440491386645129,"27":-0.053049814450964204,"28":0.14157645363765808,"29":0.040927756105073786,"30":0.02794747175685604,"31":0.22520303622414997}},{"sx":1,"sy":1,"depth":32,"w":{"0":-0.06781546173517762,"1":-0.06162797740817963,"2":-0.11687034793463029,"3":-0.10452392517200858,"4":-0.03702360426828539,"5":0.06523500655039308,"6":0.037294390748424895,"7":0.037278314985411086,"8":-0.09863183891113442,"9":-0.031139580993601725,"10":-0.20948028460660248,"11":-0.09547251110373223,"12":0.014687761906982656,"13":0.056576313457960374,"14":-0.11420112950488487,"15":0.06265813625642996,"16":0.12954881722761968,"17":0.002180781320959513,"18":0.10132287267158105,"19":0.08362946400483318,"20":-0.17096333380843107,"21":-0.07516790550955392,"22":-0.07206827020474986,"23":-0.07911770940180493,"24":0.29155972623593585,"25":-0.014985566823353025,"26":-0.08901117875378595,"27":-0.08729472040389709,"28":0.016309463348795142,"29":0.2927180356485646,"30":0.000617481040856559,"31":-0.04681960018021939}},{"sx":1,"sy":1,"depth":32,"w":{"0":0.007586677355842465,"1":-0.11867981553231301,"2":-0.08440324078923367,"3":-0.09975987160333358,"4":0.1294899637890133,"5":0.04309763458037266,"6":-0.08171146758102102,"7":-0.01089314746985337,"8":0.010663256004388765,"9":-0.13619464592669475,"10":-0.048023665234866765,"11":0.05484258617430351,"12":-0.028598929850204038,"13":-0.07571432694731735,"14":0.0031128985081674233,"15":-0.16350896521549074,"16":0.03743962754538528,"17":0.059296393090969714,"18":-0.12546766551681768,"19":-0.06151607110842884,"20":-0.08537154763595634,"21":-0.08182855644351116,"22":0.08126740158142257,"23":-0.003069236907080566,"24":-0.06890531557616637,"25":-0.13075260269323086,"26":0.023695712065122308,"27":0.09419353077670635,"28":0.013981170513858176,"29":-0.1537962745329959,"30":0.007258002511944874,"31":-0.3075532647587913}},{"sx":1,"sy":1,"depth":32,"w":{"0":0.07432726669090522,"1":-0.020269380949510703,"2":-0.05208153285218467,"3":-0.014975686111971503,"4":0.010876716131350293,"5":-0.09829929350460807,"6":0.07004720779399698,"7":-0.04297237918711805,"8":-0.013968988665659552,"9":0.0376921928528626,"10":0.01833860466343782,"11":0.05187156263059056,"12":-0.22708593031230123,"13":-0.17315863266510811,"14":0.008773526465361588,"15":0.11630148115681418,"16":-0.0704726246812477,"17":-0.08861216460488044,"18":0.025581863465173386,"19":-0.14026356781674226,"20":-0.05263330359036577,"21":0.17454351895847584,"22":-0.16943769694532715,"23":0.08362327898300259,"24":-0.15442378005746477,"25":0.12185118552597612,"26":0.12169991448923903,"27":-0.024302879175908138,"28":0.18690928667278253,"29":0.05629627131334396,"30":0.009790448450261459,"31":0.0090950972592298}},{"sx":1,"sy":1,"depth":32,"w":{"0":0.04675250027948386,"1":-0.05733798323408688,"2":0.12646397009171062,"3":0.1224545240055635,"4":-0.07656351669406826,"5":0.08332516850984105,"6":0.20166658831836898,"7":0.03515618275909694,"8":-0.05716823075948421,"9":-0.2193158811136112,"10":0.0733365026476624,"11":-0.019352703600166055,"12":-0.09963221093244223,"13":-0.024458433133464727,"14":-0.15186470926638995,"15":-0.020016313785400697,"16":0.06121613500402488,"17":0.20478303115097868,"18":-0.16885556983746716,"19":-0.05203831702666283,"20":-0.00907373864221534,"21":0.21659174796996977,"22":-0.08159630030516984,"23":0.1136541017934195,"24":-0.028441602863552642,"25":-0.05870060517508015,"26":0.08447875619251216,"27":-0.0010996263081636023,"28":-0.01572014969640571,"29":0.0622620638210781,"30":0.11247825895317073,"31":0.0372313556033446}},{"sx":1,"sy":1,"depth":32,"w":{"0":-0.2611595637614546,"1":-0.030131141430039896,"2":0.1552871598448458,"3":0.09074094411424845,"4":0.013058065509314017,"5":0.0869830633154486,"6":-0.07855122986908943,"7":0.15176050546600917,"8":0.15499883515258658,"9":0.26374643642875745,"10":-0.03529631767697797,"11":0.014233554091548644,"12":0.008400672008941765,"13":-0.1131356721985799,"14":-0.041442384233800436,"15":-0.12603977321220275,"16":0.3102482734155371,"17":0.18331999771319893,"18":0.054458810666021346,"19":-0.006846523284157204,"20":-0.07472708341570912,"21":-0.05190589081458769,"22":-0.06814719856356832,"23":0.10729371861327464,"24":0.08512227048076995,"25":-0.13861247826304304,"26":-0.041295954423232674,"27":-0.15204056015063647,"28":-0.21364006107571723,"29":-0.10365528137850007,"30":-0.08827661386244487,"31":-0.09566057045793733}},{"sx":1,"sy":1,"depth":32,"w":{"0":0.06937773897846349,"1":0.02497535742859441,"2":0.22410017191711046,"3":0.2811520302158549,"4":-0.14245746181103155,"5":0.03784884650554473,"6":-0.030271599814469172,"7":-0.10492027618015734,"8":0.15901824553341687,"9":-0.040356348554734196,"10":-0.03279348743150923,"11":-0.12427633583177757,"12":0.002905621460916117,"13":-0.09915448290035289,"14":-0.09402995586210482,"15":-0.1324761680926507,"16":0.10243316290698473,"17":-0.012106485879818052,"18":0.02073346891983424,"19":0.16371277218856847,"20":0.27728807114817444,"21":0.1753775863646768,"22":0.17606903198263069,"23":-0.12319357943870884,"24":-0.024969208854913827,"25":0.20504278963017017,"26":-0.08807146704953665,"27":0.24024115693883108,"28":-0.13007089076881673,"29":-0.14223101085450332,"30":-0.08217967837542473,"31":0.006106987635087024}},{"sx":1,"sy":1,"depth":32,"w":{"0":-0.0704862794506941,"1":-0.07246712071020349,"2":0.10273822168744068,"3":-0.24837818876125872,"4":0.009947235396031286,"5":-0.22273654216060254,"6":-0.21359834275132633,"7":0.10520239025260812,"8":-0.14698576665168941,"9":0.04976862302024301,"10":-0.02948179972894869,"11":-0.01964586085550713,"12":-0.00830627687069188,"13":-0.05542103017911859,"14":-0.026356355460649076,"15":0.027861986335423024,"16":-0.1712100884029118,"17":0.18740485687649,"18":0.059497444411911904,"19":0.2144576130810829,"20":-0.1229448564046807,"21":0.1231514243276264,"22":-0.05385477682518678,"23":-0.029779737446416158,"24":-0.05914122086443708,"25":-0.24015440309505623,"26":0.1603212276865521,"27":0.0568640948964804,"28":-0.09612760125589971,"29":-0.05199315816641249,"30":-0.095146261673337,"31":-0.16218577125908387}},{"sx":1,"sy":1,"depth":32,"w":{"0":-0.2262945943878807,"1":0.05999698343567592,"2":-0.13073016048382996,"3":-0.0523730202853289,"4":-0.01076133461640596,"5":-0.1440115173636238,"6":-0.015461288449286383,"7":0.023816642688779414,"8":-0.13207512635437782,"9":-0.08433317386874835,"10":-0.023619631432597894,"11":0.18285219723620474,"12":-0.09625259992164051,"13":-0.2646400712520476,"14":-0.16311466257908722,"15":-0.0957320057099053,"16":-0.043905578666623264,"17":0.16788110079329033,"18":0.12115033940918464,"19":0.13138719274483296,"20":-0.18134379630778155,"21":-0.05378141132226951,"22":0.08293493935585829,"23":0.0911952652431846,"24":-0.11461185963003426,"25":-0.0005596237466254182,"26":-0.14674329918013357,"27":-0.06190161507389317,"28":0.13120903284707355,"29":-0.09902233364169494,"30":0.027601708701756558,"31":0.09076568378191716}},{"sx":1,"sy":1,"depth":32,"w":{"0":-0.10150547822553635,"1":-0.06772169824132354,"2":0.028651811560984373,"3":0.06293216395789857,"4":0.20302581476828244,"5":0.01559670072056871,"6":0.023318893135064293,"7":-0.08809287237662823,"8":0.019640324493655027,"9":-0.0878232194749831,"10":-0.09759004965240037,"11":-0.07098873396200867,"12":0.11798258783438051,"13":0.06801254435343387,"14":-0.019918703229658174,"15":0.1631002268660497,"16":-0.020058821791191207,"17":-0.06748143366982863,"18":0.21893950834280784,"19":-0.027244876375663807,"20":-0.20206479006833689,"21":-0.005125474532902178,"22":-0.07973180730633636,"23":-0.0383864061146317,"24":0.017510971877603972,"25":-0.1262785722193815,"26":-0.04962926068849787,"27":0.0292343063395864,"28":-0.06065526170584333,"29":-0.12177333511007138,"30":0.052067345715678316,"31":0.15355245176491256}},{"sx":1,"sy":1,"depth":32,"w":{"0":-0.0779392647796458,"1":-0.1123047079089008,"2":0.13044892460249796,"3":0.12112980155322868,"4":0.09020593083634881,"5":0.07817708870654408,"6":0.0852030229371089,"7":-0.07427815994832207,"8":-0.06020004877478342,"9":-0.007725850490825725,"10":-0.0893893888934332,"11":-0.19392869746433303,"12":0.08736381703444607,"13":-0.43775901929876887,"14":0.10223852005962561,"15":0.016203307114401953,"16":-0.06632087359693438,"17":-0.28832248235247915,"18":0.09795965733544243,"19":-0.0006753858030515246,"20":-0.017219187567008055,"21":0.05244402047955142,"22":-0.12320526144164583,"23":-0.007282658238346297,"24":-0.06858172478923917,"25":0.0036029714988353233,"26":0.08330364359437593,"27":-0.03229091867416139,"28":-0.15072877633204432,"29":-0.06762705450143942,"30":-0.15653112955060566,"31":-0.24057198077650938}},{"sx":1,"sy":1,"depth":32,"w":{"0":-0.04288092195216627,"1":-0.13864869388986253,"2":0.1434271420544057,"3":0.09980123972921874,"4":0.013135092285357152,"5":0.10762029649147435,"6":0.1542779700287011,"7":-0.07582236361754315,"8":0.11471848289365791,"9":-0.10697902493186842,"10":0.10887414631054587,"11":0.014945734131961867,"12":0.06776891292220567,"13":-0.04469266970019651,"14":-0.16870977686304894,"15":0.15674791328693302,"16":-0.01978484694201611,"17":-0.20825187066638864,"18":-0.004733443873126087,"19":0.14146139408301892,"20":0.04545451421288126,"21":0.31601837227089014,"22":-0.061775679218422655,"23":-0.13181310558947337,"24":0.03636458825961881,"25":-0.124935883416016,"26":-0.12642462029365764,"27":-0.23170877511694626,"28":-0.2543919921440473,"29":-0.048564834155385546,"30":0.24630772636565615,"31":-0.037603641857262025}}],"biases":{"sx":1,"sy":1,"depth":32,"w":{"0":0.10526048080689762,"1":-0.06414308421102617,"2":-0.004301310694912762,"3":0.07594680946540683,"4":0.286283172836177,"5":0.08000420539194833,"6":0.13999447382788224,"7":0.047783319532210794,"8":0.03921254779244697,"9":0.09655709294000621,"10":0.10991611558466174,"11":0.1016344194140408,"12":0.05681222783125954,"13":0.12038224539144662,"14":0.09088749640589125,"15":0.11034404149180012,"16":0.08696788235372147,"17":0.04274007559391942,"18":0.09492351938722637,"19":0.10269792898862383,"20":0.07489329335481736,"21":0.08611077572673485,"22":0.084039211968,"23":0.07430861391831504,"24":0.11726280565687575,"25":0.17287728977165892,"26":0.14627384511373384,"27":0.09009220073025885,"28":0.08570864222000064,"29":0.08364349046863472,"30":0.08683499063616591,"31":0.11821174081550222}}},{"out_depth":32,"out_sx":1,"out_sy":1,"layer_type":"relu"},{"out_depth":32,"out_sx":1,"out_sy":1,"layer_type":"fc","num_inputs":32,"l1_decay_mul":0,"l2_decay_mul":1,"filters":[{"sx":1,"sy":1,"depth":32,"w":{"0":-0.031037452806384102,"1":-0.24951892824998703,"2":-0.011440309073342135,"3":0.05481217951134762,"4":0.04042779380545605,"5":-0.006020827571108087,"6":-0.1905927950361659,"7":-0.12307422791987456,"8":-0.15676117309021254,"9":-0.07351529159907619,"10":0.09006752576660722,"11":0.03689238042004769,"12":0.04906427604740875,"13":-0.1172033502938495,"14":-0.0635863534339923,"15":0.04978710524528253,"16":0.12143762363084529,"17":-0.06186606102534689,"18":0.03351945875771811,"19":-0.136117643815557,"20":0.19397272262578422,"21":0.17373077807910411,"22":-0.05563707379928271,"23":0.07315086028230057,"24":-0.09446040345625768,"25":0.01860778000528114,"26":-0.08107239140702889,"27":0.09887294700062939,"28":0.08034944214720635,"29":0.08689095674766979,"30":0.06822060869832301,"31":0.02124935493214605}},{"sx":1,"sy":1,"depth":32,"w":{"0":0.051363823842874884,"1":-0.19953073825687873,"2":-0.008319725378682225,"3":0.09457274730898674,"4":-0.013478749975556202,"5":-0.10972751789890507,"6":-0.1627674088010581,"7":0.211474262168266,"8":0.012754059941433698,"9":0.05549018510240776,"10":-0.12853802493014765,"11":0.17004766605543403,"12":0.147734819976432,"13":0.15494053975582744,"14":0.007116291707704577,"15":-0.11872059423273343,"16":0.040963067439526595,"17":0.013036264992254834,"18":-0.006244328800650672,"19":-0.13609599637030498,"20":-0.022575716394116492,"21":0.014106592510099944,"22":-0.00005588874418370533,"23":-0.08134935955340732,"24":-0.010952399352614607,"25":0.02223450118097948,"26":0.01730265607644766,"27":-0.08973377908019015,"28":0.08989686513680742,"29":0.019680516214875873,"30":-0.005779702529229096,"31":-0.08814042505462247}},{"sx":1,"sy":1,"depth":32,"w":{"0":-0.0061735238189974725,"1":-0.19024651348003147,"2":-0.09466501158266012,"3":-0.05036799557672834,"4":0.12753585880948085,"5":-0.06570207471095185,"6":-0.07935579177993346,"7":-0.14535791103167242,"8":0.08744477957749557,"9":0.08968528548886703,"10":0.06426957204746041,"11":-0.10094792028540696,"12":0.0996612898481258,"13":-0.14797078581484144,"14":0.028581040940168133,"15":0.012761306669058921,"16":-0.07169802004540449,"17":0.054282012670944464,"18":0.053244311231190285,"19":0.05249419484584122,"20":-0.051263157793208926,"21":-0.165766703366178,"22":0.10120555564230597,"23":0.0145819833424039,"24":-0.2086523658232943,"25":0.18078216281744666,"26":0.08120122532065767,"27":-0.03168453414685823,"28":0.16067498545201372,"29":0.08146901458407362,"30":0.2214351898592482,"31":-0.12393905148009318}},{"sx":1,"sy":1,"depth":32,"w":{"0":0.10920969840574757,"1":-0.04446019796983614,"2":-0.09689407610412734,"3":-0.10197667208653831,"4":0.03319976724409271,"5":-0.04902907477415209,"6":-0.08875677706561967,"7":0.12328332672255843,"8":0.09376322335417607,"9":-0.03574460049566162,"10":0.20622221676582086,"11":-0.046191545095771086,"12":0.016807757225755393,"13":-0.019614509288841214,"14":-0.00048658489881704323,"15":-0.08280264989820024,"16":0.09087699659757194,"17":0.08981706321240551,"18":-0.021243797046445405,"19":0.003748272628580974,"20":-0.10821181627683699,"21":-0.04207553114477961,"22":-0.03946322174897775,"23":0.1807816003413534,"24":0.01148237004878392,"25":0.06511067350656834,"26":0.02327079609581669,"27":0.008446593428242737,"28":0.019688967675439716,"29":0.12823334923765792,"30":0.019839320536370643,"31":-0.12904524809576884}},{"sx":1,"sy":1,"depth":32,"w":{"0":-0.043788439639383225,"1":-0.11583640892737353,"2":0.06715968853541796,"3":0.06046674414795009,"4":-0.0643889584891535,"5":-0.026315843250509306,"6":-0.20287863738772485,"7":-0.02757494678275374,"8":-0.03693446324287157,"9":0.023833104295549423,"10":0.045896610436647736,"11":-0.04691447715063348,"12":-0.08099040875858945,"13":-0.08976238035291102,"14":-0.13297266732661767,"15":-0.20676313774948712,"16":-0.05991841713821131,"17":0.08140189837523973,"18":0.08239874919365608,"19":0.002746024476682088,"20":0.0540746972603117,"21":-0.08364981973932188,"22":0.11672868035243346,"23":-0.03283778990506728,"24":-0.008239509013446068,"25":0.28510872205570686,"26":0.17006680605808677,"27":0.003638722460113169,"28":0.0624180589428448,"29":-0.16814726237535974,"30":-0.039976144402929376,"31":0.13704317790749085}},{"sx":1,"sy":1,"depth":32,"w":{"0":-0.18598155836385513,"1":-0.14652058048808717,"2":0.009614594970117837,"3":0.04311347422257328,"4":0.12077280607402312,"5":-0.06536554532195105,"6":-0.10319158871114566,"7":0.11177874393064924,"8":-0.12040798746008177,"9":-0.025301879950672367,"10":0.03327803628288315,"11":0.0478338294768326,"12":-0.027074994651001667,"13":0.04626817608472941,"14":-0.006653423944789712,"15":0.09033669230900927,"16":0.016053311170123482,"17":0.13003904275220957,"18":0.08679469494130265,"19":-0.13350289443850236,"20":-0.18393864838224624,"21":-0.13020303818391263,"22":0.04935154547601787,"23":0.06997359885291922,"24":-0.09320403432289279,"25":-0.14466696405592414,"26":0.019807153082604407,"27":-0.07042438225111458,"28":0.004234970267209204,"29":0.1629335367207702,"30":-0.12974415859220217,"31":-0.1615499032952765}},{"sx":1,"sy":1,"depth":32,"w":{"0":0.0507386020892471,"1":-0.02671145341777601,"2":-0.021313659435058044,"3":0.09128809820374904,"4":0.15067081494823,"5":-0.06688876138955417,"6":0.009668310230627619,"7":-0.12750559625442529,"8":-0.1643021012822872,"9":0.0446439122311938,"10":-0.0029837250513504087,"11":-0.022479573803712096,"12":-0.18128909770963658,"13":-0.0711100240108592,"14":0.04833356026092763,"15":-0.008165274037228755,"16":-0.09809634956139968,"17":-0.206975017025369,"18":-0.10767918912705841,"19":-0.048507237574987,"20":-0.13939772350852958,"21":-0.08243992436188342,"22":-0.07150274753575547,"23":-0.020524011857141013,"24":0.11710514689596377,"25":-0.07713338480028589,"26":0.22200332313864787,"27":-0.15600102208345246,"28":-0.0627103880414954,"29":0.004824805993549775,"30":-0.1866026646393496,"31":-0.15451258852495542}},{"sx":1,"sy":1,"depth":32,"w":{"0":0.1147208643339309,"1":0.0613287997587227,"2":-0.0007168525782660308,"3":-0.09639816103798005,"4":-0.26946842557321493,"5":0.14800414326920136,"6":-0.046036653952825086,"7":0.07542744794345771,"8":0.12844960599400637,"9":-0.04942139052461522,"10":0.04738182138535679,"11":0.037062539945523394,"12":-0.14580603629870953,"13":0.09632469528500813,"14":0.018583864545621803,"15":0.0001538964784254327,"16":-0.059369847962815525,"17":-0.09858531450579176,"18":0.07954442957847381,"19":0.11844558439144172,"20":-0.13812335945191748,"21":-0.060596458627287096,"22":-0.029323463504188057,"23":-0.10063580533200056,"24":0.05810196832267618,"25":0.03160411344270978,"26":-0.17570321650083368,"27":0.10015053590881184,"28":0.034039790075078666,"29":0.04375065108590618,"30":-0.00003352953877221406,"31":0.012345856106500913}},{"sx":1,"sy":1,"depth":32,"w":{"0":0.10988663402913221,"1":0.19531298504575528,"2":0.008899525972482544,"3":-0.0050969017521771695,"4":-0.1355086732272741,"5":-0.08224022857238975,"6":-0.05242579905199805,"7":-0.013766799546147587,"8":0.022935814988205978,"9":-0.028459993808149738,"10":-0.1917049182215915,"11":-0.10783100803532673,"12":0.07028746312362216,"13":0.10473317984982976,"14":-0.12176389934762706,"15":-0.12206104814873174,"16":0.051826400155109476,"17":0.15744733777263223,"18":-0.03818647049159827,"19":-0.08862102505313096,"20":-0.03496978344438035,"21":-0.043532849117970826,"22":0.013792854721280438,"23":0.19050547889279573,"24":0.07356131656272318,"25":0.026163051087190015,"26":-0.29876778770988843,"27":0.030935675806847387,"28":0.09835265764195684,"29":-0.17203161761760047,"30":-0.04649262668733971,"31":-0.13160484976823175}},{"sx":1,"sy":1,"depth":32,"w":{"0":-0.032914395281993115,"1":-0.07155987505498493,"2":0.08930602765159447,"3":-0.06286039418556069,"4":0.05511785139195783,"5":-0.07598175612908796,"6":0.013297049093617725,"7":-0.18780772067471124,"8":-0.014410420073095826,"9":-0.05048691503112309,"10":-0.0002631866177439735,"11":0.036126544292239667,"12":-0.04918989903753069,"13":0.09937167575646377,"14":-0.008012428859129487,"15":-0.0013572516090173156,"16":0.05353676558705122,"17":-0.05633068735231421,"18":0.09277383921212426,"19":-0.027488022643512026,"20":0.015647916901632516,"21":-0.10481205811966637,"22":0.035186428013135186,"23":-0.0660913367535103,"24":-0.08430071209749634,"25":0.08850533132991903,"26":-0.08612313917301397,"27":-0.1500625091624188,"28":-0.1667889878229654,"29":-0.026158481638949977,"30":-0.2767257213282863,"31":-0.22058911639028156}},{"sx":1,"sy":1,"depth":32,"w":{"0":0.016367526806785913,"1":-0.07539984448637646,"2":-0.04898936153872452,"3":-0.06274922191765682,"4":-0.16836217788532035,"5":0.15080930024281847,"6":0.2698013595071185,"7":0.032703699220532054,"8":-0.14741361615466955,"9":0.06108258841740682,"10":0.06442637578348746,"11":-0.11862496256809814,"12":-0.17843787725198273,"13":0.19470678346902776,"14":0.1048318716558679,"15":-0.05803499163756591,"16":0.06229858947243224,"17":-0.0898033258094934,"18":0.11030193496192882,"19":-0.037606997563178736,"20":0.012560055903316032,"21":0.052755224062393656,"22":0.22898898129205728,"23":0.04320414468076638,"24":-0.09252090899939608,"25":-0.12213353272508902,"26":0.006233133725755783,"27":-0.12553336745244376,"28":0.11170350462702557,"29":0.13451719738897158,"30":0.14310066225847318,