var nnPeter = {"layers":[{"out_depth":6,"out_sx":1,"out_sy":1,"layer_type":"input"},{"out_depth":32,"out_sx":1,"out_sy":1,"layer_type":"fc","num_inputs":6,"l1_decay_mul":0,"l2_decay_mul":1,"filters":[{"sx":1,"sy":1,"depth":6,"w":{"0":-0.31572455057195403,"1":0.4155377007863598,"2":0.08575863501596669,"3":-1.3944311320135234,"4":-0.1945290566107515,"5":0.049578703690658185}},{"sx":1,"sy":1,"depth":6,"w":{"0":-0.24026002488226383,"1":-0.3196994870394972,"2":-0.6185882592545577,"3":0.22700530695339635,"4":0.2702114229370612,"5":-0.11037737279103219}},{"sx":1,"sy":1,"depth":6,"w":{"0":-0.034138416479858276,"1":0.36893568852753483,"2":0.5156830386285273,"3":-0.13575171537737912,"4":-0.3360519707871642,"5":-0.4093891486232288}},{"sx":1,"sy":1,"depth":6,"w":{"0":-0.041610795347634226,"1":-0.015394808342675297,"2":0.5739624915454015,"3":2.0432359550316197,"4":0.2937905770719768,"5":-0.49396637565129775}},{"sx":1,"sy":1,"depth":6,"w":{"0":-0.2214961449813117,"1":0.38780991340119997,"2":0.45094464031099873,"3":-0.6398988760648212,"4":-0.21355626945559864,"5":0.17539218777864315}},{"sx":1,"sy":1,"depth":6,"w":{"0":-0.06386071785759295,"1":-0.058328926376912865,"2":0.6050367716540295,"3":-0.22191886122665716,"4":-0.19607365921979517,"5":-0.0405707157415939}},{"sx":1,"sy":1,"depth":6,"w":{"0":-0.04927620674387967,"1":-0.2761841714457544,"2":-0.48562254114862796,"3":-0.37022584542199644,"4":0.26348898508343993,"5":0.4241637718716894}},{"sx":1,"sy":1,"depth":6,"w":{"0":0.029553071475515263,"1":-0.09367403809839804,"2":-0.6589908694295554,"3":-1.5005646846944027,"4":0.19978846256563934,"5":0.19234699659250207}},{"sx":1,"sy":1,"depth":6,"w":{"0":0.03817975974941459,"1":-0.09093852283833621,"2":0.2609729527429459,"3":0.05898740754149275,"4":-0.09554875062063911,"5":0.08769768666015276}},{"sx":1,"sy":1,"depth":6,"w":{"0":-0.16446204113296084,"1":-0.12911583556912137,"2":-0.06157470876772768,"3":0.06521842742896168,"4":-0.006744541484994606,"5":-0.03525392017018664}},{"sx":1,"sy":1,"depth":6,"w":{"0":-0.4797166978647365,"1":0.004389370952507897,"2":0.24194757701546957,"3":0.44128952873096605,"4":-0.03842908619530174,"5":0.5287489197019407}},{"sx":1,"sy":1,"depth":6,"w":{"0":0.24790013000418415,"1":-0.020532839691114222,"2":0.5113784262686208,"3":0.9595091176548034,"4":-0.07145817316432537,"5":0.19680792291852325}},{"sx":1,"sy":1,"depth":6,"w":{"0":0.0551047609032096,"1":-0.04229613101915454,"2":0.5173208393921216,"3":0.8352695870601342,"4":0.053505835876126805,"5":0.2539391100155412}},{"sx":1,"sy":1,"depth":6,"w":{"0":-1.0777828659244988,"1":-0.09305965496991732,"2":0.06401212679493148,"3":0.02551663223799795,"4":0.39940424401436436,"5":0.20025611150036704}},{"sx":1,"sy":1,"depth":6,"w":{"0":-0.3017099781188926,"1":-0.20224380686013455,"2":0.3352624437916052,"3":0.17559218122391546,"4":0.2599301873789834,"5":0.06916726451525831}},{"sx":1,"sy":1,"depth":6,"w":{"0":-0.1705554424426749,"1":-0.4933985214930771,"2":0.011181966124227729,"3":0.050677906115718915,"4":0.3432975174520132,"5":0.2649995851215007}},{"sx":1,"sy":1,"depth":6,"w":{"0":0.4340135953937498,"1":-0.3833572434827251,"2":-0.6941459960406975,"3":-0.42110567439790575,"4":-0.050243907043600496,"5":-0.20853479112892437}},{"sx":1,"sy":1,"depth":6,"w":{"0":-0.11405178075164592,"1":0.025995985780681113,"2":0.38584990896936033,"3":-1.8458575737692022,"4":0.21075444110442546,"5":0.13042659400824422}},{"sx":1,"sy":1,"depth":6,"w":{"0":-0.4125492058692272,"1":0.22360084131616445,"2":-0.8824716487144727,"3":0.7589437558239195,"4":0.04573754749404665,"5":-0.12041245430971824}},{"sx":1,"sy":1,"depth":6,"w":{"0":0.24910581779782967,"1":-0.15319204629242789,"2":0.3491154446995439,"3":-0.33996881802000173,"4":0.10738400099359244,"5":-0.1161365166832769}},{"sx":1,"sy":1,"depth":6,"w":{"0":0.047718032678182296,"1":0.04219192288348476,"2":2.2782300281125725,"3":-0.05997731610215084,"4":0.015090736864187014,"5":0.283187258291439}},{"sx":1,"sy":1,"depth":6,"w":{"0":0.11034394536264612,"1":0.27872011690609044,"2":-2.0502533340314137,"3":1.6104910495976132,"4":-0.10342924020200318,"5":0.07415386193630288}},{"sx":1,"sy":1,"depth":6,"w":{"0":0.1659682777816992,"1":0.12826132213373795,"2":-0.1677303839272654,"3":-0.20422245072337683,"4":-0.2670445997551333,"5":-0.24249408922650856}},{"sx":1,"sy":1,"depth":6,"w":{"0":0.329332650863531,"1":0.07585344304616161,"2":0.9585208856085132,"3":-0.7726276873161446,"4":-0.0953380015755723,"5":0.18827404915088713}},{"sx":1,"sy":1,"depth":6,"w":{"0":0.5265376576772816,"1":-0.17919458959342946,"2":-0.05019693693674602,"3":0.23058193721727882,"4":-0.22989369943436094,"5":-0.02134871038134253}},{"sx":1,"sy":1,"depth":6,"w":{"0":0.22728412967160705,"1":0.28244105739814346,"2":-0.12927256229780698,"3":-1.0841485939023505,"4":-0.21656669772080378,"5":-0.2654957562134133}},{"sx":1,"sy":1,"depth":6,"w":{"0":-0.2031956179822887,"1":0.29914446524964766,"2":0.4711934741630696,"3":0.20178190386756234,"4":-0.24175151956165766,"5":0.1707778182159003}},{"sx":1,"sy":1,"depth":6,"w":{"0":0.011616332715178123,"1":0.17849861062378633,"2":-0.12019465177484308,"3":1.3814230739944713,"4":-0.08778803193762927,"5":0.029550737547485485}},{"sx":1,"sy":1,"depth":6,"w":{"0":0.013693962540652584,"1":0.08277190647137866,"2":1.1749174047448303,"3":-0.5628516098825709,"4":0.031130326362343474,"5":-0.25381827331371043}},{"sx":1,"sy":1,"depth":6,"w":{"0":-0.21415258118703764,"1":0.18326682737775624,"2":1.081042077765197,"3":0.12286102619808233,"4":-0.0003928833132785319,"5":-0.13840396342835454}},{"sx":1,"sy":1,"depth":6,"w":{"0":0.37356468851569624,"1":-0.26051221940068076,"2":0.8366055584385739,"3":0.12497013598818511,"4":-0.21340956708354542,"5":0.3647349437312232}},{"sx":1,"sy":1,"depth":6,"w":{"0":-0.2717319722848003,"1":-0.240934315999555,"2":0.5116293620225038,"3":0.7016923294226699,"4":0.3107219105998238,"5":0.15583570261007235}}],"biases":{"sx":1,"sy":1,"depth":32,"w":{"0":0.047815450899892024,"1":0.09769971105109296,"2":0.09264575109000475,"3":-0.0008474425245126591,"4":0.04226132105261777,"5":0.1,"6":0.14923767735041424,"7":0.0634462639101506,"8":0.0964948702138343,"9":0.1,"10":0.09652065192578278,"11":0.23645690250867982,"12":0.11270329482750525,"13":0.12623201558555075,"14":0.12882388131012426,"15":0.11972809834456301,"16":0.043459228759678024,"17":-0.007227285329178023,"18":0.15358968240506443,"19":0.06206052481491945,"20":0.12260436049111906,"21":0.1451151319063467,"22":0.08269022485509997,"23":-0.03131180887968284,"24":0.0861553680295682,"25":-0.05608148850710366,"26":0.10366880039866262,"27":0.09363275123662766,"28":0.02987757150729677,"29":0.0916946772306037,"30":0.12381327525607382,"31":0.14780538459509437}}},{"out_depth":32,"out_sx":1,"out_sy":1,"layer_type":"relu"},{"out_depth":32,"out_sx":1,"out_sy":1,"layer_type":"fc","num_inputs":32,"l1_decay_mul":0,"l2_decay_mul":1,"filters":[{"sx":1,"sy":1,"depth":32,"w":{"0":-0.0265383387428607,"1":-0.14650365456238712,"2":0.07679784444702424,"3":-0.1328196896301289,"4":-0.060376623142427754,"5":0.1375857827018305,"6":-0.21672621681849522,"7":-0.19250916324913672,"8":0.12158785270030399,"9":0.0852662117864492,"10":-0.013064930229442112,"11":0.0019587808257617197,"12":0.030001852485572758,"13":-0.09311997580314796,"14":0.01951824405095094,"15":-0.06353031582118862,"16":0.17096341960942288,"17":-0.06539896337090287,"18":0.14498533688732865,"19":-0.21279991215537994,"20":0.04144938667091566,"21":0.013487363749984332,"22":0.00015103150179391207,"23":0.12451430278659846,"24":0.03454835785129892,"25":-0.06652656747293502,"26":0.11146121983386467,"27":-0.038667769410022076,"28":0.08802251457472327,"29":-0.09503902872601327,"30":0.12304808012933016,"31":-0.017890479626293455}},{"sx":1,"sy":1,"depth":32,"w":{"0":0.02993682792598717,"1":0.031536377068571035,"2":-0.01534933864866139,"3":0.038783573149391064,"4":-0.14485935771456676,"5":0.03726185816012025,"6":0.21008486198689502,"7":0.289664759542907,"8":-0.04632314956267533,"9":-0.10630633577273374,"10":0.011018370644628721,"11":-0.18029414128781343,"12":-0.09116198330564415,"13":-0.1635278264583269,"14":-0.0767703290088404,"15":0.13414823171169094,"16":-0.05758761554368758,"17":0.024325520780612297,"18":0.12562288779784178,"19":-0.11449053029126792,"20":-0.42379478884387184,"21":0.5212111856763455,"22":0.07119859384640646,"23":-0.0758865352765022,"24":-0.1308840984697993,"25":0.04284746929139588,"26":-0.17923264102390885,"27":-0.039352205541904016,"28":-0.16877013473929575,"29":-0.21514700680014848,"30":0.020435487497033805,"31":-0.07293623167164981}},{"sx":1,"sy":1,"depth":32,"w":{"0":-0.1967975577732793,"1":0.1921342705376721,"2":-0.12143171623442331,"3":0.01263561050363306,"4":0.10446275101449774,"5":0.13641828836068287,"6":0.14330296657712352,"7":0.09814422729364429,"8":-0.004625642639218617,"9":0.05107861523834922,"10":-0.039781664441933734,"11":-0.10481590387226528,"12":-0.13223944930709935,"13":0.012992851829621392,"14":-0.21845113977353697,"15":0.049985557505465246,"16":0.12596382217164737,"17":0.03956895145465184,"18":-0.2410856506348377,"19":0.048685943390564104,"20":-0.3387216987299311,"21":0.27551649076180995,"22":0.010995870838502555,"23":0.025682986332801007,"24":0.010348841609968627,"25":0.09257063806332352,"26":0.0746976249636336,"27":-0.00235465965262255,"28":-0.044869331532572304,"29":-0.03653318131358557,"30":-0.09574561880105614,"31":-0.000797107660040535}},{"sx":1,"sy":1,"depth":32,"w":{"0":0.07132988998571965,"1":0.026744368405875144,"2":0.06579472329942972,"3":-0.3847224683721176,"4":-0.0936053839783681,"5":0.0423971100468954,"6":0.05437958836811062,"7":0.24695379240247925,"8":-0.16444200244942586,"9":-0.03596967739617336,"10":0.05889334196720413,"11":-0.15584025050917077,"12":-0.1416947592879782,"13":-0.12355547294100877,"14":-0.04757600848017736,"15":-0.29262708992956765,"16":0.2520408854221079,"17":0.06813177501855389,"18":-0.2788355842221867,"19":0.17121680204243675,"20":-0.26101682374872215,"21":-0.03830272776806458,"22":0.1299851702498936,"23":0.19914277279803688,"24":0.021975567716285276,"25":0.3476515249281942,"26":0.014055990376583154,"27":-0.27339218911366486,"28":0.02600244489660577,"29":-0.27108399031748354,"30":-0.3205450850662744,"31":-0.05267569369721848}},{"sx":1,"sy":1,"depth":32,"w":{"0":0.22147666408659963,"1":0.09316064540920871,"2":-0.033716083338285165,"3":-0.07499883783561337,"4":0.16474165778994607,"5":0.023918592656468562,"6":-0.0863771464996263,"7":0.12286060949258025,"8":0.023980835702129832,"9":0.1110935087149467,"10":0.004249347944881397,"11":-0.18230505864258595,"12":-0.033252554337716754,"13":-0.34378271578288827,"14":-0.07288284199479288,"15":-0.10158464997009464,"16":-0.033075047455093855,"17":0.28377501390228327,"18":-0.2414177056367661,"19":-0.15480876520584652,"20":0.25053219297999063,"21":-0.16008278986661256,"22":-0.02366711066446749,"23":0.21391903863374054,"24":-0.12353418543140457,"25":0.20910570016413219,"26":0.04613662460754188,"27":0.011030836272800095,"28":0.18688437812438066,"29":0.04768023875655115,"30":-0.14973263015230306,"31":-0.1521528800683616}},{"sx":1,"sy":1,"depth":32,"w":{"0":-0.009781608946540945,"1":-0.034148560614288524,"2":-0.06100418434316557,"3":-0.22056551452293724,"4":-0.07441776336969182,"5":0.027014166115649413,"6":-0.18574254221859993,"7":-0.02494785163068272,"8":0.10609646410905405,"9":0.10594698098696796,"10":-0.07100026790731538,"11":0.049839454137811004,"12":0.12615563033327237,"13":-0.018947867054483855,"14":-0.12721579778158945,"15":0.10531836746616381,"16":0.03860648521230569,"17":-0.12192532445073843,"18":0.0899636937823566,"19":0.028551795013478747,"20":0.028717569016134807,"21":0.02630408003263397,"22":-0.2841388637622905,"23":-0.09659019606167017,"24":-0.014190802144933866,"25":-0.05253534150405935,"26":-0.013142379089520137,"27":-0.14154806412014792,"28":0.03900829400821433,"29":-0.14860362718553666,"30":0.11955839771126563,"31":-0.14106122405128066}},{"sx":1,"sy":1,"depth":32,"w":{"0":-0.19889218832746614,"1":-0.1992730020160719,"2":0.09003733646506762,"3":0.4391915450437789,"4":-0.16166469120910135,"5":0.050916970714476435,"6":-0.08620014037077134,"7":-0.0501297911835023,"8":0.14166875879504529,"9":0.06995812011442941,"10":-0.02582045610900612,"11":0.08174360938543195,"12":0.18406848681976845,"13":-0.3540763237997267,"14":-0.05371240191763058,"15":-0.04025261169667127,"16":-0.060502885423691186,"17":-0.02426324549571027,"18":-0.13990086741805563,"19":0.21550781335838423,"20":0.26652529473044156,"21":0.017667354454648933,"22":-0.11794191819993399,"23":0.1894381339797071,"24":-0.17489569417173753,"25":0.023989542178547603,"26":0.11929385974968809,"27":0.07962456991881825,"28":0.18226030546565825,"29":0.15312476785642026,"30":-0.10785687693068627,"31":0.12139077636854685}},{"sx":1,"sy":1,"depth":32,"w":{"0":-0.1934462544248511,"1":0.1864166001231227,"2":-0.08376216365610752,"3":-0.02047473055821088,"4":-0.14697241310520212,"5":-0.059495550097758296,"6":0.054070093654366984,"7":0.0891647709504425,"8":0.10707684000329781,"9":0.09969195580568364,"10":0.17713279502853763,"11":-0.04434728621915888,"12":0.0015268158911588062,"13":-0.05663324683441929,"14":0.01327622086003025,"15":0.013529841697097306,"16":0.15082297591119226,"17":-0.16788644472677872,"18":-0.10990860867382057,"19":0.10182804511869425,"20":-0.18855676892931744,"21":0.34958615381737007,"22":-0.11261059992392629,"23":-0.01627251334693959,"24":-0.09571830310635568,"25":0.12623714827744592,"26":-0.048698202082028054,"27":0.10871785206294139,"28":-0.20620135828872938,"29":-0.010134235525314965,"30":-0.03278469185592627,"31":-0.13256121928165743}},{"sx":1,"sy":1,"depth":32,"w":{"0":-0.07089632319611973,"1":-0.09205156145546026,"2":0.14771008998517968,"3":-0.15336508605924132,"4":0.056333746131022655,"5":-0.006542842237896905,"6":-0.15731872313868037,"7":-0.17867511208698653,"8":0.06494167989854026,"9":0.05467079589892225,"10":0.017830518939413592,"11":-0.005332049630801957,"12":0.015558998121086218,"13":0.05275078205359256,"14":-0.162179736535832,"15":0.0459772227428419,"16":-0.007780571092389846,"17":-0.05378754398162869,"18":0.05617497723129099,"19":0.04421445898968858,"20":-0.1475526878374304,"21":0.25117355316528317,"22":0.19280503198930546,"23":0.04158190941957631,"24":-0.11224603071989644,"25":0.19271203748349258,"26":0.1681088221205637,"27":-0.009102688151952185,"28":-0.1223870590521173,"29":-0.05938889668838342,"30":-0.017163629849192983,"31":0.05705477652145715}},{"sx":1,"sy":1,"depth":32,"w":{"0":-0.11353830843861523,"1":-0.22037662803008465,"2":0.05557988677045603,"3":0.03606774785162414,"4":-0.017525680562638975,"5":0.10064343205675562,"6":-0.08645562190831543,"7":-0.17283753394040066,"8":-0.16820050696473918,"9":-0.032434746201408945,"10":0.02574143898820715,"11":0.2624527207390798,"12":0.12467871418887694,"13":-0.049143075268630994,"14":0.07169466419755154,"15":0.04284236709850243,"16":-0.060236281975313506,"17":-0.23764610269098452,"18":0.15692725308436328,"19":0.14851705313397207,"20":-0.005383381481628921,"21":-0.0006467500089615541,"22":-0.08958899906177145,"23":0.0010328534647362684,"24":0.369352597993305,"25":0.025967584013180348,"26":-0.038694604269857824,"27":0.03637840340205635,"28":-0.07846101164226986,"29":-0.038903176276105296,"30":0.09267364617663805,"31":-0.17606880645613332}},{"sx":1,"sy":1,"depth":32,"w":{"0":0.024652038258770916,"1":0.07765906507182194,"2":-0.11094256091215755,"3":0.06049268083449412,"4":-0.23594043090879155,"5":0.034756427095474114,"6":-0.031215474974300585,"7":0.08109705428034981,"8":-0.057414226982969656,"9":-0.06292852812978988,"10":-0.06353112900948765,"11":-0.0064037188755621255,"12":0.06082879097194003,"13":-0.11853434728937194,"14":-0.019946124695129075,"15":0.1285772679934709,"16":0.011340306959892988,"17":-0.02440896065785926,"18":-0.10593027589995524,"19":0.011588328404224631,"20":-0.19281262413547243,"21":0.16311660368205244,"22":-0.04587604450223892,"23":-0.20560851008213363,"24":-0.19784285416653793,"25":-0.17078960367220272,"26":0.03084864567865453,"27":-0.07129492911233525,"28":-0.01988162369226107,"29":0.006463813581862778,"30":0.07834019106449996,"31":-0.08095715589362779}},{"sx":1,"sy":1,"depth":32,"w":{"0":0.19667042117340017,"1":0.13446845149414893,"2":-0.044387339147671685,"3":0.07894908611218768,"4":0.08675063028914844,"5":0.214290333420295,"6":-0.12361335274043049,"7":-0.18184058116103205,"8":-0.1366386924032411,"9":0.048672337393284214,"10":-0.01948535526647337,"11":-0.09888417623600067,"12":-0.06501366242084007,"13":-0.15555728676070532,"14":-0.24704360769020484,"15":-0.0109088212847014,"16":-0.05442631832595066,"17":-0.14994083017699666,"18":0.2786554207874893,"19":0.10620117154660336,"20":-0.0341777067688311,"21":0.2351659608335042,"22":-0.23201039787906014,"23":-0.18871778951996895,"24":0.15201502630994831,"25":-0.009306528234181153,"26":-0.044495915010212134,"27":0.1276510798760048,"28":-0.1219784289962839,"29":0.14990376946793738,"30":-0.026732126101081947,"31":-0.09588899170190611}},{"sx":1,"sy":1,"depth":32,"w":{"0":-0.10271171767476983,"1":0.06680023005310491,"2":0.055753625348597215,"3":-0.03295308954554993,"4":-0.10048780148466338,"5":-0.08667919693951856,"6":0.12191504491040041,"7":0.0526253115138995,"8":-0.07444773293830685,"9":-0.028518530533802964,"10":-0.07402792213711963,"11":-0.061817935854765346,"12":0.08910670007232273,"13":-0.059701548342188555,"14":0.023008756742715828,"15":0.15899525799619804,"16":0.1390561090738327,"17":-0.14522323428440884,"18":-0.025458256338333395,"19":-0.14041821635339571,"20":-0.0834435709994406,"21":-0.09184482229975999,"22":0.02699323585164317,"23":-0.1551960583949837,"24":0.046700701851179874,"25":-0.1341020286440163,"26":0.04732855308220103,"27":-0.21867358596009603,"28":-0.15139116905022063,"29":-0.017240151769504615,"30":0.01528645615353197,"31":0.08778778705308127}},{"sx":1,"sy":1,"depth":32,"w":{"0":-0.11228327543133572,"1":-0.11712762471878466,"2":0.008746465034240527,"3":-0.1268804139478135,"4":0.08219038212213901,"5":0.022223498102512753,"6":0.008655759332478249,"7":-0.04995795342382067,"8":-0.029173379491215276,"9":0.07796297913268746,"10":0.14787657617544586,"11":-0.02646407719820778,"12":0.13296131863988403,"13":0.16468731718135757,"14":-0.05782302845028859,"15":0.053822813287202245,"16":-0.11897905684822692,"17":-0.01861722081879467,"18":0.043822017263208314,"19":0.08011211938241637,"20":0.005988190258798632,"21":-0.1828148926499709,"22":-0.016391457412555138,"23":-0.19496217621587858,"24":0.009896825987045369,"25":0.02524760203356714,"26":0.027415581449099686,"27":-0.00023408595928954857,"28":0.045305628199517355,"29":-0.0183312152284657,"30":0.10752048535402235,"31":-0.038601035756732446}},{"sx":1,"sy":1,"depth":32,"w":{"0":0.25721355118795475,"1":0.06129763699216068,"2":-0.01031209987762916,"3":-0.03903722440240024,"4":0.062339018750718574,"5":-0.0011240483037566421,"6":-0.0464861512524598,"7":0.09684197769536201,"8":-0.023094664550753097,"9":0.0008107117194340539,"10":-0.016698473926353753,"11":-0.15912104786670309,"12":0.015379788101173039,"13":0.26693682234748456,"14":0.013373571590677338,"15":0.03654117907042813,"16":0.18953226825385916,"17":0.1405894103319848,"18":-0.07715208940294413,"19":0.14281796236725225,"20":0.1474600389402614,"21":-0.2592722817774979,"22":-0.04282827728615552,"23":-0.0335838793345278,"24":0.14307111338179065,"25":-0.16921546711164068,"26":0.22659770346887134,"27":-0.12559598941995306,"28":0.20274642880710064,"29":0.16321142482016612,"30":-0.04484716770607505,"31":-0.11702695605065344}},{"sx":1,"sy":1,"depth":32,"w":{"0":-0.0825706287090324,"1":0.04778592834622204,"2":0.14818322990853175,"3":0.1128049588624201,"4":-0.05184918666053157,"5":0.04376590246222172,"6":-0.05365708825355619,"7":-0.2336545954012744,"8":-0.05821547493255547,"9":0.12516320483812624,"10":0.0357404898968484,"11":0.07122820703322871,"12":0.10318870869584468,"13":-0.02149990824495516,"14":0.23472167107342065,"15":0.18181967920481998,"16":0.2845509077503797,"17":-0.19986727786846473,"18":-0.21724736275640716,"19":-0.026024735050956305,"20":-0.12591504685157678,"21":0.04264822951717277,"22":-0.04722594672491732,"23":-0.24488219187133203,"24":0.09446250579640272,"25":-0.1159043784689408,"26":0.08645443484442222,"27":0.11773829631039616,"28":-0.0898905285642631,"29":0.03545945952763581,"30":0.16776018468475773,"31":0.0017115559739376653}},{"sx":1,"sy":1,"depth":32,"w":{"0":-0.07038778116150626,"1":0.09049873038689162,"2":0.0475836950168216,"3":-0.03183371308775025,"4":-0.05859935763751463,"5":0.04400168813705545,"6":-0.08627139193911333,"7":-0.020441294309919752,"8":-0.11884930025022145,"9":-0.04547428527683641,"10":0.12854660948185562,"11":-0.14212936726859274,"12":-0.0955127343236107,"13":0.07134430822402574,"14":0.04846867793662392,"15":-0.102021694057169,"16":-0.11224989596935525,"17":0.13981095454755432,"18":-0.12751594605193922,"19":-0.07119878420727067,"20":-0.06778717912975521,"21":0.0082265642090361,"22":-0.00716701087300341,"23":-0.034233444253405715,"24":-0.030403063288252048,"25":0.019991434810724205,"26":0.08060431574711201,"27":-0.01711159093552515,"28":-0.22614721792905346,"29":-0.046924555905009484,"30":0.025665845358590622,"31":0.08709038501571988}},{"sx":1,"sy":1,"depth":32,"w":{"0":-0.2021235563216693,"1":0.030198607154970657,"2":0.1663390875555281,"3":-0.1871213863870552,"4":-0.11598605913933814,"5":-0.04161110995085599,"6":-0.015247635156165958,"7":0.0036284083613353103,"8":-0.0002748597682326532,"9":-0.0674102719205059,"10":0.014549709356449066,"11":-0.08000067189712722,"12":0.11665163780110144,"13":-0.028401235668778228,"14":-0.1476359002846017,"15":-0.02705356257642852,"16":0.09664774868791992,"17":-0.22223478949742728,"18":0.06555775003844358,"19":-0.042443465171172735,"20":-0.10635826993073136,"21":0.08473136336579776,"22":-0.04428816646308778,"23":0.07338737228302333,"24":0.24141889215335857,"25":-0.12251946324811058,"26":-0.0703042797755465,"27":0.19448097163251613,"28":0.009354292607401204,"29":-0.1781471640057615,"30":-0.02443840594753778,"31":0.13277196418684606}},{"sx":1,"sy":1,"depth":32,"w":{"0":-0.10720432931704146,"1":-0.21031896662404076,"2":-0.23213411712789592,"3":-0.14105933001257065,"4":0.2451920949344026,"5":0.01097794303534195,"6":-0.13984685191239865,"7":-0.13128222647646345,"8":0.007579963615653893,"9":0.04239720075481056,"10":-0.043086624215463915,"11":0.12213795719914104,"12":0.1646496686671748,"13":0.11794818518492048,"14":-0.12361610195806459,"15":-0.17136656945060144,"16":0.224715316690266,"17":-0.1780276775016302,"18":0.033002640316459955,"19":0.17600388584999657,"20":0.18717676879061854,"21":-0.17140215415687243,"22":-0.2676581175618089,"23":0.0677433326768099,"24":0.13466407866869917,"25":-0.1441894317026283,"26":-0.08948426238600292,"27":-0.05730901972313173,"28":-0.008189943731948481,"29":-0.017767775266300283,"30":0.2768265681860892,"31":-0.16420708474477344}},{"sx":1,"sy":1,"depth":32,"w":{"0":-0.03896359966021492,"1":0.074361309024217,"2":-0.12489748703765464,"3":-0.16437673680106943,"4":-0.00020800652963981196,"5":-0.02535421303277376,"6":0.11466348899875017,"7":-0.0282813967750415,"8":0.007721404349143482,"9":0.0030726833097511246,"10":0.12322520705598446,"11":-0.26359612417183326,"12":-0.0698976708312374,"13":-0.0062175385737689905,"14":0.008157343323975098,"15":-0.06926040639935022,"16":-0.13467762514177367,"17":0.11436969992272335,"18":0.12202814603578517,"19":0.08316773425214,"20":0.16205409195581688,"21":-0.15711876720929283,"22":0.08446946504562425,"23":0.01110338128029984,"24":0.04459751421790379,"25":0.17864764250381227,"26":0.07790495145190499,"27":-0.12296916042924011,"28":0.14069953950372924,"29":-0.07819084971602595,"30":-0.11706748139331323,"31":-0.19564482633665778}},{"sx":1,"sy":1,"depth":32,"w":{"0":-0.1596337861606685,"1":0.08637276798024343,"2":0.019254369370231283,"3":0.17585977266140265,"4":-0.07877289701939667,"5":0.20300793546257043,"6":0.08376831521730242,"7":-0.18956515113047823,"8":0.03430312912303555,"9":0.12355329452650374,"10":0.20320390137348857,"11":0.09527107778477921,"12":0.018407000410335835,"13":0.25647667809076824,"14":0.058581330896929004,"15":0.13158532295545702,"16":-0.07052517227727394,"17":0.06623185988611159,"18":-0.1413881985636386,"19":-0.058271461840654064,"20":-0.08749866615915612,"21":0.02027330048018443,"22":0.07014366339933466,"23":-0.21357525788282772,"24":0.006498724010627544,"25":-0.16617987359514252,"26":0.05021700381554017,"27":-0.0635759599158198,"28":-0.16020209056182597,"29":-0.0012001631304106159,"30":-0.13433283847286467,"31":-0.009950194777463133}},{"sx":1,"sy":1,"depth":32,"w":{"0":0.050182165348036475,"1":0.1886614787245437,"2":-0.030318693852785624,"3":-0.185158358178548,"4":-0.0756674507731485,"5":-0.002412246997097084,"6":0.05225717941952204,"7":0.0005257120754182435,"8":0.036532376086731634,"9":0.09630745410668541,"10":-0.014562905958452143,"11":0.17765282538617413,"12":0.02981512626060496,"13":0.097047225966231,"14":-0.024560422063588633,"15":0.1663121529919929,"16":0.007276068157647617,"17":-0.08901243634738766,"18":0.07227937649793517,"19":-0.05650740044701084,"20":0.011520363428851776,"21":0.02709604668801999,"22":-0.01002839270243581,"23":-0.11564037519943271,"24":-0.03306352244804325,"25":-0.012154030508362059,"26":-0.21084211991599236,"27":0.11450533618860383,"28":0.14038374117177888,"29":-0.03727998755845991,"30":-0.12710299377295176,"31":-0.08676425440325353}},{"sx":1,"sy":1,"depth":32,"w":{"0":-0.2995036124764287,"1":-0.05830429638974475,"2":-0.05163072618955245,"3":-0.10111108393756967,"4":0.024415645481764985,"5":0.163919177758712,"6":-0.12770227056522984,"7":-0.030270576849133576,"8":-0.19123671103459158,"9":0.05082324761727225,"10":-0.10191519000253861,"11":0.058065274066696725,"12":0.10135637548155423,"13":0.03228313779893132,"14":0.03371225224535047,"15":-0.04699595690811839,"16":-0.010689953801068503,"17":-0.11110291513184234,"18":0.006361218039284371,"19":-0.09936463706666566,"20":0.03765407577316027,"21":0.08806043559603811,"22":-0.13060556810219456,"23":-0.08170209442316317,"24":-0.1187454830692084,"25":0.09984876269303215,"26":-0.014695372163366865,"27":-0.05751632497794056,"28":-0.10369457606857795,"29":0.021865560648868,"30":-0.16516108531376825,"31":-0.13635370744176706}},{"sx":1,"sy":1,"depth":32,"w":{"0":0.12674644048362335,"1":0.17591235915121836,"2":0.04018741783366861,"3":-0.13862160652298808,"4":-0.14070637635730537,"5":-0.01588014523912437,"6":-0.02297687091331249,"7":-0.21280846835013092,"8":-0.08620731338925912,"9":-0.00472983904054853,"10":-0.19159796269989143,"11":-0.0038190441303754944,"12":0.08351785163256556,"13":0.1498601829434546,"14":0.032328852380664096,"15":0.02730911800950261,"16":0.07323042880655473,"17":-0.02353697792648264,"18":-0.1271847642057369,"19":0.0610637871638924,"20":0.06558488572512515,"21":-0.12730249367782084,"22":-0.02939074311955754,"23":-0.0602669468360521,"24":-0.12468696510300263,"25":0.009170140841585801,"26":0.1138557293245868,"27":-0.02720593369525108,"28":0.004643992856965243,"29":0.07421673339926818,"30":0.03560806998450915,"31":-0.02787241587352647}},{"sx":1,"sy":1,"depth":32,"w":{"0":-0.012699470164305964,"1":0.13028293888921252,"2":0.036980447460943755,"3":-0.07746629360578239,"4":-0.01232674005271386,"5":0.04302212829330285,"6":0.19502669040992707,"7":0.11489300420606895,"8":-0.03627909883652431,"9":0.08058401914716481,"10":-0.05548531016893488,"11":0.08372704844033736,"12":-0.017193896052827527,"13":0.16090085698226245,"14":0.11523999629505445,"15":0.21671772048155202,"16":-0.0757568967320147,"17":0.2442963483299395,"18":-0.09716993184013323,"19":0.01646356090527326,"20":-0.05508941481019517,"21":-0.10603078087278903,"22":-0.12813898494160234,"23":-0.1686970233355307,"24":0.15298400781603458,"25":-0.009306304943271556,"26":-0.08058445679135824,"27":-0.10112319073587506,"28":-0.18286973255095468,"29":0.003886623471568623,"30":0.19848611980481046,"31":0.0028537802831954807}},{"sx":1,"sy":1,"depth":32,"w":{"0":0.09617647969647024,"1":0.09201981535731903,"2":-0.14546160780585748,"3":-0.1564175122483264,"4":-0.11979157111473379,"5":-0.10003956753149429,"6":0.009142495709244415,"7":0.2289795516186423,"8":0.10262423271157008,"9":0.11134637299158383,"10":-0.05260641455862173,"11":-0.08103624531112419,"12":-0.13119741875108457,"13":0.12102044394148732,"14":-0.11198745487815702,"15":0.10134627726950358,"16":0.1275718681207584,"17":0.04858540742096106,"18":0.1928149972198782,"19":-0.02122600521504885,"20":-0.46225460675668933,"21":0.36477484336277044,"22":-0.07121489665971677,"23":-0.17573478920979888,"24":-0.04657655082210615,"25":0.20845869624159538,"26":-0.09493402954991652,"27":0.026950828969121272,"28":-0.18556140961917816,"29":-0.25177793731702525,"30":-0.11264825132060478,"31":0.0031635665425086526}},{"sx":1,"sy":1,"depth":32,"w":{"0":-0.09026311338637692,"1":-0.03201253504133256,"2":-0.04744118429435862,"3":-0.04800894009608633,"4":0.09174051224521688,"5":-0.03488526112615457,"6":-0.21987962602229788,"7":-0.0590844804646202,"8":0.073950748333092,"9":0.039924279420896484,"10":-0.15357945029818273,"11":0.00030434895489114746,"12":-0.14141259903345607,"13":-0.2243303312540387,"14":0.10162381546017142,"15":-0.06957486896621684,"16":0.23711063303348245,"17":-0.034352837804329704,"18":0.017029370953127683,"19":-0.1525401169685632,"20":-0.05893280341473709,"21":-0.10541005136376683,"22":0.20243850254475898,"23":-0.1455713361234728,"24":0.05969154141590218,"25":0.13913488326406714,"26":0.004514837007261017,"27":-0.04127895278858844,"28":0.0516919124509125,"29":0.07577242585939242,"30":-0.14587113904267368,"31":0.08043311075708465}},{"sx":1,"sy":1,"depth":32,"w":{"0":0.11501433540142962,"1":-0.24640663842207036,"2":0.08589826563418974,"3":-0.2984857309292306,"4":0.28382799417344523,"5":-0.006478713518045131,"6":0.08070890805866292,"7":-0.043281760827166664,"8":-0.15046711245054248,"9":0.023749147235952808,"10":-0.0077514921943657306,"11":-0.22041602653128767,"12":-0.1592944937535916,"13":0.07013439592889321,"14":-0.08505122119111093,"15":0.00776022297148587,"16":-0.07042366385274412,"17":-0.276573907441193,"18":0.03759031448252173,"19":-0.02243347199004947,"20":-0.019491126352138136,"21":-0.015956548584701625,"22":-0.1403831053400035,"23":-0.08996929597763706,"24":0.026107621802354413,"25":0.11841316323333062,"26":0.18562367561999338,"27":0.000797032909696878,"28":0.052893580371433706,"29":0.12755608907063948,"30":0.06489523903510111,"31":-0.10425255768499411}},{"sx":1,"sy":1,"depth":32,"w":{"0":-0.26086763543259717,"1":-0.1500906911811238,"2":-0.01020532798079431,"3":0.37927040883531876,"4":-0.18424726421783266,"5":0.006143915215612407,"6":-0.09144015578869034,"7":-0.3492668038552143,"8":-0.12475540243159915,"9":-0.06439584956612032,"10":0.09166974012486356,"11":0.15215088335416063,"12":0.2687204777631881,"13":0.14134853348634582,"14":0.06348681548192668,"15":0.02456516805159686,"16":-0.09102298364239865,"17":-0.38840143153727047,"18":0.07588144796612525,"19":-0.05653578557209632,"20":0.28813962512566416,"21":0.13897344734228356,"22":-0.05354688884799211,"23":-0.1129583476001927,"24":0.07663495821713957,"25":-0.3146549398103221,"26":0.05598808027949055,"27":0.2635661646346629,"28":-0.09045103221988689,"29":0.0648474528633528,"30":0.07617667274855565,"31":0.29584833413433415}},{"sx":1,"sy":1,"depth":32,"w":{"0":-0.021995748964071096,"1":0.03742210591886525,"2":-0.20258027689132535,"3":-0.028277374938484114,"4":-0.16246881252685655,"5":-0.015635661164816073,"6":-0.0023249048209071357,"7":-0.0035863104406647097,"8":-0.03266864695960479,"9":0.023989618098605815,"10":-0.17707084583912563,"11":0.01809164891938855,"12":-0.12373330755002965,"13":-0.0769820875297343,"14":-0.10551839681985069,"15":0.05370825391654743,"16":0.1611669772531234,"17":-0.032269105500139096,"18":-0.06061827556334199,"19":-0.19373611440799796,"20":0.10129799353859759,"21":-0.06652655486777997,"22":0.05334813857086275,"23":-0.19547194193714876,"24":0.0005486333075295602,"25":-0.016476695542934478,"26":0.00030544947868781764,"27":-0.08246281718299307,"28":-0.04870613478754874,"29":-0.0008917829106435435,"30":-0.005382730157634885,"31":0.1559249832977246}},{"sx":1,"sy":1,"depth":32,"w":{"0":-0.2291060549941859,"1":-0.10352985964697212,"2":-0.28528183063633855,"3":0.44337252933734417,"4":-0.10461904385306442,"5":-0.17727353227863968,"6":-0.22914235971794242,"7":-0.26116949561857894,"8":0.0051786763819920345,"9":0.07313945580319461,"10":-0.11531885752959055,"11":0.12163754360805379,"12":0.09455123561867108,"13":0.04554095936303874,"14":0.05658669922740714,"15":-0.2243431795943016,"16":-0.29329065659185327,"17":-0.2883258530762783,"18":0.17650422013257525,"19":-0.273403107895564,"20":-0.1912420639503577,"21":0.5066657923358443,"22":0.021762688786175807,"23":-0.18185584802793875,"24":-0.0217781329657139,"25":-0.12370949029142932,"26":-0.1267205354595329,"27":0.36201538005809186,"28":-0.06868658496401182,"29":-0.03247790768644357,"30":0.10757305566254663,"31":-0.019952118376051212}},{"sx":1,"sy":1,"depth":32,"w":{"0":-0.29391242105491433,"1":-0.07522058282013484,"2":0.2955212443249241,"3":-0.10524992099492476,"4":-0.1551242967772792,"5":0.03279722578557865,"6":0.01218196499311289,"7":-0.05388835766177921,"8":-0.03183103582613894,"9":0.140562805055225,"10":0.029468640232224813,"11":0.05036140553750927,"12":-0.023487515934384893,"13":-0.06742457927568604,"14":0.10698444853922659,"15":0.13557962108887872,"16":-0.19685707177849057,"17":-0.15014839267925498,"18":-0.09707848013799403,"19":0.06498741114629998,"20":0.18417805049486644,"21":-0.14104525838787388,"22":0.1689128836923983,"23":0.26305867311248676,"24":-0.15517463302067083,"25":0.13331895732779128,"26":0.1121640267761528,"27":0.10899024002416664,"28":0.13735562492519662,"29":-0.054252264563918254,"30":0.31688534879769953,"31":0.07295962651013489}}],"biases":{"sx":1,"sy":1,"depth":32,"w":{"0":0.10422951231534472,"1":0.039123936696040036,"2":0.07937268056800287,"3":0.11284857079694552,"4":-0.14006599534667424,"5":0.09876400371675034,"6":-0.2458992069961167,"7":0.10011019937639128,"8":0.08434338532749275,"9":0.10620451302084524,"10":0.1780502671524125,"11":0.04249701647126591,"12":0.04817977178910701,"13":0.09591524707058303,"14":0.07037114108743807,"15":0.008863903367019145,"16":0.09794346414308017,"17":0.12202397710631316,"18":0.14535166393179924,"19":0.12635162903264446,"20":0.1443580441558596,"21":0.11047031875098642,"22":0.10263052951007957,"23":0.09049547395685596,"24":0.0819116555935247,"25":0.15680408555508582,"26":0.09074153968044198,"27":0.0886407258670972,"28":0.4664791197073356,"29":0.10011097450044795,"30":-0.02418371997371838,"31":0.17730324267510306}}},{"out_depth":32,"out_sx":1,"out_sy":1,"layer_type":"relu"},{"out_depth":32,"out_sx":1,"out_sy":1,"layer_type":"fc","num_inputs":32,"l1_decay_mul":0,"l2_decay_mul":1,"filters":[{"sx":1,"sy":1,"depth":32,"w":{"0":-0.08872015199699684,"1":0.04315303457122133,"2":0.025771858761604375,"3":-0.14852069971128906,"4":-0.20098370162314838,"5":0.015433372236162103,"6":-0.06897451020170907,"7":0.023812771385678985,"8":-0.1587551243831995,"9":-0.09334744261698213,"10":0.1473413032994714,"11":-0.06992901761449621,"12":-0.022250183386194635,"13":-0.004978955483706038,"14":-0.1378914471513344,"15":0.0529389203723529,"16":-0.039772417054356045,"17":-0.09664473202706872,"18":0.003880430945981284,"19":-0.015973767844103152,"20":-0.03619818957518197,"21":0.19467649525987776,"22":-0.11816557213762853,"23":-0.006062668228878872,"24":-0.04073099137488148,"25":0.004807428133553037,"26":0.08525342341599318,"27":0.012491264159598737,"28":0.08956419059119616,"29":0.04444120068388408,"30":0.09062549482436921,"31":0.050670315453405536}},{"sx":1,"sy":1,"depth":32,"w":{"0":-0.08511156504915325,"1":-0.010506584604528899,"2":0.03334818461328451,"3":0.03413888724901335,"4":-0.14573091493808923,"5":-0.028717934174343592,"6":-0.3932661293555861,"7":-0.0345037522228245,"8":0.1157303342531474,"9":-0.028229404251592333,"10":0.14429134591326082,"11":0.10138841460645553,"12":-0.0037585873747900105,"13":-0.04387133350408471,"14":-0.017298135247951266,"15":-0.0015141675917616684,"16":-0.07313724875081508,"17":0.047843573980862,"18":-0.01339604289751752,"19":0.033206310494722245,"20":0.20380806618752564,"21":0.0014374159143501863,"22":-0.03908761401712505,"23":-0.018855104858924446,"24":-0.032588116199917715,"25":0.251546211943861,"26":-0.10473269832985549,"27":-0.026075867508237826,"28":0.20786007815713126,"29":-0.06777198040004673,"30":0.2504246505426663,"31":-0.2187248948115782}},{"sx":1,"sy":1,"depth":32,"w":{"0":0.15597731384229352,"1":-0.0214811060479937,"2":0.17045112576131677,"3":0.2880168343505725,"4":-0.024842404736084095,"5":0.2122804565025885,"6":-0.03112611196441448,"7":0.14881097708728766,"8":-0.21464234203344962,"9":0.06281339846603504,"10":0.03010622385324305,"11":-0.14520171514106253,"12":0.2864647161285266,"13":-0.00932097456127597,"14":-0.02406607761298602,"15":0.21636820589501785,"16":-0.1300150865155897,"17":0.07151965659170645,"18":-0.1127644145406329,"19":0.06802051417580555,"20":-0.16237671556480576,"21":-0.13712504386685118,"22":0.003721881888105312,"23":0.004228918960164121,"24":-0.09481669625410487,"25":-0.09380657265646067,"26":-0.1826320316701656,"27":0.048360587022464555,"28":-0.011274466378150771,"29":0.028614169777610266,"30":-0.12609484477403685,"31":-0.08573610938961829}},{"sx":1,"sy":1,"depth":32,"w":{"0":-0.08267886470343086,"1":-0.04548925469129069,"2":-0.17888192286946694,"3":-0.1261736550556818,"4":-0.04907829305746641,"5":-0.10794746791582827,"6":0.050847981922190325,"7":-0.02498934847925925,"8":0.02420819062301442,"9":0.12698901805448726,"10":-0.014257986961925373,"11":0.0994075406786114,"12":-0.062209089203383396,"13":-0.086184821025535,"14":-0.01950643405566292,"15":-0.00959311094850388,"16":-0.12194091718943252,"17":0.07910245486031191,"18":0.18276114568301532,"19":-0.10733148658300382,"20":0.10080720046494096,"21":-0.09115373472276078,"22":0.04009723916872863,"23":0.0123903911795458,"24":0.05702111984719791,"25":0.03658023611783704,"26":0.07959720004645049,"27":0.14073521723556012,"28":-0.08644544096278718,"29":-0.002030441740075991,"30":-0.3326283462097108,"31":0.03171527971786389}},{"sx":1,"sy":1,"depth":32,"w":{"0":0.015621480477435596,"1":-0.0005416104466614482,"2":0.031937687830231445,"3":-0.10034709019967511,"4":0.19709389622358586,"5":0.14890968626093753,"6":-0.07395438599634879,"7":0.12465805285296473,"8":0.1720515917181601,"9":-0.07448722754491552,"10":-0.11359559807908708,"11":0.15224533593413245,"12":-0.10857378758174938,"13":-0.09759378000386172,"14":0.026769445320930833,"15":-0.04488033589743918,"16":-0.0025490565241712278,"17":0.0008460738892058367,"18":0.1486669098582323,"19":0.050811984598298665,"20":0.007158018093966249,"21":0.08286726803410796,"22":-0.09697551134721209,"23":0.09980881277112275,"24":-0.21992186566321548,"25":-0.04180657353912572,"26":0.005484911399857811,"27":-0.06422209734997242,"28":-0.026558164195773584,"29":-0.03464528866355568,"30":0.05151373336598447,"31":-0.07990939992065499}},{"sx":1,"sy":1,"depth":32,"w":{"0":0.045684087181483944,"1":-0.21454853799045798,"2":0.007136924515383591,"3":0.08449868488670523,"4":-0.10773891357533122,"5":-0.07726839889319662,"6":-0.022458396805967066,"7":0.22186760068480005,"8":0.19129561304051557,"9":-0.027615006179573375,"10":-0.02452993075509697,"11":-0.15703242136623644,"12":-0.11179665597735589,"13":0.156802074764212,"14":0.09541006661718816,"15":-0.16538997826395388,"16":0.05594350070252177,"17":0.22165254661557357,"18":-0.1080835298179797,"19":0.030434262990093025,"20":-0.04182320743968706,"21":-0.00035470815966545064,"22":-0.14213521698606776,"23":0.023252620695100094,"24":-0.05320028256393497,"25":-0.059270454632963224,"26":-0.04638634381161357,"27":0.09161242035927136,"28":0.2931967912865307,"29":0.05882669691721512,"30":0.13620533115696956,"31":0.11814256012773804}},{"sx":1,"sy":1,"depth":32,"w":{"0":-0.12857042612095657,"1":-0.12060446893933202,"2":-0.023323727321021146,"3":-0.07400720164988478,"4":-0.15089947907849388,"5":-0.051691026409929126,"6":0.09058350693345399,"7":-0.14537157599492673,"8":0.007285111792790091,"9":0.03144732286324448,"10":-0.019025505250905954,"11":0.05263177218664405,"12":-0.055094791003038344,"13":-0.2199981717793712,"14":-0.011065301259628131,"15":0.009007076884280528,"16":0.1227519810286138,"17":0.025324808242930763,"18":-0.038192523960010744,"19":0.0188906493184363,"20":-0.07036546967244271,"21":0.009288534616379282,"22":0.052398342451421547,"23":-0.1052888554621515,"24":-0.14804918762032085,"25":-0.02385120693557775,"26":0.085948800576029,"27":0.059794670538440856,"28":0.18108041999664706,"29":0.012719886556499872,"30":0.14780468123810755,"31":-0.10474501780750477}},{"sx":1,"sy":1,"depth":32,"w":{"0":0.09808598648942887,"1":-0.2792400703957913,"2":-0.09603219457162498,"3":-0.07195271933296297,"4":-0.2034783179760998,"5":-0.036914578462313864,"6":0.12214185864245018,"7":-0.05672057043154208,"8":-0.036033698590336824,"9":0.217166356537822,"10":-0.11667242652667524,"11":0.04326890653477964,"12":-0.1461029788315728,"13":0.12482773984323013,"14":0.08539299104676298,"15":-0.30320265065922236,"16":-0.03470047950520869,"17":-0.022541253068327025,"18":-0.06624277501940816,"19":0.03158860845593197,"20":-0.2219047504215653,"21":0.035114028352381164,"22":0.04998323136712692,"23":0.05162780970459154,"24":0.055691503290184394,"25":-0.13200267452530748,"26":0.15748302707727255,"27":-0.07541945236863909,"28":0.04333772497461577,"29":-0.044326892507054474,"30":0.16401001229715922,"31":0.22628475776284887}},{"sx":1,"sy":1,"depth":32,"w":{"0":-0.21876278933778429,"1":0.031068847052135067,"2":0.027583412577774784,"3":-0.24094977686884578,"4":-0.1723865879849566,"5":0.03855393761273481,"6":-0.03336711752048011,"7":0.06326347451599713,"8":0.09950223162065962,"9":0.01779865901744493,"10":-0.060058213680894236,"11":-0.08108060122711597,"12":0.018127104940823757,"13":-0.1521025776494732,"14":0.05561990421008896,"15":0.019136908975235872,"16":-0.06455907448946888,"17":-0.052225264699344104,"18":0.17388767861412407,"19":0.013004908249688618,"20":-0.09785549080958413,"21":-0.015053714322418166,"22":0.02473251132776136,"23":0.1282416803808422,"24":0.12151145867503892,"25":-0.03721246773240546,"26":-0.10067825422919302,"27":-0.12516025885349516,"28":0.043727171159072015,"29":0.024931125761187386,"30":-0.27153437398616037,"31":0.050964197341109435}},{"sx":1,"sy":1,"depth":32,"w":{"0":-0.012632157630064618,"1":0.01640543244410843,"2":-0.07947313916709134,"3":-0.012809461333718783,"4":-0.11402559742415207,"5":0.08613711614825831,"6":-0.10095947635076578,"7":-0.09126059618528932,"8":-0.08526242174183593,"9":-0.01962725848248511,"10":0.011013528188617547,"11":0.11130675309384547,"12":-0.14241276881483933,"13":0.04711063846021811,"14":0.08783068315795502,"15":0.11338465828985053,"16":0.08131145397235302,"17":0.03362114283595061,"18":0.029582417317706354,"19":0.045732653559258256,"20":0.012666620541522646,"21":0.16552839947622708,"22":-0.00800721639990287,"23":-0.11496654351965532,"24":0.0685041600414724,"25":0.12039403919088054,"26":-0.04298266825895224,"27":-0.03422007716764472,"28":-0.10188590353147728,"29":0.08856527988778133,"30":0.14590995416349062,"31":0.014003804189210657}},{"sx":1,"sy":1,"depth":32,"w":{"0":0.09332152507030524,"1":-0.2153371979017276,"2":-0.08103537238944022,"3":0.0007456721874699188,"4":0.0777584517397587,"5":-0.1085449927644526,"6":0.12408958594623279,"7":-0.1599796728684404,"8":0.14695243756635673,"9":-0.2795229810714467,"10":-0.1552810682316006,"11":0.04552673190928644,"12":-0.001972745400720767,"13":-0.033982492519396876,"14":0.029534169329649473,"15":0.035732594320184254,"16":0.25258577161075807,"17":-0.0217720652683905,"18":-0.2553296690035917,"19":-0.09735510955436678,"20":-0.12784125433816013,"21":0.10096674311720066,"22":0.17922682683946245,"23":0.10510926222378017,"24":0.11301908938079917,"25":-0.11495413704374202,"26":0.09734604083657766,"27":0.3084282472314212,"28":-0.06284827319768538,"29":0.03809460220545989,"30":0.0010501028804885352,"31":0.0779737677384319}},{"sx":1,"sy":1,"depth":32,"w":{"0":-0.22134534221281044,"1":0.1338303732918565,"2":0.11481991272467414,"3":0.01786730858024021,"4":-0.048579881048693985,"5":-0.007362926318069081,"6":-0.09387868281104994,"7":-0.03368002094712566,"8":0.1341081691764346,"9":-0.18873472892516951,"10":-0.03478862100574419,"11":-0.15776664402092308,"12":-0.2011887068615173,"13":0.07357717142176701,"14":-0.018153960613039945,"15":0.06742682811561328,"16":-0.07245874152618127,"17":0.011913611879338341,"18":-0.1976135280493981,"19":0.019386935641027666,"20":-0.07873922587480654,"21":0.14596521127012665,"22":0.09591620754717807,"23":-0.028201128349147866,"24":0.1001922708209546,"25":0.10090817948642458,"26":0.025230023618282197,"27":-0.1293186135004644,"28":-0.08873014918457243,"29":0.0028263811006004605,"30":-0.035040838261569826,"31":-0.043992400879333184}},{"sx":1,"sy":1,"depth":32,"w":{"0":0.048148738692521086,"1":0.0404302444165533,"2":0.08656819699894854,"3":-0.10616749088376816,"4":0.006415030801233026,"5":-0.03703020405364381,"6":-0.2073896394740733,"7":0.0473973869593461,"8":-0.08138277233643472,"9":0.09893711241609444,"10":-0.03370953621076933,"11":-0.26028928763850484,"12":0.07603591446929402,"13":0.027731565608771273,"14":-0.12515082603178312,"15":0.09118055802041546,"16":0.20187815436845966,"17":-0.09501076674933773,"18":-0.06151066349978135,"19":0.10308768812983835,"20":-0.020709282103296697,"21":-0.04247645670417301,"22":-0.051923481017033986,"23":0.029386304005660214,"24":-0.12964278677130223,"25":-0.026200704656435897,"26":0.030079913393085952,"27":0.13081548493566772,"28":-0.18950464640385312,"29":-0.015480944198849392,"30":-0.08620471462271874,"31":0.03894624743837072}},{"sx":1,"sy":1,"depth":32,"w":{"0":0.02487726417063787,"1":0.10350631357820979,"2":0.16305529451818224,"3":-0.02229835450481838,"4":-0.0925482302809396,"5":-0.1335588454709687,"6":-0.114233331510631,"7":0.1112938929287082,"8":-0.06601562638367199,"9":0.01987059961434754,"10":0.21406211393546984,"11":-0.16481672424891738,"12":-0.0029122321708541427,"13":-0.1264887769765619,"14":0.0250872453079912,"15":-0.1685614053152762,"16":-0.11500774019202986,"17":-0.03290000641375869,"18":-0.04870527609864773,"19":-0.12371900699101392,"20":0.05699204239881215,"21":0.017621986547159036,"22":-0.03446776151853557,"23":0.1197459243783868,"24":0.21894247325902794,"25":-0.15592298329359072,"26":0.02297139637562427,"27":-0.018093475333399386,"28":0.180714756137501,"29":-0.08338046917167223,"30":-0.12086526169019929,"31":-0.07509853208963665}},{"sx":1,"sy":1,"depth":32,"w":{"0":-0.03686661164339937,"1":-0.3067375592679414,"2":0.019229391433011733,"3":-0.021471034092382917,"4":0.03326819659279762,"5":-0.038232423487199435,"6":-0.05301295980665385,"7":0.13076288634235517,"8":-0.054045867186001545,"9":0.010327841435493377,"10":0.0853525815110696,"11":0.18734101924421803,"12":0.11130865927593285,"13":0.0401844178561853,"14":0.09399551977245765,"15":-0.017061262301522297,"16":-0.006115876775158429,"17":0.0455130230157496,"18":0.317954813147233,"19":0.15082212692275804,"20":0.009157232361876166,"21":0.15562694295551435,"22":-0.03283460528831383,"23":-0.04869126334115907,"24":-0.1536967755110103,"25":-0.06377182779364045,"26":-0.06800879834955584,"27":0.03782267090043641,"28":-0.1808288767571606,"29":0.03473893236310365,"30":-0.11822043326149798,"31":-0.1959404908003509}},{"sx":1,"sy":1,"depth":32,"w":{"0":-0.061589115454310533,"1":0.24929425279453624,"2":0.06888374315854084,"3":0.17403208784735494,"4":0.07356734107731368,"5":0.13567851809918724,"6":-0.07385985924148492,"7":0.16673313382900007,"8":0.08327729890173963,"9":0.04797428627290354,"10":-0.025112485520576665,"11":0.02408927635335067,"12":0.07377273093506446,"13":-0.23965329318154527,"14":0.10800734533774922,"15":0.12483153636169375,"16":-0.0590205381122706,"17":0.15123328534490746,"18":-0.09571610943439571,"19":0.13652139293138604,"20":0.06663720051698756,"21":-0.06202594560282097,"22":-0.11128790126295239,"23":-0.11471684445956304,"24":0.05633782367470474,"25":0.2049956808419956,"26":-0.015545370351945673,"27":-0.030624179936318732,"28":-0.0291228505214872,"29":0.010350731666515428,"30":-0.0912721819056776,"31":-0.30069544899757705}},{"sx":1,"sy":1,"depth":32,"w":{"0":0.08171031912524111,"1":0.04863468525325315,"2":-0.007592162928213777,"3":-0.03395048026307597,"4":-0.178017471476761,"5":0.06836244631769633,"6":0.08110438670949166,"7":0.09201796384283838,"8":0.008042295409482954,"9":-0.010903363581037329,"10":0.043777517330064276,"11":-0.11848306704487226,"12":0.15302155406881154,"13":0.12044206515906106,"14":0.07484947171907819,"15":0.018873700863895174,"16":-0.05009268952736138,"17":-0.031912291454857855,"18":0.06920348416861045,"19":-0.020858396717955086,"20":0.1487224673334778,"21":-0.04213857612159431,"22":-0.03690220113671599,"23":0.02389446173940639,"24":0.12121573794105371,"25":0.1347220560952606,"26":0.07867601206513092,"27":0.016381942220876414,"28":0.005500307774962029,"29":-0.02119097960233696,"30":0.11739707615919306,"31":-0.09053685743108845}},{"sx":1,"sy":1,"depth":32,"w":{"0":0.059883425717910437,"1":-0.13896482456621245,"2":-0.1386140839329691,"3":-0.10613261096035817,"4":0.03531702025698471,"5":-0.07548303972543036,"6":-0.09914726087843109,"7":-0.06023049852559781,"8":-0.03527947677585467,"9":0.074640960042358,"10":0.09245707449443175,"11":0.059952132173513896,"12":-0.05527142325247461,"13":0.05756736280070121,"14":-0.12438340921758333,"15":0.11164237112359457,"16":-0.11839101529948888,"17":-0.009919538765554143,"18":-0.08015096701647609,"19":0.1722700788992941,"20":0.02487550570414092,"21":0.12646808497096865,"22":-0.1333364036470734,"23":-0.04059502766794984,"24":-0.03876867825817009,"25":-0.08914539578182476,"26":-0.050409151829076654,"27":-0.05748204609358766,"28":-0.08847035713165634,"29":-0.033627655258584965,"30":0.0627545246187364,"31":-0.010549959892116415}},{"sx":1,"sy":1,"depth":32,"w":{"0":-0.0552287230014078,"1":-0.17267150997108616,"2":0.022728795068764757,"3":0.06389714474658334,"4":0.1265914110438879,"5":0.05229832791511548,"6":0.3651479696974761,"7":0.0033864201349129127,"8":-0.04956438314657066,"9":-0.25790076450076554,"10":-0.05690164240851778,"11":0.0015076224835526735,"12":0.1118461613716862,"13":0.06605014418330094,"14":-0.0809000979729884,"15":-0.014516416873388125,"16":0.15958723231350583,"17":-0.06779629342357797,"18":-0.026493022810605258,"19":-0.14084507494910659,"20":-0.17038705441421084,"21":0.01066662357970335,"22":-0.06475365631064592,"23":0.050982562712862986,"24":0.14734056141990073,"25":-0.3053776018625916,"26":0.0682519201723475,"27":-0.16511259530989053,"28":-0.11020716995997018,"29":-0.06914614178760937,"30":0.061723667171984624,"31":-0.0976833830967586}},{"sx":1,"sy":1,"depth":32,"w":{"0":0.04317970784515857,"1":0.1397502928018058,"2":0.08294451618537134,"3":0.025149201799085155,"4":-0.3480485597484791,"5":0.03000984057398699,"6":0.136341552049777,"7":0.0978273132953295,"8":0.014214394967816997,"9":-0.025505656215201157,"10":-0.009096770424153662,"11":-0.04795611479940797,"12":0.033738210669782054,"13":-0.13003569112477906,"14":-0.2476964126915757,"15":-0.15470357892441908,"16":0.0958245842974708,"17":-0.03573738263283427,"18":0.028958680677109324,"19":0.001713641856753992,"20":-0.10759386400455133,"21":-0.029656518956562062,"22":-0.014998754890407919,"23":-0.09791313890482345,"24":-0.01026181887488297,"25":-0.023617131782585527,"26":-0.131477100967797,"27":0.0421443520471251,"28":-0.0986666412827731,"29":0.16117043520485996,"30":0.2385472714636081,"31":0.1460109293727934}},{"sx":1,"sy":1,"depth":32,"w":{"0":0.02443737328054945,"1":0.18254967254339138,"2":0.08673922236873942,"3":-0.16371274729898327,"4":-0.13111574329172163,"5":-0.15871276787947125,"6":0.10615813878046047,"7":0.0887819321763652,"8":0.035555732782822785,"9":-0.11539470202579268,"10":0.03706035162096449,"11":-0.10174280691872253,"12":-0.1765067441304561,"13":0.1836071368088613,"14":-0.026777402748633862,"15":0.016670101708222116,"16":-0.04498819208201239,"17":-0.052221342601729885,"18":-0.149974434062002,"19":-0.0034716988477455544,"20":-0.11028633194082714,"21":-0.04621084550390048,"22":0.0839273688349249,"23":-0.015052847892744775,"24":0.00949476851702377,"25":0.04669537956625765,"26":0.1522975721621541,"27":0.007765030918267124,"28":0.1031827235033547,"29":-0.07455147353417706,"30":0.013146112320135192,"31":-0.06561538485473675}},{"sx":1,"sy":1,"depth":32,"w":{"0":0.019619455160212185,"1":0.06123226940797353,"2":-0.030828489886490593,"3":-0.01894430951762537,"4":0.06405922812968809,"5":-0.08904791862472199,"6":-0.2603898365960322,"7":0.031442780405727615,"8":-0.07034072464636842,"9":-0.0033440318214190486,"10":0.1546795319904576,"11":-0.035905954234308285,"12":-0.09110513190981087,"13":0.048002176038160704,"14":0.18504468575957617,"15":0.36602690226145984,"16":-0.12612936032233654,"17":-0.023744579625837196,"18":0.16980065443778763,"19":0.028435625305172917,"20":-0.18233707709014774,"21":0.028582581181275515,"22":-0.04910477788725295,"23":0.015099894253990977,"24":0.148695588971816,"25":-0.18814531494201536,"26":0.19101566582131957,"27":-0.13078487131359107,"28":-0.19256381895774055,"29":-0.03267771550658326,"30":-0.0862536385912884,"31":0.10853017587091816}},{"sx":1,"sy":1,"depth":32,"w":{"0":0.0666915199998388,"1":0.028476648545676123,"2":-0.20825632964173676,"3":-0.15253693227971682,"4":0.06577050112774789,"5":-0.10099154835615048,"6":0.04771050373982259,"7":-0.25381660010426976,"8":0.18558649934396745,"9":-0.0834954682446921,"10":0.06741189287273265,"11":-0.03774401511248669,"12":-0.10361071048095434,"13":-0.057920312118934364,"14":-0.18718268752081382,"15":-0.09321334281934937,"16":-0.0037607708935125414,"17":0.058800921098749515,"18":0.0005859153935542557,"19":0.007668941043245576,"20":-0.04926005675196816,"21":0.1261050131725374,"22":-0.1012534243439868,"23":0.0009190837895864885,"24":-0.25894399432747645,"25":0.003005776313367648,"26":0.03967786655593675,"27":0.1765601378199112,"28":0.10325512846828391,"29":0.07810499765737668,"30":0.003954663828168116,"31":-0.025283313036173642}},{"sx":1,"sy":1,"depth":32,"w":{"0":-0.020335367444333913,"1":0.0637900199983385,"2":0.10428215696901914,"3":0.30827583915763956,"4":0.2070043503644418,"5":0.19767116116109876,"6":-0.05776855766360655,"7":-0.03978800215720246,"8":0.14727202428236658,"9":0.09231166658741057,"10":0.00230778752190377,"11":-0.20568441605123478,"12":0.09609337540717704,"13":0.09732972899610774,"14":-0.05981821452191318,"15":-0.04551328086360943,"16":-0.29578881405893404,"17":-0.01257860065739891,"18":-0.052094340292550216,"19":-0.04356954481998291,"20":0.07150219062655594,"21":0.02394063862770239,"22":0.06014759269681931,"23":-0.13100396710802567,"24":0.02878406215575224,"25":-0.11198274988223002,"26":-0.0360705172450615,"27":-0.06205814919718197,"28":-0.17347017040432397,"29":-0.009813853679016445,"30":-0.12002661013409649,"31":0.028594419424374927}},{"sx":1,"sy":1,"depth":32,"w":{"0":-0.10078514670748646,"1":-0.09115749055451554,"2":-0.22059051219475764,"3":-0.09060859066715314,"4":-0.037029620555843676,"5":-0.06539878122743824,"6":-0.13282253456339646,"7":0.0010081618474356109,"8":0.12721560741319754,"9":-0.0907303544561176,"10":0.08544914766103401,"11":-0.008210717116757412,"12":0.08595582550669761,"13":-0.18499830204764925,"14":0.041733892808797635,"15":-0.013535652091374363,"16":-0.15013812029095144,"17":-0.02268507388201057,"18":0.06467522483712702,"19":0.0397723308337228,"20":-0.16876880770051347,"21":-0.04648129760531385,"22":0.010920350133116319,"23":0.00031168363058650726,"24":0.05917458269522454,"25":-0.1204479553001486,"26":-0.021273927190980986,"27":0.022346478418098198,"28":-0.12497520058900906,"29":-0.020404970076471348,"30":-0.007501081202857351,"31":0.1943936891302341}},{"sx":1,"sy":1,"depth":32,"w":{"0":0.11151215363749531,"1":0.19870896656833253,"2":0.06139929636069241,"3":-0.2667797259074869,"4":0.0822593554535069,"5":0.008133934698649141,"6":0.04433926266332413,"7":-0.010717594543897414,"8":0.07378169070076764,"9":0.2853005608277155,"10":0.06699830167907302,"11":0.11872317830711582,"12":-0.11050066979243252,"13":-0.007976338543201546,"14":-0.18990207409726306,"15":0.036209889275545595,"16":-0.059955558147841086,"17":0.0898297521823452,"18":0.17941545970568745,"19":0.07758101239374654,"20":-0.034496658510234555,"21":0.1074171544996349,"22":-0.16315934458911682,"23":0.0835875985197416,"24":-0.04029552199216841,"25":-0.04600629565498746,"26":0.06211502833135252,"27":-0.08994094568347723,"28":0.09322538121179244,"29":-0.010038543876304599,"30":0.2924595986441923,"31":0.0669828626029503}},{"sx":1,"sy":1,"depth":32,"w":{"0":-0.03446175844333384,"1":-0.06236503401625712,"2":-0.06254864043479542,"3":-0.17735052819262007,"4":0.06551816819738344,"5":0.004450913776452196,"6":0.21026830648113884,"7":-0.04700956085074908,"8":-0.21474903421932964,"9":0.0318901793048601,"10":0.044585397110877875,"11":0.1120611852201287,"12":0.012623764928145681,"13":-0.029343132555955272,"14":0.24611023057749445,"15":-0.1070100635064457,"16":0.16989629084901225,"17":-0.2196257728367991,"18":-0.1856958469122898,"19":-0.027381536287349934,"20":0.03551600730390682,"21":0.16253895219510156,"22":0.029533854595414716,"23":-0.1181143705278782,"24":0.031067845450632875,"25":-0.1716492923646736,"26":0.061541039750047655,"27":-0.0337536208846698,"28":-0.0807175288486762,"29":0.03793315891905905,"30":-0.02562421876158136,"31":-0.11956702435760981}},{"sx":1,"sy":1,"depth":32,"w":{"0":-0.033287417179661966,"1":0.010235482625300203,"2":0.04904037389416492,"3":0.1253973356552571,"4":-0.053675967918499504,"5":0.10808862630823546,"6":0.13712757487362864,"7":0.060752561557296546,"8":0.006772462678774542,"9":0.011731979221956608,"10":-0.08876268965203032,"11":-0.11230165064140535,"12":0.08067075292930799,"13":0.1497383803317562,"14":0.21552447714780593,"15":0.10211712151601826,"16":-0.09136046192050526,"17":-0.09086204459161532,"18":0.03971772783639633,"19":-0.02450464391133258,"20":0.04643545375944789,"21":0.11216024618401563,"22":0.03756269628786846,"23":-0.040201092057074554,"24":0.13221698545700544,"25":-0.1911125516200218,"26":-0.004047412901686744,"27":-0.05313916294240869,"28":-0.13957115066642709,"29":0.014207292277375327,"30":-0.11498354522778292,"31":0.14316933950682095}},{"sx":1,"sy":1,"depth":32,"w":{"0":0.03792575338620501,"1":0.0432050511916632,"2":0.18796717600754126,"3":0.08791076027340355,"4":0.0375712936607486,"5":0.008267728917509112,"6":-0.2679104574470738,"7":-0.13652173164750075,"8":-0.30212551983137614,"9":0.007899620384916692,"10":0.04262715150791293,"11":-0.009009184791010129,"12":0.20959291782630846,"13":-0.035035434973658644,"14":0.23319516323026576,"15":-0.10169914608314859,"16":0.0188288622612504,"17":0.0513556337281523,"18":0.13185365738602822,"19":0.028295031912815495,"20":-0.00971706999438101,"21":0.21997600248133228,"22":0.0404192306334676,"23":0.16629383403580286,"24":0.016867240592827126,"25":0.05202588228424977,"26":-0.20383810277624118,"27":-0.06292317130305633,"28":-0.09253264575936333,"29":0.1489725616006648,"30":0.02826462503713237,"31":0.021373793378532683}},{"sx":1,"sy":1,"depth":32,"w":{"0":-0.08539533432342887,"1":-0.03647994665765511,"2":-0.029782854651518906,"3":-0.05684162211208745,"4":-0.066622612121185,"5":0.015969662251480624,"6":-0.06264095491402735,"7":0.0517676260198174,"8":0.000530019945474435,"9":0.15308126827017082,"10":-0.044180360982953734,"11":-0.07881907029190269,"12":0.006858604009961876,"13":-0.1251469045412933,"14":-0.06760874006298546,"15":0.14889542246549897,"16":0.055715260445635864,"17":0.0413971276330633,"18":0.3177707223336344,"19":-0.07042576735676728,"20":0.09497656446230997,"21":-0.002597846480038988,"22":-0.08602629637475057,"23":0.053352785650456036,"24":-0.07731737126453939,"25":0.005139968257673976,"26":0.14064556126257938,"27":-0.10699973857389189,"28":0.11271311049845058,"29":-0.1951379777031307,"30":-0.048353808667970836,"31":-0.08635001142544244}},{"sx":1,"sy":1,"depth":32,"w":{"0":0.03747572740596535,"1":-0.0731012572118037,"2":-0.07413706477578025,"3":-0.036953850767633425,"4":-0.02849350837293396,"5":-0.0018074218062825679,"6":-0.04395399051444624,"7":-0.06505919678309804,"8":0.04593347637882005,"9":0.08217272494779176,"10":0.08573378896090572,"11":0.21832278569919433,"12":0.012206155343768106,"13":0.11933421630892226,"14":0.022324021380503187,"15":-0.07639803355104245,"16":-0.0015773681934985273,"17":0.034666949132871404,"18":-0.10767654328654601,"19":0.05465656036973571,"20":0.10395462060229899,"21":-0.016739422662243396,"22":0.13002678622098499,"23":-0.03182400776802246,"24":0.0294935618503962,"25":-0.012562574731683247,"26":0.08582247948298173,"27":-0.01875469512254966,"28":-0.13163100963538973,"29":0.024934608873010407,"30":-0.0909160615333409,"31":-0.04252082503988775}},{"sx":1,"sy":1,"depth":32,"w":{"0":0.22455115226020725,"1":0.14091803442600134,"2":-0.022484708636271,"3":-0.1228981839142027,"4":-0.11680564583646495,"5":-0.015129108990235906,"6":-0.16469018181526013,"7":0.08179914032842076,"8":-0.11433500541649441,"9":-0.020322009091595716,"10":0.14297446630755012,"11":0.0035780694623436236,"12":-0.14117462120896254,"13":0.10951358106469145,"14":-0.12258922937537238,"15":-0.15773611924324296,"16":0.1079807556384932,"17":0.04209095123197016,"18":-0.07216505131409212,"19":-0.12792671349066279,"20":-0.003809315087479276,"21":0.027920826671039893,"22":0.09353524875766188,"23":-0.041404360763783225,"24":0.06589580723675652,"25":-0.08817104049475878,"26":-0.05183492483419961,"27":-0.13897588957715348,"28":0.07174985028847226,"29":0.11136131382514486,"30":0.08946808803169906,"31":-0.18480922637132635}}],"biases":{"sx":1,"sy":1,"depth":32,"w":{"0":0.3295330332016742,"1":0.23709724578171493,"2":0.11399216794612879,"3":0.2802273298612991,"4":0.04651446248055287,"5":0.3859949053367395,"6":0.2697491469579712,"7":0.18640726184089257,"8":0.1307166009451363,"9":0.06314481632357237,"10":0.05598072499634185,"11":0.2607766573008134,"12":0.0908483072684162,"13":0.33463246263071866,"14":0.09971703279583914,"15":0.08142797823166445,"16":-0.047751428210819215,"17":0.08435615086858068,"18":-0.2333673260524265,"19":-0.0935775216404828,"20":0.06849405836461335,"21":0.05813869130365582,"22":0.024450900825543236,"23":0.05170060207769395,"24":0.13629055473821125,"25":-0.2549538666687642,"26":-0.1171861083489917,"27":-0.15000284469105235,"28":0.07128469445549704,"29":0.09659518245227226,"30":0.10045355236017253,"31":0.25084884798243484}}},{"out_depth":32,"out_sx":1,"out_sy":1,"layer_type":"relu"},{"out_depth":32,"out_sx":1,"out_sy":1,"layer_type":"fc","num_inputs":32,"l1_decay_mul":0,"l2_decay_mul":1,"filters":[{"sx":1,"sy":1,"depth":32,"w":{"0":-0.08193380638962613,"1":0.09895128914256494,"2":0.009425758875574905,"3":0.04181961841151597,"4":0.005483568474389798,"5":-0.025418437969278583,"6":-0.09597290870547952,"7":-0.019189960864744504,"8":0.2725529324254686,"9":-0.09899384779221046,"10":0.10958507819958899,"11":0.008503916042415327,"12":-0.08933143712712126,"13":0.15187969484769845,"14":0.054640846481315015,"15":-0.047500006236726046,"16":0.0999342131406661,"17":-0.021160338726731058,"18":-0.0284234571912807,"19":-0.13596830783676353,"20":-0.013563455508497614,"21":0.1309337029741311,"22":0.05670015548185038,"23":-0.12601975070658725,"24":-0.012852646051676206,"25":-0.027110046016380018,"26":-0.05598695011406984,"27":0.20184772886949826,"28":-0.20034953111396037,"29":0.15148925346456285,"30":-0.13367408891290006,"31":-0.03887481549925841}},{"sx":1,"sy":1,"depth":32,"w":{"0":-0.08982333514189618,"1":-0.08574311146422048,"2":0.05420498311595185,"3":-0.021408382935661583,"4":0.056640158472840124,"5":-0.07342691691350067,"6":0.020978259031325937,"7":-0.18972577052249917,"8":-0.010057700835476665,"9":-0.17244311870590884,"10":-0.03845218335261415,"11":-0.09519803915861853,"12":-0.009433154121962925,"13":0.007091734073554399,"14":0.19083819016701534,"15":0.08628931982334932,"16":0.021661471854472092,"17":0.09360565926280427,"18":0.013053395236146431,"19":-0.12197854677192155,"20":0.0488500560889947,"21":0.037366692956530785,"22":-0.19492817963321799,"23":0.05949650763829189,"24":0.11445352413537305,"25":-0.055358441553460425,"26":-0.03181698453736824,"27":0.10921043334976903,"28":-0.25829969974162464,"29":0.2259163689330918,"30":-0.0759441038680643,"31":0.037859658794651405}},{"sx":1,"sy":1,"depth":32,"w":{"0":-0.051347096757114206,"1":0.20476426567502728,"2":-0.14560265386798188,"3":-0.16122165291737128,"4":-0.19257716684001996,"5":-0.0838926946976691,"6":0.02502787299094426,"7":0.224527067466209,"8":-0.006542040282208903,"9":0.20684707486556386,"10":-0.17982901128413892,"11":0.015500840502426913,"12":0.06837277674182633,"13":-0.04571866876048123,"14":0.11929284853454998,"15":0.0037539054841990663,"16":-0.04287864921219809,"17":-0.006391123195553142,"18":-0.077797876211099,"19":0.09887852535365556,"20":-0.10671183333396941,"21":-0.008410079051471684,"22":-0.20598155940811091,"23":0.035874757864311324,"24":-0.0025778698942229296,"25":-0.029681517442844065,"26":-0.04293201495574052,"27":0.01407679240024653,"28":0.04278583421025193,"29":-0.15255597233759824,"30":0.1161744691114245,"31":-0.008075539404272705}},{"sx":1,"sy":1,"depth":32,"w":{"0":-0.20459977913806912,"1":0.16250769525027925,"2":0.06789122721648971,"3":0.01315742684966843,"4":0.04318309997906985,"5":-0.06796292040564804,"6":0.02234646063701304,"7":0.16489269030804776,"8":0.23096206168663125,"9":0.15942971976169715,"10":-0.1894497807157419,"11":-0.23519804718199927,"12":0.046414629369813526,"13":-0.14334175571273403,"14":-0.024983358105045903,"15":-0.1378364389189307,"16":0.01077006148646743,"17":-0.11673113847801006,"18":0.042688730514217336,"19":-0.30689794210253146,"20":-0.105017248226396,"21":-0.06787809330762375,"22":-0.05244190431408968,"23":0.04859108410054267,"24":-0.027122347077570726,"25":0.13409834931821285,"26":0.13885306364364852,"27":0.265825968776738,"28":0.1711494088396259,"29":0.0026795803034909927,"30":-0.1341172536363836,"31":0.07277244832644973}},{"sx":1,"sy":1,"depth":32,"w":{"0":0.10479778251379693,"1":0.029623381958264475,"2":-0.005648647610175201,"3":0.08896434957026464,"4":-0.02688452986770681,"5":-0.023998670324607348,"6":0.09769680881062107,"7":0.03193400564599119,"8":-0.07267660838259248,"9":-0.00025210599151951566,"10":-0.02160950974313628,"11":0.14770457265533304,"12":-0.07953276774061718,"13":-0.08720749933413988,"14":-0.11406495360752371,"15":-0.28718416769279564,"16":0.033853761373815884,"17":-0.0704782352578765,"18":0.16361300828792516,"19":-0.041266611496782166,"20":-0.005458171350962793,"21":-0.14043766527172047,"22":-0.034578354649161036,"23":-0.02452317083227976,"24":0.007818626301512597,"25":-0.11269766305521965,"26":-0.002571824117339866,"27":-0.1431703535138277,"28":0.06727331324844553,"29":-0.06146848323823615,"30":-0.11352491238205573,"31":-0.09939857329286081}},{"sx":1,"sy":1,"depth":32,"w":{"0":0.010607626235756605,"1":0.019302519283322335,"2":-0.058437424887268066,"3":0.09197008806502034,"4":0.07759608661454087,"5":-0.0975645019356833,"6":-0.14174091238037623,"7":-0.14390743905394301,"8":-0.07194366633311702,"9":0.08703710012791877,"10":-0.05156013725137519,"11":-0.139398218082258,"12":0.101300483596998,"13":-0.15696377343270143,"14":-0.04628908318769376,"15":0.17400278414767262,"16":0.1286514296647986,"17":0.02375869652056086,"18":-0.07486778250708587,"19":0.13232627437542213,"20":0.15682875328519913,"21":0.018730657867433262,"22":0.08677924220846488,"23":-0.08211665212119386,"24":0.03341647308897115,"25":0.17194097110335785,"26":-0.16293865175323,"27":0.031010773647247976,"28":0.05395213482993944,"29":0.06244558861900364,"30":-0.011743920336631925,"31":0.05561257089592143}},{"sx":1,"sy":1,"depth":32,"w":{"0":0.0047930889897801155,"1":0.13692309660999702,"2":0.05041873484461612,"3":0.08878154680488991,"4":-0.006047016283761152,"5":-0.19826236788024984,"6":0.03690784918842368,"7":-0.07876286661940493,"8":0.022145784733598392,"9":0.1566451542376421,"10":0.06316200387433638,"11":0.06327417348802944,"12":-0.13735928285210405,"13":-0.03598072745723856,"14":-0.07470844092463917,"15":0.13814673660648838,"16":0.10227740545077846,"17":0.03378300333319779,"18":-0.11302671025846164,"19":0.03519662712526297,"20":-0.07217372254164511,"21":-0.1475879252469142,"22":-0.04418565287189143,"23":-0.08410089268799,"24":-0.03888091168742106,"25":-0.10031330274556863,"26":0.11265900764268712,"27":-0.10177592086287947,"28":-0.04035319829384017,"29":-0.05073998796643066,"30":0.08453767649720137,"31":0.06166546750657341}},{"sx":1,"sy":1,"depth":32,"w":{"0":0.07385325464473852,"1":0.21337001493299884,"2":0.04573866333159701,"3":-0.17738522442253307,"4":-0.1456889341863457,"5":0.08981192510415986,"6":0.04477968294761339,"7":0.16308229748040565,"8":-0.1369783598555476,"9":-0.017569798231742657,"10":0.04538499757015787,"11":0.11740818851531862,"12":0.002979828441632366,"13":-0.020483046906521467,"14":0.16725723871367013,"15":-0.0016763924807346822,"16":-0.01796988014678784,"17":0.09224407753476226,"18":0.16666025714467173,"19":0.04049587701902623,"20":-0.1031387245766363,"21":-0.14205594536557456,"22":0.019303832728719907,"23":-0.02287020159216618,"24":0.06602719298068066,"25":0.07282305887637892,"26":-0.20217991956473363,"27":0.0019910287956948856,"28":-0.0072650334880219,"29":0.09743151206988919,"30":-0.12779971996935033,"31":0.17343474450638444}},{"sx":1,"sy":1,"depth":32,"w":{"0":0.09815396253523719,"1":0.22204619616448923,"2":-0.027957461151900277,"3":0.06527369117640862,"4":0.0711071273579196,"5":0.02398849944893382,"6":-0.14719743537493699,"7":0.13234658910238667,"8":0.019449045824583826,"9":0.0003056467085198784,"10":-0.16267206002003548,"11":0.062366474619521585,"12":-0.04942962412769493,"13":0.0379375654673745,"14":0.0027585764011511093,"15":0.005428829924453332,"16":-0.08689383981518602,"17":0.006751694855395757,"18":-0.0686845239206497,"19":-0.012456700833928554,"20":-0.09443803784176064,"21":0.04430296152632845,"22":-0.03024926461319116,"23":-0.12006028498486775,"24":-0.1519274656516324,"25":-0.018236141209230616,"26":-0.05963400741012028,"27":-0.18600167173476484,"28":0.08574536531841415,"29":0.03550374705706247,"30":0.06234706504646445,"31":0.22571844592238396}},{"sx":1,"sy":1,"depth":32,"w":{"0":0.0033056685072756237,"1":-0.15602542150006737,"2":0.031538835209306455,"3":-0.2120900152623357,"4":-0.04093563143782702,"5":0.17829603532546687,"6":-0.031341112730264485,"7":-0.004312550787826626,"8":-0.030108470795032875,"9":-0.10522085107944927,"10":-0.20497208175216539,"11":0.10178138329550518,"12":0.059298254117419326,"13":0.14324044638411634,"14":0.05005059828154758,"15":0.1336786330404005,"16":0.11567558539642307,"17":0.10977290834841653,"18":-0.14734365103566222,"19":-0.008399682192407443,"20":0.15180537212452103,"21":0.12014120969928506,"22":-0.06252458755697927,"23":0.0980510742107799,"24":0.1467182546172749,"25":-0.11838259259475066,"26":-0.03955805745325613,"27":0.059197055414779445,"28":-0.14674224474009115,"29":-0.13706382056503205,"30":-0.08069437258428688,"31":-0.15486643627283408}},{"sx":1,"sy":1,"depth":32,"w":{"0":0.13216049030390947,"1":0.15816978987913988,"2":0.16705869522211494,"3":-0.010791305147257112,"4":0.02764849877487675,"5":-0.008716218473965335,"6":-0.04504009354392406,"7":-0.15024109026015928,"8":-0.06147564656412093,"9":0.02866325039433566,"10":0.018906717151787357,"11":0.02482649631284649,"12":0.003230059951806508,"13":0.05005910453789925,"14":0.20613979025474302,"15":0.02330985561874438,"16":0.14341006562400987,"17":0.19220358802762375,"18":-0.10744692421048821,"19":0.0687659225508454,"20":-0.018115925109614975,"21":0.0952900953335018,"22":-0.011970333480260354,"23":0.04085761680845597,"24":-0.17238183265755916,"25":-0.14198492562420018,"26":0.04521765080842839,"27":-0.11198176203243526,"28":-0.29301683461276373,"29":-0.07008983578674474,"30":-0.020977502491854576,"31":0.06802761756010217}},{"sx":1,"sy":1,"depth":32,"w":{"0":0.17280395632128503,"1":0.08231451615317319,"2":-0.16714252982271766,"3":0.10900191839511524,"4":0.024268388104651012,"5":-0.004100534126090735,"6":0.10614530391089812,"7":0.09984355400232671,"8":0.0024043391868775695,"9":0.01808673009719414,"10":0.04452990603968696,"11":0.08944909578118009,"12":0.07023232163191191,"13":-0.17976508911372568,"14":0.18347303532597425,"15":-0.02405168273152841,"16":0.08087327115607924,"17":-0.004558519495925301,"18":-0.02725323878405345,"19":-0.05946887189393062,"20":-0.05878118506223733,"21":-0.01240789303407828,"22":0.05512256252156523,"23":-0.028592763375800467,"24":-0.015508930028953738,"25":-0.11558871873008733,"26":0.055360954006341105,"27":-0.032991821436175524,"28":0.036443139218604266,"29":0.08939635445417152,"30":-0.020338245303207218,"31":-0.057182185911395685}},{"sx":1,"sy":1,"depth":32,"w":{"0":-0.07642818121928498,"1":0.08775539339371956,"2":-0.10707465599895664,"3":0.002636595528959613,"4":0.1361868213245544,"5":-0.1379387776475402,"6":0.09998821052890368,"7":0.006517624465824076,"8":-0.12407617022174756,"9":0.0982345325122698,"10":0.26308093463852966,"11":0.01035537757328958,"12":-0.018621695640216113,"13":0.16043562905751646,"14":0.053638245623552586,"15":-0.05778860283911004,"16":0.0039156629785971914,"17":0.06348351997066827,"18":-0.1062414457069417,"19":-0.17898853477564028,"20":-0.09664016075290476,"21":0.10627066345741508,"22":0.07750516564061781,"23":0.05644719109029466,"24":-0.032082525594337545,"25":-0.24204075080715845,"26":-0.28527046413313983,"27":-0.09064849720454929,"28":0.04430905349059673,"29":0.07712533996997577,"30":-0.09436371173136013,"31":0.11143455179518504}},{"sx":1,"sy":1,"depth":32,"w":{"0":0.028699164956888044,"1":0.08014705348626185,"2":0.12947590745170603,"3":0.10949188831502524,"4":-0.15913259812039657,"5":0.0037512868788718984,"6":0.18793684925853715,"7":0.10759955348178331,"8":0.05816733874302149,"9":-0.05909530065374931,"10":0.056281366330524774,"11":0.19783396758120061,"12":0.07009360883766236,"13":0.19112103431171715,"14":-0.15005136385888146,"15":-0.07123504672081772,"16":-0.212309652979035,"17":-0.02076802325613234,"18":-0.0664957656523631,"19":-0.08367702394008719,"20":-0.1618244028651387,"21":-0.06827480622260002,"22":0.07638651336282988,"23":-0.14849921658226622,"24":0.09241959023262525,"25":-0.08255213179567367,"26":-0.0049479791106373785,"27":-0.08611501044911238,"28":0.018575674827126045,"29":-0.15623824903416705,"30":0.1583490944857499,"31":0.0743302941349323}},{"sx":1,"sy":1,"depth":32,"w":{"0":0.17008676138526158,"1":-0.11873609796319798,"2":-0.005077436296306861,"3":-0.002844962098512022,"4":0.05259685214433482,"5":-0.25200257915765256,"6":-0.1135960293088151,"7":-0.07703005375258702,"8":-0.11635069201644141,"9":-0.014971600695672535,"10":0.2614498255943612,"11":-0.03591480173324079,"12":-0.060648092085828206,"13":-0.07546363841832976,"14":-0.16533700393471168,"15":-0.25072007652107675,"16":-0.1219460163484876,"17":0.18800588685350936,"18":0.315911852044538,"19":-0.11549650906755239,"20":0.1088910726115134,"21":0.03057478445157698,"22":0.12046177110546528,"23":0.09191628385100954,"24":-0.09021815460037134,"25":-0.05708898242831309,"26":0.13743441553221303,"27":-0.17203556807165424,"28":-0.08039708773526397,"29":-0.01573600752234246,"30":0.14551394814474436,"31":-0.09654574958876054}},{"sx":1,"sy":1,"depth":32,"w":{"0":-0.055007596232814766,"1":0.010112535225614961,"2":-0.038060846061315455,"3":0.30488323945976253,"4":-0.0339212351602608,"5":-0.09322148128424369,"6":-0.041496353027574165,"7":0.16816732331954273,"8":0.0839947738946766,"9":-0.06415994373978011,"10":0.12833140632634288,"11":-0.02604999905277866,"12":-0.0023799576173066826,"13":0.06893581762046054,"14":-0.1761078743864233,"15":-0.15727057338572348,"16":-0.17219438184693525,"17":0.09996885994596903,"18":0.22022379760373692,"19":0.06442282223566212,"20":-0.1360521377287759,"21":0.0034497937264933933,"22":0.07266803628630217,"23":-0.03305171235846301,"24":-0.17813559409175475,"25":-0.015889953209754514,"26":-0.10711386892342391,"27":0.037871732688376646,"28":0.02312240634651753,"29":0.0055209833729292015,"30":0.008393834714651778,"31":0.06476738996656764}},{"sx":1,"sy":1,"depth":32,"w":{"0":0.1097529438296891,"1":-0.12493270763810053,"2":0.14244128995304992,"3":-0.2182668879263591,"4":-0.04165124622734557,"5":0.06459350374390153,"6":0.012819154805844288,"7":0.021485676710233298,"8":0.0529376492326735,"9":-0.05385218120183978,"10":-0.26478299947525785,"11":-0.033028056028134335,"12":-0.05496357705047988,"13":0.22700207802689562,"14":0.16925388529859106,"15":-0.14588896330503487,"16":-0.09591898027284199,"17":-0.13415506571294392,"18":-0.07135070823179585,"19":0.024294894779084943,"20":0.014012100783045408,"21":-0.09118060060529305,"22":-0.08551913052242761,"23":-0.03188488527156457,"24":0.024255142932690422,"25":0.016305806448422732,"26":-0.17696725646623385,"27":-0.09389241414038231,"28":-0.15745212362983987,"29":0.19275048577429496,"30":0.06122078559616836,"31":0.046223861608068295}},{"sx":1,"sy":1,"depth":32,"w":{"0":-0.17232829985499137,"1":0.02290638241408835,"2":-0.10502198017964207,"3":0.12611285721019996,"4":-0.04041919568347326,"5":0.08283939867760517,"6":-0.010800761596724634,"7":0.1167134620628176,"8":0.061965695990825194,"9":-0.18383747785497495,"10":-0.050786216440149926,"11":0.0906082340857243,"12":-0.1280393246533478,"13":0.053291360093128785,"14":-0.10603241537612192,"15":-0.20444924319386046,"16":0.10398475673287677,"17":-0.0067995711215198575,"18":0.05670872309242039,"19":0.08795317251278191,"20":0.09966974690563232,"21":-0.09386527910533271,"22":-0.006069788658357046,"23":-0.044493938858858495,"24":-0.19294508030812307,"25":-0.08855765838359234,"26":0.05714903406432736,"27":-0.03552264191318355,"28":0.08072024096852781,"29":0.0729298252349139,"30":-0.011671091461581455,"31":-0.006083927322549559}},{"sx":1,"sy":1,"depth":32,"w":{"0":0.022601133008569082,"1":0.14469340253617127,"2":0.099921989437082,"3":-0.05466043243574538,"4":0.16269841271961322,"5":-0.1606500593535499,"6":0.032875621251247954,"7":-0.09952965732568327,"8":0.06378126187247746,"9":-0.04784180686378504,"10":-0.024278759571928207,"11":-0.013385376632657863,"12":0.057684460950123265,"13":0.02291262307456912,"14":0.1441226598109009,"15":-0.048316182690040836,"16":0.032383114577002006,"17":-0.01185287800209219,"18":-0.1647640114138169,"19":-0.009351846291539814,"20":-0.02526022652418035,"21":-0.1803830746795892,"22":0.045089158357071196,"23":-0.14572607513193125,"24":-0.005363867846799013,"25":0.08537399764993082,"26":0.004865045641533599,"27":-0.07089828707655535,"28":-0.201156791965911,"29":-0.06811140771796567,"30":0.06813831788183795,"31":-0.022090232997193992}},{"sx":1,"sy":1,"depth":32,"w":{"0":0.04361650410959793,"1":-0.1314470764641301,"2":0.12888674841939865,"3":-0.11399833354089488,"4":-0.055643405878591755,"5":0.15035486414435403,"6":0.17290484263302264,"7":0.074515687999977,"8":0.02848978107556065,"9":-0.024738530971973108,"10":0.25521858931558644,"11":-0.15605737042029494,"12":-0.04826059333022077,"13":-0.15385298675887474,"14":-0.06115269091436076,"15":-0.12147388143593742,"16":0.09903750414804668,"17":-0.020326899713317196,"18":-0.02160893763879824,"19":-0.06854155845580256,"20":-0.045858107889024655,"21":-0.10853503275637139,"22":0.06137067266254105,"23":0.23996845431584482,"24":0.0900166695179276,"25":0.07354899615086628,"26":-0.00040314789233238444,"27":0.15963964246158738,"28":-0.04605867237213014,"29":0.05590961441031522,"30":-0.07777287420410055,"31":-0.05138016062324672}},{"sx":1,"sy":1,"depth":32,"w":{"0":0.16323555898509023,"1":0.13412940831281026,"2":0.01135419786134453,"3":-0.040762887032390185,"4":0.16544900068123036,"5":-0.13018357976854514,"6":-0.09484355664443408,"7":-0.04605315559638886,"8":-0.021944395915289572,"9":-0.0570437290053142,"10":-0.031221980450685385,"11":-0.05664585972949959,"12":0.013145107039527136,"13":0.020224956403554893,"14":-0.18706661416957243,"15":0.15438536044865506,"16":0.1641001835230275,"17":-0.23136067425669854,"18":-0.1328232820674855,"19":-0.01900725018097279,"20":-0.08906058993241728,"21":0.16792647356586943,"22":-0.02935402532828747,"23":0.04187446202968577,"24":0.09666189133575892,"25":0.018982199725775757,"26":-0.0389922990956337,"27":0.05810490999078591,"28":-0.059015180837572644,"29":-0.11865533839871444,"30":-0.04135547067543854,"31":-0.03320484731256016}},{"sx":1,"sy":1,"depth":32,"w":{"0":-0.15754739550865346,"1":-0.04307493401424259,"2":-0.07916104068222601,"3":0.16700782674133063,"4":0.1284111727375899,"5":-0.13468133618517678,"6":-0.1348541866716175,"7":-0.163803904367164,"8":-0.098389829748306,"9":0.1515668966530656,"10":-0.0903015448948256,"11":-0.03250415572381358,"12":0.020750443337012373,"13":0.08012814168269472,"14":0.03985643531791556,"15":-0.1635029458810704,"16":-0.2714898613059794,"17":-0.19304549641267085,"18":-0.08238864760331632,"19":0.06246649284363783,"20":-0.1251491824692081,"21":-0.015016276170634335,"22":-0.09783210252529154,"23":0.07901184904184545,"24":0.11983112343575887,"25":-0.17702970004712942,"26":0.04703552709247548,"27":0.003233424856349705,"28":0.013223359756348214,"29":-0.06189832062371287,"30":0.05684056326483118,"31":0.021351692706880823}},{"sx":1,"sy":1,"depth":32,"w":{"0":-0.07586945398078554,"1":0.0013229800038264546,"2":0.007574069464717067,"3":0.0949147063725813,"4":0.17913979843364258,"5":0.10459807198392504,"6":-0.04077871280626426,"7":-0.04499840605722014,"8":-0.062458788442622724,"9":-0.029755155032143977,"10":-0.0649585432739326,"11":-0.06861888234699708,"12":-0.08158687867347102,"13":0.07424733539574839,"14":-0.027729341585567672,"15":-0.07375001444923801,"16":0.15749339256838576,"17":-0.025010596913094124,"18":0.06655747419413607,"19":0.3258203330097432,"20":0.26922959119996787,"21":-0.08376343744315576,"22":0.06369277084716629,"23":-0.10512119135146955,"24":-0.18289636447101612,"25":0.09306399650600167,"26":0.22465442330349264,"27":-0.044064612422437935,"28":-0.14672968388313742,"29":0.005984016819840085,"30":0.043276892847736406,"31":-0.10352004232123635}},{"sx":1,"sy":1,"depth":32,"w":{"0":-0.13611350610950446,"1":-0.08831705439637831,"2":0.10702841290216386,"3":-0.06789843028597087,"4":-0.016293033800741204,"5":-0.1399653529163058,"6":-0.02760933376875497,"7":0.09623077203423261,"8":0.017640729731941005,"9":-0.024510426020045,"10":-0.06380895882746732,"11":-0.04186596826978124,"12":-0.06300078194551946,"13":-0.02204864984163702,"14":0.08756880120321352,"15":0.02195980701465879,"16":-0.1023118276749866,"17":0.022342799366220075,"18":-0.10567423251638355,"19":-0.023270490275650806,"20":-0.09729553999204216,"21":0.08393397666332003,"22":-0.08715568550140895,"23":-0.2965987605545134,"24":-0.21895476478993295,"25":0.1672853259531689,"26":-0.013602737544840723,"27":-0.03468581583348429,"28":0.20099475883753665,"29":0.012558809885447579,"30":-0.12071139540457487,"31":-0.13809112528277664}},{"sx":1,"sy":1,"depth":32,"w":{"0":-0.11581079868492782,"1":-0.03709675598377686,"2":0.1097234041236894,"3":0.07276343453021679,"4":-0.04053001519985634,"5":-0.1018419429736235,"6":-0.07095494178722672,"7":-0.04349891914397058,"8":-0.2389039549359919,"9":0.06276676192144774,"10":-0.06712787171873048,"11":0.16640127555547884,"12":0.0036156053109521126,"13":-0.15786457553752367,"14":0.18326644320871804,"15":-0.08722193843352881,"16":-0.04812984700544388,"17":-0.011903724825632334,"18":0.12384384286981144,"19":0.1825368137954684,"20":-0.14291885559594505,"21":-0.15852845177960215,"22":-0.06646388001571112,"23":0.1306998460957578,"24":0.0995530243889311,"25":-0.3752362708857454,"26":0.21761390924345103,"27":0.09774107445545069,"28":0.10303743082350153,"29":-0.2633472712739976,"30":0.021061096843792218,"31":-0.15463340460645872}},{"sx":1,"sy":1,"depth":32,"w":{"0":-0.07404433212802988,"1":-0.08747428118488772,"2":0.22508098294604284,"3":0.10615427116914877,"4":0.07443568828817355,"5":-0.16899339276669956,"6":0.01978865336634074,"7":-0.10761045649210567,"8":0.017468900910174105,"9":-0.15411956521495054,"10":0.02543200716114034,"11":-0.13880112776899795,"12":0.11022016933453634,"13":0.07252970507610261,"14":0.15127324461324937,"15":0.011501179943074284,"16":-0.022997940262649084,"17":0.1522705705002762,"18":0.2909009882188635,"19":-0.11958517429544151,"20":-0.2378627281363029,"21":-0.18868562962607285,"22":-0.06675370801095924,"23":-0.09993681313505504,"24":0.09910966606107004,"25":0.027789932735132385,"26":0.16800019746749914,"27":0.10299877928575299,"28":0.01173621333411592,"29":0.030088362828126193,"30":0.02676768232134039,"31":-0.10243173203822434}},{"sx":1,"sy":1,"depth":32,"w":{"0":0.19384238595241327,"1":-0.03451363864912788,"2":0.06735014283427798,"3":-0.1774811464337882,"4":0.1053723993588941,"5":0.007185932661086646,"6":0.06953589840998167,"7":0.05034568451256469,"8":-0.10667153638716567,"9":0.06275111108688211,"10":-0.23920481414747213,"11":0.11943639584686033,"12":-0.01327688032776212,"13":-0.14388894711558214,"14":-0.034413132184074116,"15":-0.1433415076392643,"16":-0.022450749491778114,"17":-0.05869062737993841,"18":-0.11442069623980873,"19":0.10998214251297016,"20":-0.03893088691486296,"21":-0.09508078857987541,"22":-0.12296535462484807,"23":0.01572717757367409,"24":-0.02569868817303147,"25":-0.20734957267186432,"26":0.05339297958246264,"27":-0.0014505428000211587,"28":0.040288603148828574,"29":-0.09857651746131543,"30":-0.06801335559063885,"31":-0.09489283888581113}},{"sx":1,"sy":1,"depth":32,"w":{"0":-0.19302755151656287,"1":0.1341046514713406,"2":-0.0026281261848843567,"3":0.08789747280037913,"4":0.024211114513098493,"5":0.07553504412271028,"6":0.01761008250127903,"7":0.11978815617784093,"8":0.11827911873321086,"9":-0.04217535030056201,"10":0.06110608381679136,"11":-0.18840860250531463,"12":0.034718165993623075,"13":-0.02679186946824545,"14":-0.23044676305609088,"15":0.02272820177411501,"16":0.022283879853441716,"17":-0.05780790990009761,"18":0.17509997669646146,"19":0.08244126021050162,"20":-0.10981117870865545,"21":-0.08784168238591225,"22":0.13555211193965566,"23":-0.10415903974474314,"24":0.07850492355397876,"25":0.21952548924407395,"26":0.07465902980205234,"27":0.09858413381927764,"28":-0.07767256015157853,"29":-0.15271099679607567,"30":-0.13712705556517552,"31":-0.29213514629000137}},{"sx":1,"sy":1,"depth":32,"w":{"0":-0.020216770727484745,"1":0.17215700715819335,"2":0.10659898415808057,"3":-0.1062958119327777,"4":0.15538732709193473,"5":0.11832265529510928,"6":-0.1764887688058002,"7":-0.1817367596805934,"8":0.05591240165033091,"9":-0.01384710830588896,"10":0.06919828619514842,"11":-0.1497516189570951,"12":0.07803751835752054,"13":-0.02478328542686243,"14":0.13149514193331494,"15":0.18899604558107766,"16":-0.06843218385988566,"17":-0.10551645062471582,"18":-0.08777304632749319,"19":-0.002939480376889571,"20":-0.18189435963066605,"21":0.09069191346544614,"22":-0.012858068240403912,"23":0.05878958354645607,"24":-0.02732191938091049,"25":0.10181534879562211,"26":0.06448312355945629,"27":-0.05374281966399712,"28":-0.07651079932219829,"29":-0.04505469228837639,"30":-0.029403371843086723,"31":0.13610461610784072}},{"sx":1,"sy":1,"depth":32,"w":{"0":-0.13487566924804215,"1":-0.0890364305511198,"2":-0.12284405955118173,"3":-0.055375866534875084,"4":0.01461829026612365,"5":0.17457499966901457,"6":0.036085200555564086,"7":0.14602768019880064,"8":0.06357541449496983,"9":0.048790376818482854,"10":0.0698522447287823,"11":0.06771142073585594,"12":0.03500468008864001,"13":-0.13953879364360866,"14":0.16506765370146964,"15":0.009256227381411977,"16":-0.02163751356757137,"17":0.1918645201611054,"18":0.01582632303021169,"19":-0.15620364139773565,"20":-0.05868428897599923,"21":-0.11137277192219361,"22":-0.0021580598097263853,"23":-0.14895595104195322,"24":0.0271984852343996,"25":-0.14951473705998156,"26":0.1182786291473699,"27":-0.14103925225940944,"28":-0.129915980921761,"29":-0.09928514290535957,"30":-0.27176059728763563,"31":-0.18538733826363563}},{"sx":1,"sy":1,"depth":32,"w":{"0":0.0552369693584402,"1":0.2616932388729051,"2":0.08254908249149699,"3":0.08920547163927556,"4":0.022711011849269828,"5":-0.0343054108762511,"6":0.08773427235885177,"7":-0.11686544216623379,"8":0.14586678108161932,"9":-0.16424735752828593,"10":0.024416830757365057,"11":-0.15320742471711657,"12":0.20708168980966454,"13":0.12763848623667476,"14":-0.17880618750879723,"15":-0.13103711335447266,"16":0.04952796590605086,"17":-0.08954626768975173,"18":-0.13774533335197592,"19":0.07437281090618653,"20":-0.11933880861876037,"21":0.09511726834744101,"22":0.05847165358514304,"23":-0.0706043986052335,"24":0.06913365758116952,"25":0.02973993707792921,"26":-0.1206704399072223,"27":-0.06093843645737213,"28":-0.23095042426645732,"29":0.009183460542128518,"30":0.005380355048313188,"31":0.11699433621699988}},{"sx":1,"sy":1,"depth":32,"w":{"0":0.007038327964779652,"1":0.10537209569249084,"2":0.09349437542439097,"3":-0.15376839378986182,"4":-0.05713735485173871,"5":0.027264963277007788,"6":-0.03333888645667225,"7":0.017466747346118743,"8":0.013282018910925654,"9":0.14507675389182215,"10":-0.030115658024708173,"11":-0.03280455340921349,"12":-0.09084149954987603,"13":-0.01985549117209841,"14":0.050831706600411135,"15":0.04556744393675966,"16":0.08699389300040661,"17":-0.08009196639464511,"18":0.04027738823855346,"19":0.09131840129408608,"20":0.20091372078667896,"21":0.1915638011404238,"22":-0.08820023710509366,"23":-0.010706317311937526,"24":-0.22786886317155092,"25":-0.06949184705112561,"26":0.0956158451399339,"27":0.09566049781713404,"28":0.039818243125782145,"29":-0.1444078408501418,"30":-0.20577285423417727,"31":0.17191615720446551}}],"biases":{"sx":1,"sy":1,"depth":32,"w":{"0":-0.029700018555600227,"1":0.12831072664073703,"2":0.05010210777165081,"3":-0.016341569449820674,"4":0.21216470845667523,"5":-0.2015874060097495,"6":0.18005960476757238,"7":0.004347093633599143,"8":0.1732651044370916,"9":0.2673048452715397,"10":0.29376224508477633,"11":0.13685105861019417,"12":0.03779320716871748,"13":0.7435870044936812,"14":-0.2261378974258344,"15":0.10533286131380644,"16":0.3720667587788133,"17":0.3361939734015771,"18":0.1236926948212616,"19":0.09610735650779635,"20":0.16976537554939794,"21":0.23243221010542736,"22":-0.0018907972473920422,"23":0.10590956325998299,"24":-0.11227348945919398,"25":-0.2255483583124352,"26":0.0652975905994447,"27":-0.2455015710156596,"28":0.00916518424194507,"29":0.26828871891112804,"30":0.17193758184022656,"31":0.0038941065662348867}}},{"out_depth":32,"out_sx":1,"out_sy":1,"layer_type":"relu"},{"out_depth":32,"out_sx":1,"out_sy":1,"layer_type":"fc","num_inputs":32,"l1_decay_mul":0,"l2_decay_mul":1,"filters":[{"sx":1,"sy":1,"depth":32,"w":{"0":0.2353632298841489,"1":0.02200092723999151,"2":-0.031122804319016945,"3":0.267111004826996,"4":0.03950125312260205,"5":-0.171657590872249,"6":0.13530477990015416,"7":0.004218800072494513,"8":0.03183618810294214,"9":-0.07656867671650142,"10":0.17690814791455597,"11":0.11901148929509398,"12":-0.10685355288918721,"13":0.03923310230551551,"14":-0.05201784030168339,"15":0.1383395296256163,"16":-0.15224663308154032,"17":0.15301997487567687,"18":0.04006819483106316,"19":-0.004949190123256102,"20":0.09342460391976888,"21":0.0031419874631301095,"22":-0.055338218347389195,"23":-0.07881309009682634,"24":0.14470383090419253,"25":0.09734258816174352,"26":-0.12219311760049609,"27":0.002439271625539726,"28":-0.025670038144201997,"29":-0.08543767017543498,"30":-0.05666898229439222,"31":0.06481135447403329}},{"sx":1,"sy":1,"depth":32,"w":{"0":-0.18773561825314203,"1":-0.05631104445152381,"2":-0.11625459605948975,"3":-0.012573326568839294,"4":0.03635533947540086,"5":0.05079871906457,"6":-0.10417725327938235,"7":0.03854457679641728,"8":0.06251124952008962,"9":0.031081664088823104,"10":0.0042157631429807895,"11":-0.031856399160383644,"12":-0.08741631640148043,"13":0.09232235259443419,"14":-0.14150427676124422,"15":0.04440577848301668,"16":-0.09733940886799988,"17":0.18395216621623478,"18":0.0816149324729756,"19":-0.02821880904369806,"20":0.054732201890195585,"21":-0.14793916358227333,"22":0.04824291977147968,"23":-0.0031753052835386377,"24":-0.06691448141558054,"25":-0.051935756380879265,"26":0.10869926842678265,"27":-0.027488680839700432,"28":-0.042182762270704624,"29":0.04163940507838723,"30":-0.04145955129262362,"31":-0.027536832579586168}},{"sx":1,"sy":1,"depth":32,"w":{"0":-0.014680207046856292,"1":0.11075566257469852,"2":0.005008956358086894,"3":-0.1907474896031828,"4":0.10730311402380543,"5":-0.16600809726452903,"6":0.08471729869602446,"7":0.0030567866959985146,"8":0.1512479611486328,"9":-0.0835848624082185,"10":0.159481871474248,"11":-0.03993827478936655,"12":-0.09861688433774292,"13":0.07499057234046053,"14":0.04724451097051033,"15":-0.09114885821829166,"16":0.09136090793681236,"17":0.08781150851380207,"18":0.26411103029706445,"19":-0.3232649004709576,"20":0.11940477224101569,"21":0.19998886457153725,"22":-0.04181679387151263,"23":-0.05246983543202772,"24":0.17221592468110977,"25":-0.1336957952700393,"26":-0.01360272429072054,"27":-0.03438951541457754,"28":0.10101764996449945,"29":-0.151509394993363,"30":0.16890826920949092,"31":-0.10746434452879933}},{"sx":1,"sy":1,"depth":32,"w":{"0":0.013222307569298583,"1":0.09494232090651752,"2":-0.056620045416999935,"3":-0.04001381002012845,"4":0.13343817269685695,"5":0.04957646908161822,"6":-0.05500952837451845,"7":-0.012640798494097832,"8":-0.048578228478313216,"9":0.13787112357684464,"10":-0.08509627342297003,"11":0.0013162705797920829,"12":-0.0653571052108828,"13":0.06822774416515985,"14":0.08040840411157722,"15":0.06518416108488241,"16":-0.009219897555701366,"17":-0.05999893089446569,"18":0.04143463400625013,"19":-0.13752105109396728,"20":-0.08236548659837027,"21":0.07786623445978443,"22":0.02266484087071521,"23":-0.17149990660193293,"24":-0.16346865823388754,"25":-0.131127541761455,"26":0.1581027208521465,"27":-0.03304497954895345,"28":-0.10015483251339947,"29":0.07270929602832378,"30":0.1499022171043719,"31":-0.18732592072348647}},{"sx":1,"sy":1,"depth":32,"w":{"0":0.032533820117956025,"1":0.09866684691995832,"2":0.1919077604243577,"3":-0.005964045202994837,"4":0.0005038297021023449,"5":0.08618696811962642,"6":0.03643370810409976,"7":-0.022137286064627178,"8":-0.008724235239719097,"9":-0.025587519063395757,"10":-0.2208316168415854,"11":-0.12595101248644516,"12":0.0012415641898457265,"13":0.027038789891432657,"14":0.057203601856983796,"15":-0.17014767224230506,"16":-0.199910477450923,"17":-0.13854049830169624,"18":0.09291078551862772,"19":-0.049297899898782936,"20":0.14097476156460517,"21":-0.14001300589111326,"22":-0.015139684552186691,"23":-0.06867577482016304,"24":-0.1917258063747878,"25":-0.0004641426316559415,"26":0.03159050358871507,"27":-0.07884095833466141,"28":-0.1927489382506568,"29":0.014474202145236524,"30":0.2097658930150041,"31":0.06827926931077154}},{"sx":1,"sy":1,"depth":32,"w":{"0":-0.04178318301103297,"1":0.13631944596940124,"2":-0.16947478779599617,"3":0.023251205444488478,"4":0.10000964830983737,"5":-0.07195523948365423,"6":-0.05691774841698227,"7":-0.1565196963142038,"8":0.07593381068900058,"9":-0.12892702888532212,"10":-0.03640054056770082,"11":0.1530200370797338,"12":0.2394639463112106,"13":0.25230901164875286,"14":-0.20280756246428175,"15":0.18644233670264707,"16":-0.011087156702758165,"17":0.10212719306084468,"18":-0.14379357666565112,"19":0.17849285471213225,"20":0.03259430938393399,"21":0.03432490005572886,"22":-0.03498991570394916,"23":-0.014138100907917303,"24":-0.15997977938772112,"25":-0.05144166004790298,"26":-0.014269980935947493,"27":-0.12957982796496978,"28":-0.19010067081809728,"29":0.236303002437446,"30":0.05936113386899421,"31":-0.154355574118939}},{"sx":1,"sy":1,"depth":32,"w":{"0":-0.21370911359911426,"1":0.20598347495400407,"2":0.10374784706216231,"3":-0.22028930988509107,"4":-0.14448616404869633,"5":0.08973092458314441,"6":0.01373239805915472,"7":-0.09015869735899538,"8":0.039178771365424886,"9":-0.006703996346896539,"10":0.10045109345772052,"11":0.1624394214406335,"12":0.11478424718401602,"13":-0.12000728033418986,"14":-0.05635203715316137,"15":-0.07221007521094132,"16":0.12853638567042153,"17":0.1295801924416788,"18":0.0954303731720606,"19":-0.1441990269269722,"20":-0.08589803657540945,"21":0.0810190042735948,"22":-0.03048635419416007,"23":-0.06582562013843696,"24":-0.1105406750836598,"25":0.12751566764411776,"26":0.09796267900229261,"27":-0.215965063056973,"28":-0.09647915453517945,"29":-0.013575905447243037,"30":0.08341434182726062,"31":-0.1879347931875181}},{"sx":1,"sy":1,"depth":32,"w":{"0":-0.18930468439183556,"1":-0.2235522990613244,"2":-0.06102434783323144,"3":-0.06606778300033547,"4":0.07900845933506848,"5":0.25481230717848313,"6":0.13888476772355476,"7":0.06855012571654365,"8":0.12146856404963087,"9":-0.11566216077095846,"10":-0.12196298029665394,"11":-0.17755326506200814,"12":-0.15721473238338055,"13":0.22776320341391434,"14":-0.30163474287797,"15":-0.07880601597179417,"16":-0.12613467128932634,"17":0.049362835962632946,"18":-0.07238190056234484,"19":-0.09052175153430499,"20":-0.09082953907688457,"21":0.04589411749954292,"22":0.3380598984933987,"23":-0.013301914866147737,"24":-0.06465057840570405,"25":-0.013760416067453781,"26":0.08155582739920002,"27":0.08726943075874133,"28":0.09369961140599628,"29":0.0876337464955556,"30":0.23727074553051228,"31":0.08832731307623821}},{"sx":1,"sy":1,"depth":32,"w":{"0":-0.06294373689559037,"1":-0.0053647571737878725,"2":0.07068782893935707,"3":0.07104640290761313,"4":-0.08197766025709002,"5":0.10309682324874327,"6":0.11711935829968517,"7":-0.03558527286522139,"8":0.14092947580439846,"9":-0.026015537702059364,"10":-0.0590280742225938,"11":-0.07678450455590963,"12":-0.08566069975371622,"13":0.08330244589680287,"14":0.05620990533953799,"15":-0.15528912632801417,"16":0.07085050033849843,"17":0.07891999579650849,"18":-0.03760354854458814,"19":0.02897201080429014,"20":0.06667840512690804,"21":0.18295415823942554,"22":-0.32445582397873046,"23":0.08134507779770618,"24":-0.0004506723590007214,"25":-0.036051022315852346,"26":0.05736405189735224,"27":-0.14886026599403704,"28":0.07005803901481537,"29":-0.1648518948156064,"30":-0.08376688644445701,"31":-0.10824547123976097}},{"sx":1,"sy":1,"depth":32,"w":{"0":0.03440142803513044,"1":-0.10510179273855917,"2":0.15914811467690168,"3":-0.04751567144685186,"4":0.05764735611989336,"5":0.05037265209391519,"6":-0.0730786889963657,"7":-0.03166895038973042,"8":0.07591733803170736,"9":0.0240565853887896,"10":-0.030420815159903827,"11":-0.04788682189260012,"12":-0.042793968967622366,"13":0.13524409061322396,"14":-0.04615475985853379,"15":0.0058345890021245924,"16":0.13328936324204305,"17":0.1343952580713322,"18":-0.018643257592759907,"19":-0.1769208553746768,"20":-0.050741951588745046,"21":-0.1439674133571218,"22":-0.08647798549788406,"23":-0.16771223968453625,"24":0.03916976872389894,"25":0.11548819211245788,"26":0.16724583131934373,"27":-0.025435038224667077,"28":0.13738761672398636,"29":-0.02296174415049173,"30":0.1309527186310284,"31":-0.07422314957989802}},{"sx":1,"sy":1,"depth":32,"w":{"0":0.02761401748666555,"1":-0.04272173844060343,"2":0.060966767436174275,"3":0.0285951737154257,"4":-0.11274016887511477,"5":0.010840420541112327,"6":0.03909330584282207,"7":-0.03152949418119237,"8":-0.12033063989051436,"9":-0.07061030157966536,"10":0.09199089268601854,"11":0.11021210324769158,"12":0.07389292892791734,"13":-0.144582576554108,"14":-0.05824362773418684,"15":0.06618017058796427,"16":0.07108087920930399,"17":0.07925085109563403,"18":-0.2385710935628901,"19":-0.17221592047910914,"20":0.009035385394517146,"21":0.13916682736043362,"22":-0.0033480747934343386,"23":0.09485426627406811,"24":-0.010384039801166072,"25":-0.020614810658233552,"26":-0.005754180122909218,"27":-0.03647119197558406,"28":-0.039287037171725075,"29":-0.07560671166365951,"30":-0.01831114177812291,"31":0.2507862534639576}},